108 300
alcohol -0.020521873610236552 0.0030305226634424233 -0.08361127279993644 0.054318154725506565 -0.06727228638358193 -0.006106523848466288 0.05358578006380542 -0.14095988523031813 0.012595363446118515 0.06132620686646444 0.023793212964445976 -0.0032148879900286125 0.0008784739513020754 0.005766925033574701 0.013217446346687551 -0.0968492239897429 -0.02549645237138184 -0.0014756518935440455 -0.004551177930283369 0.09505240145558401 -0.02174670437935733 0.004258329733434113 -0.09736998385798827 -0.08053572918561057 -0.08402297820475445 -0.009764873076987776 0.032564100652506894 -0.011663202836850173 -0.03124757904730658 0.07750795691025718 -0.09491890908922755 0.12518999040367576 -0.08981952173486568 0.12036241667471578 0.007019152339391796 -0.054509916821903946 -0.024810404306893335 0.005811393565312233 0.013339467398723909 -0.04228276154950983 0.05174367233184093 -0.009227909522069705 -0.025401467287794594 0.005394052283117146 0.03723825124436994 0.004163009752107221 0.02744273370727154 -0.004782615991433179 0.018015370796834622 -0.04066630637440545 0.012984022852637885 -0.05161055760977935 0.007347200412913685 -0.04537965888751045 -0.06057377723397114 0.003874274054864724 0.040998931477436974 0.0449653643752519 -0.04158490684148755 0.04019356496970885 -0.04039954690348047 -0.05303176701295508 0.09464735744491858 -0.028213914002484058 0.004296660188695096 -0.07651058299963535 -0.09208681246917702 -0.014416567688422827 -0.03571004792999902 0.010318501440692043 -0.09081928807336981 0.006320987614745723 0.08225420029260323 -0.0789567015806386 -0.05305572017659305 0.02900563674621215 0.07866904119063116 0.11902309137299504 -0.0015642776350176595 -0.012492026545533077 0.07690381719800111 0.025170865262648872 -0.061687390980136154 -0.016832518406665435 -0.03402690185854533 -0.052693247756984855 0.010475081230941598 0.05808613713029928 -0.022303444342031884 -0.0544794906056536 0.022857078162567313 0.001025938068575123 0.09335002416019024 -0.12216740103214263 0.017001061984553693 0.00036132885793478035 0.030722788727380462 0.08195803408246244 -0.00022475384901668964 0.002529226918068439 0.013391975784921439 -0.06196300353425078 0.0892444867090163 -0.037066879118051184 -0.027042842969626193 -0.04060886541586653 -0.0672825342645486 0.04937490837524946 0.01359253543026291 0.005261171295766933 -0.04195989272001153 0.013344973608002861 -0.07210467448770898 -0.02624423051292177 0.021313551149344502 0.0009192567922303798 0.06548837402018236 0.08381187913230133 0.0009080534011775048 0.02551485833727209 0.12373296978419104 0.02354412383041272 -0.11002674840759957 0.15946703527862863 0.013069268484245541 -0.027199491519728256 0.02110910988832689 0.0739628076730423 0.004384335656896652 0.10365928859689501 -0.01197273774991357 0.023909013386336102 -0.05559843532211408 0.04240826499957945 0.01485739477809583 0.0018823742584429014 -0.007088823229519547 0.034995098181470036 -0.036930385175331745 0.06001548246403964 0.04085776204092032 0.07552421408433743 0.07432499833110656 -0.01601696122806571 0.023374361419083414 0.12978380597955833 -0.0014549098372372928 0.011099337198871748 -0.02548613522684435 0.0235147014102908 0.05412618832409759 -0.1119596139038556 -0.03522325290839955 -0.05950141519682236 -0.051924754416244306 -0.04439785399878521 0.03418652561008242 -0.01410918268934546 0.11830068326725912 0.011508524025766236 -0.04380430069330866 0.06614843974016216 -0.0934861967006539 -0.004154588837266468 0.1097144368581586 0.007502023475776387 -0.03983683721181446 -0.07501336709331498 0.10594036111554703 0.03863283879226201 -0.13084205382989522 -0.08537708191044084 -0.06875213416157619 0.021599865836618996 -0.046131849624783706 0.06404591161788896 -0.037668846778271176 0.06118395805639294 -0.015051048140473583 -0.05297935469273735 0.014133300688961431 -0.040738890603879814 0.03321141112827655 0.05523777684994909 -0.028966987651549515 0.1204604380972861 0.0775412663757274 -0.06009478059493569 0.07286912204700093 -0.03754293160561289 -0.05972369134777123 -0.11526508196883875 0.05443403314511686 0.032074447700745294 -0.06117483725733786 -0.01877761312710535 0.0023560864330669173 0.04634197181514682 -0.10212247086597688 0.01224000797786185 0.015832188995151222 -0.032773066341540605 0.0023371749255158172 0.040587676325910496 -0.016684975864626535 -0.0980190527376071 -0.09308128642631235 0.039470492434322435 0.09514996036781188 0.0689544478955632 0.1911799348055873 0.0175858139086849 0.01095080123720716 0.043377394961634716 0.009127352544430202 -0.056399490581992166 0.003259949357744243 -0.14378663279610268 -0.06853436961052593 -0.011355741366119056 -0.023124681035575807 -6.108965074494472e-05 -0.0341791539340623 0.07771063817540677 -0.015965446121369187 0.03360719326955027 -0.08103271753970828 -0.10234020260081089 -0.016560369609552896 -0.012296207301043817 0.05825434420866066 -0.0008474440303467675 -0.0533554908261603 -0.05900786288773088 -0.018957361930890093 0.0393665851321134 0.02100000068919354 -0.07195797365052276 -0.006503530023241241 0.021942070183204918 0.023299479714924395 0.008055047283430358 0.05072870357465923 0.0012183978224970069 -0.015437710910993153 0.09570100779315065 0.05382349857699209 -0.037684002582900715 -0.008838789765987986 -0.02434582503401959 0.014125677374638832 0.02722393695070293 -0.07189410456550901 0.006017192978653871 -0.030860475078825406 0.04151006436370564 -0.022173745437101718 -0.09218842103236444 0.009121540081644865 -0.02201104483346091 0.015278480391462101 0.10606170893435082 0.006793861648715404 -0.012829662878339667 -0.12522176983527633 -0.07721888078017411 -0.048479276870738726 0.0434554598855003 -0.005380038856588455 -0.027461538205929295 -0.10040723810570604 -0.05230669997436184 0.043888913202735406 0.01280824201219152 -0.07705248987857416 -0.06218816978072476 0.05107863478326678 0.08719773293599618 0.024006751009729675 0.01272115583451183 0.09539934107874108 0.056951684297624434 -0.020575350658854852 -0.001751267798479361 0.058145283302896165 -0.034805071770388066 0.06518694031880817 0.08201302558947579 -0.11127852259398967 0.0863238184776539 0.049791730688942444 -0.06473986241935292 0.030859046082753132 0.001222114482982613 -0.06483470742811547 -0.07386389527212879 -0.027131610621763735 0.09596254457314421 0.045571210243190365 0.005385554116587083
allergy -0.01971622175182778 -0.008298874195983035 -0.0912962444569428 0.09548576281183288 -0.06142164315331278 0.0012712318936750494 0.031846147731170456 -0.10496248101448179 0.019461147062269497 0.06642535174889773 0.01145918119155697 0.032367683378782285 -0.0005081617824308842 0.0037334077412747887 0.015407791400605862 -0.08366018354467974 -0.009787227526672188 -0.020228416521434336 0.021648265871980446 0.09539054930230734 -0.011631594394100582 0.04536146265580368 -0.07541449109560552 -0.08096271910655865 -0.07712544827321523 -0.01392013815797708 0.02375372468906641 0.00018706704126061053 0.001008349130350505 0.0686798087039689 -0.07149743950958062 0.11342940025050273 -0.1256982142931734 0.13893700194335398 0.0003059662251482187 -0.0411399844762019 -0.00181503942823367 -0.01322954353155751 0.015889588515289696 -0.04912354487095672 0.03278872424419095 -0.025810097437752564 -0.006004665371003849 0.022324952997672773 0.03308165199430355 0.005215353211621748 0.03404841884242232 -0.01731513067611508 0.04139718802387048 -0.040886401945280273 -0.0030578139569131624 -0.06459907882420653 -0.035315004784858654 -0.05619945018291192 -0.06362583682438107 -0.0016265337353319898 0.019699152604682055 0.010744734386009735 -0.06538760445900457 0.08265496311886797 -0.04306249117534052 -0.08563893436272312 0.12304068437217251 -0.05069879593349693 0.004548868748493329 -0.07385771397301781 -0.10291194442969388 0.01840464373835593 -0.04567411601018059 0.01046009941722708 -0.06951383514046713 -0.0015973899411900168 0.07067321776188305 -0.0897421938461359 -0.0435879034018536 0.025873496010728792 0.12000856974226375 0.12270992070002214 -0.008181380817079318 -0.023982113278548944 0.05667727706704614 0.013769052199019045 -0.045933602058365434 -0.04136525995278698 -0.03391488908809075 -0.036908180590314976 -0.01761214957147569 0.05634678617775407 -0.03226747196401945 -0.07926602420717196 0.017257300502765294 -0.018217825860127337 0.13747400936339038 -0.14685168363569226 0.035758878430142416 -0.01180485293066941 0.0635158084771727 0.05660716623703503 -0.018002835102584592 0.018174508770958463 0.021507875222918714 -0.037811483480961576 0.06364216692211327 -0.06590859613685274 -0.03132036334690142 -0.02420384706291984 -0.0684529469547782 0.0351367456822714 0.013758297415872416 0.027718653294620428 -0.02985328009239648 0.011483291918279959 -0.05724889297579114 -0.01647394600497397 0.014667675583909245 -0.02620149935524946 0.07229998013576294 0.04061867082012695 0.010239778992257155 0.0686452896703887 0.1198828512765347 0.011347208303973172 -0.08299488630157725 0.1714187452466086 0.011795674148963398 -0.008835663522527504 0.028298677759901362 0.06947190248468023 0.026157195616248383 0.11184749233441475 -0.03492201298525761 0.05942796432223619 -0.05661366215687238 0.026700607647742732 0.02347195431143982 0.00612997653136418 -0.06393352363476239 0.04087734739488949 -0.04529820812799851 0.057020755932549995 0.014807770263702833 0.10064906217925458 0.06058628913309487 -0.022292275510301544 0.021325730847608314 0.11675542474382307 -0.004266740773775593 -0.0016080366063004495 -0.01041029090258655 0.03353325400896465 0.039748829233389404 -0.10253916454825246 -0.02853614927606635 -0.031344478706954795 -0.055191946977090255 -0.032312146934749084 -0.0068387744139770225 -0.009346706953465246 0.13215525515247167 0.00995921130637272 -0.047690115563372604 0.08599178033084856 -0.10748081394906414 0.010570242109773741 0.11614823155573506 0.0283658189984786 -0.031777117582915196 -0.06620897494357302 0.12076912692048546 0.041395185268271295 -0.08270347934044102 -0.09428277616666993 -0.08930701584608113 0.023733011442047095 -0.02431363827040127 0.06598362978158634 -0.042019249758161785 0.039605884887727934 -0.05337607228893989 -0.039892588449317874 0.00556949987079009 -0.046121323787985634 0.02239711423810442 0.04397544599885611 -0.024959516479537657 0.11638705214215249 0.031351121452161915 -0.04529634867044562 0.08121688708691047 -0.03049857331731417 -0.0503121420650165 -0.12492101011981775 0.06459544288543535 0.06049301649184296 -0.05235682964718341 -0.033913559749547365 0.005868576020344699 0.03284077989036955 -0.12199470872926302 -0.008213303289262675 0.03455291272417157 -0.026665836227291236 -0.0040466367486160235 0.027118685918193913 0.017165335345865458 -0.08380791584987694 -0.07825589611481122 0.011942682096354778 0.06769451399178729 0.05992051454614617 0.1986870098146732 0.011860935763358092 0.048950730546175054 0.012874894925411282 0.01209307194604103 -0.051848354260890454 0.00796350878436653 -0.1561319998943957 -0.04784472537946196 0.02436341351975591 -0.056825885772566365 -0.06757948415536864 -0.041894687857662136 0.07810142233902301 -0.02812200935833411 0.03069234461601255 -0.09448176551973576 -0.07150575880087473 0.0007447324716090425 0.014983601167578322 0.04527032775981796 0.02203469695286028 -0.058430021182506175 -0.00898892254094043 -0.04065599648293117 0.05337345148430399 0.03361618158935748 -0.04885723996080385 0.008516217629200703 0.048800618719236064 0.029513162657696636 0.018735274843532757 0.0519974403659225 -0.018962438239669088 -0.021192537297977553 0.14476393973154505 0.040954667162174926 -0.05281403434082357 -0.00561404012228472 0.026947976979391455 0.009326360098321109 0.019591910879170393 -0.04580831251986293 0.02053429014234176 -0.035688111908524604 0.018305480945990923 -0.0327507839437586 -0.10211371354512166 0.022012642751047196 -0.009861504495008768 0.023627392242282816 0.08822906334710424 -0.013198153797404057 -0.007905152744957284 -0.1030542734486815 -0.04122810448535119 -0.05889209807773217 0.05227223163159306 0.00045346189629770695 -0.04215363359251361 -0.10652161777928768 -0.022764029033379256 0.01936153094601317 0.010532819294292098 -0.06852758476583842 -0.04336732989104908 0.047075928892423395 0.08664475022039742 0.017144136066159433 0.009940419103424178 0.06458390746723477 0.01749481883925949 -0.006980373956295794 -0.008780741742482074 0.07283713586414271 -0.02542813719447088 0.0486195228191631 0.08025312823447107 -0.07478984652046525 0.0676494658495959 0.026291523963358505 -0.048346936880240166 0.029804945011671892 0.011931411945239782 -0.04511923686436282 -0.04702461121833765 -0.025964769616876708 0.08653962793833028 0.04507426684199934 -0.021106080876789137
aluminium -0.03148277006569472 -0.013626655927778992 -0.05324456429839708 0.09533798825159424 -0.061233269522405834 0.02196690053264719 0.048779318185866546 -0.13590830351469657 0.0112648938879803 0.09203959977087142 0.02553434840550245 0.019847010611409914 0.02244194661986562 -0.01831597661834863 0.016298147188241553 -0.08300807753389645 -0.03156584061590505 -0.018366868137629253 0.0009006882814903189 0.09941052291580678 -0.0378210622093482 0.018791664022602284 -0.08751207605656551 -0.08113418900925143 -0.08581691581732466 -0.0076192334088455195 0.037714419201794795 0.009732357175682358 -0.016656912236445023 0.06902026871827552 -0.08408741992370755 0.12926830153167881 -0.09535478960692433 0.11407924197809552 -0.009196395780985373 -0.04759864909289111 -0.00806549804484325 -0.02034866908183385 0.03702446969321906 -0.05969047977214409 0.04306482677708189 -0.0157456933534829 -0.016920377075197002 -0.002139210562495801 0.03043485110795893 -0.01361008041133583 0.019842888942353313 0.006924053786755419 0.04627717280870083 -0.038715719345828715 -0.005309600350616107 -0.053478764847747245 -0.01606786706642167 -0.009606982909853257 -0.04286254723664054 0.015128291990380554 0.030629341852835328 0.055791012586317856 -0.05112315007227301 0.053916551038462636 -0.03382009414990202 -0.06648921399143386 0.1000953720529758 -0.04301105539684673 0.004268840727495705 -0.08197936287166663 -0.09784254145488123 -0.018352744485150414 -0.05480570669891254 -0.010638095226766661 -0.08376764282755575 -0.009131625593195582 0.05495640632057044 -0.07305791864953362 -0.04278129296847031 0.013007138836477914 0.08296105407601953 0.10102352370606262 -0.00031330816399930566 -0.032067584540746236 0.06562101145228244 0.0352230825069784 -0.05956155790752002 -0.022009277842065907 -0.03571377190294207 -0.04397736174667216 0.010652678167590548 0.046442379269382446 -0.041276030467348776 -0.06008374506166217 0.005198087633379651 0.006483414096224834 0.1308034885164139 -0.1321155902388178 0.03371928320532669 0.01471979044737252 0.030724272636787432 0.06853274775065704 -0.015280107239458163 -0.013677007721438306 0.003044563293294912 -0.06529385052359603 0.08065431811534685 -0.048853681230337946 -0.03981068654581044 -0.0438316818046191 -0.0727364152241647 0.03327271967187534 0.004114835086114516 0.014575815647927133 -0.032995583832540615 0.018994484118173855 -0.06406949635523342 -0.03474787646056939 0.02908922994120586 -0.0145435976851718 0.07545574718337711 0.06317496725774073 0.010072354243987688 0.05177101082803814 0.12395583238823785 0.029868569550048324 -0.11068128153772025 0.1473649571884222 0.016313584913543164 -0.009035040179719372 0.048754812774825095 0.06210814149197274 0.035613473125720836 0.10387867399512442 -0.0075929881487488814 0.05270907629178766 -0.041511517556299754 0.03546864700156431 0.009952017169259749 -0.005298031511596375 -0.018380873963965157 0.040965944750478094 -0.026916869643974762 0.07499725974201726 0.019021282563128405 0.09522970047422248 0.0734532812619854 -0.010256563217643278 0.017239411038199887 0.11715244890307502 -0.009428962291695393 0.018652557137589024 -0.017368779233538082 0.022613063693925056 0.03258067196596818 -0.10370659282026255 -0.03427734886275358 -0.04125614730256803 -0.05512531007903985 -0.04692521557596898 0.026371783959347604 -0.016726517312398118 0.10737300475267994 0.003235816815896726 -0.05278379330413163 0.09499971492118624 -0.09082462067621372 0.015121815412446359 0.11821617002858649 0.008802945806967917 -0.03327659084734271 -0.05669700760492951 0.12464378008963616 0.021033052325196998 -0.11022316116630844 -0.08097578419889019 -0.07165417976479276 -0.0013938522817687695 -0.047591034104347923 0.07912980608424307 -0.030302862117837778 0.06135011793028325 -0.0039184220768821365 -0.03820631929190107 0.038945952711289734 -0.034040368443890044 0.04230478751923318 0.03604589865150019 -0.010644939030948462 0.12246706224060408 0.041844998477297515 -0.042446865215065945 0.07903350983885961 -0.030248312885087534 -0.04431720188023326 -0.12313846415624713 0.061543948427096574 0.04205655168317353 -0.06665041794422676 -0.02090532104942651 0.010732559177504314 0.05415156324649479 -0.09730387269347275 -0.0077840983755431145 0.02742142478740439 -0.038191255928254245 -0.0024407532993949983 0.04400803751319889 -0.010834612669931692 -0.09607238304113576 -0.07961804391664883 0.024572476193251966 0.09347046948199188 0.07447965412833073 0.2016949641217129 0.007482550769334284 0.03280298194253405 0.023328119414833787 0.017042987359840275 -0.061436373079204444 0.006857205273252654 -0.15708529490252393 -0.0583133303163312 0.017964410899774057 -0.02475863864454058 -0.01855674170274282 -0.04558104343055646 0.08536741753635614 -0.010492285245208776 0.016326491804550237 -0.08923578275991828 -0.07462205344280563 -0.0138616671082657 -0.004110516995334071 0.04984420142998624 0.014530181966523248 -0.07609818534186515 -0.026416005898546414 -0.03470945255501364 0.02612333840551571 0.03581859858220692 -0.06855481444182235 -0.007542167115567242 0.03623685002304162 0.019010926878691842 0.009015767832633055 0.05051340928177714 -0.024176810380578874 -0.00792363190651974 0.10355119284936304 0.05039104214750557 -0.04313012345966849 -0.011371348648154079 -0.007100879484789551 0.010931513709724758 -0.0003921320141346121 -0.058340056091783825 -0.008118532679786829 -0.03503885575602207 0.04353863929190826 -0.02801588711764981 -0.06831315353253953 0.01875536222927783 -0.0042743923534206835 0.014892898009271903 0.08481372308158355 0.01615020911394957 -0.027350476842225333 -0.1184576262621349 -0.07595371258610854 -0.056179430026799544 0.050961431929696016 -0.016758980833068697 -0.02776273343854636 -0.10732858026205885 -0.026555034817946795 0.042251030044354675 0.01725546991416587 -0.08111217778002773 -0.08075307660321206 0.06659446116017353 0.12115804451679595 0.020464673431840663 0.008091653233860253 0.08471937175576896 0.03809821484219721 -0.0081388101255518 -0.02135589955851307 0.06895724141560741 -0.019656643035477324 0.053531438237050574 0.07857591189876237 -0.1186331689304233 0.08323608936341569 0.05867540810491615 -0.057965340309716944 0.026782257998899515 0.03727787480377853 -0.030931257442335693 -0.06343668107462942 -0.03754587564112744 0.10217521260465293 0.027828441317966485 0.022754920630002198
anachronism -0.03224761458966608 -0.022092432832079574 -0.06713911407467592 0.09710013014981579 -0.0274349370065134 0.043713673521920335 0.006681374136253906 -0.09017207254192873 0.02058322933519559 0.11636022400655753 0.04047144632883521 0.005109345495489109 0.01414227454580068 -0.030912904640613224 0.013004047426382453 -0.07866811758009476 -0.017268426055091265 0.024262357810927473 0.03161884789757998 0.09306286526086567 -0.055965186576789006 0.07183759146144798 -0.09568045397398846 -0.0856079941879477 -0.06139173994059318 -0.020727572472259082 0.02999786280757976 0.004500335914856069 0.004975433180574313 0.0624704286794191 -0.0724864744488933 0.11672527184394543 -0.11565215937290263 0.1349376511248962 0.009086719061823307 -0.057460271694174093 -0.005501047809734665 -0.041286122746627296 0.023109470050405326 -0.04382785352959255 0.024919946984891604 -0.025749422118963212 -0.02559678528176167 0.01002285649320588 0.025049371465766156 -0.0026852529807317453 0.008156439377894975 -0.00209738830687653 0.030393610193136498 -0.0498564514890915 0.013969869873919717 -0.043670444893069066 -0.027548103605498617 -0.018380828751490805 -0.07676468831753615 0.005811793920581577 0.04244895019510888 0.048548100790576726 -0.0509461706445517 0.08618123722552098 -0.024870756841806778 -0.06977614152549355 0.11666470462751247 -0.04608354834361564 0.0078531178839586 -0.07147170805711973 -0.07577235565106276 -0.010155588613686444 -0.05817846871715112 -0.009583454894394527 -0.0710378536816727 0.013080713904258308 0.039319211103717715 -0.08064084628124944 -0.03827803809846582 0.014908828288631782 0.1145201016470339 0.09963567908250232 0.0040718947510621495 -0.010527155154853468 0.042083262539001326 0.05579968956986958 -0.02713580325726096 -0.019357665128426543 -0.02331400181430793 -0.00919065233952136 -0.027755529639185605 0.04359771093137822 -0.04486461746535352 -0.04979415433799464 -0.007768462184303143 -0.024153086300059853 0.17006889563032296 -0.1372934757960583 0.0615719555639375 -0.007278504889129085 0.04426301327154844 0.046697282074128564 -0.03644241429387049 -0.0005683334049700181 -0.01629313569461611 -0.0563021085232661 0.07687150080574662 -0.03786514542303896 -0.06893477678466198 -0.03814546776945772 -0.06803403677432504 0.02273782657628379 -0.0037359743198373636 0.008312102830005698 0.0010136087951599668 -0.0022021585274399785 -0.06980906921040542 -0.04292405725414838 0.022065754715544384 -0.037328420069748305 0.09199079804684117 0.06321163277369081 -0.003420330596473858 0.06978395089997458 0.1005339925313828 0.05787459345277542 -0.0626442755005748 0.15508215816348206 0.021138541096238334 -0.004458929452523884 0.06822463617296726 0.06908701469276952 0.03741642317849438 0.10729366316492069 -0.02713527402647511 0.02696345373637048 -0.02645694268761291 0.017919541335999156 0.015771595706362603 0.018129236242788456 -0.051992275191569265 0.013580312035679531 0.004128498538771238 0.06250284483441002 0.026884622978594234 0.05383283054014283 0.0645851381542173 0.0014236868145651618 0.032580868410847195 0.13513593361635617 -0.01622867890272573 -0.014903868785701312 -0.037533732581332774 0.014125164246653998 0.05116564205981983 -0.10373026719170718 -0.030155467196899422 -0.0076710002765573914 -0.09324298146304928 -0.03475280540424912 -0.013211344064318776 -0.021037453340391653 0.1150346189498956 0.007842706268801396 -0.052366870583395224 0.12299302364982909 -0.08196805256575254 0.02367863299237863 0.11777072424304234 0.008171026182602908 -0.020002241143521924 -0.06084868960155175 0.13121648776769904 0.01337430549081024 -0.10329380642851815 -0.061234014693852555 -0.10196409591262849 -0.005470149402996887 -0.05867691307327607 0.07769852740241683 -0.01436711856914031 0.08954186001775197 -0.003079069566170969 -0.03266795445281253 0.027599670062089944 -0.027594183903058102 0.03500274569903083 0.062214474998034855 -0.035677390335175876 0.1409640499219887 0.03709567295909851 -0.059037232820741824 0.09180465859418845 -0.015651507304513715 -0.002215284524530498 -0.13840190064033933 0.06033609723971946 0.06503556465939793 -0.044760546807237844 -0.028494818344146376 -0.02785180060849057 0.01815344480161113 -0.1333065159317208 -0.006095139465563885 0.0412705629790338 -0.020743480104090516 -0.006836660337255738 0.03804908402584595 0.005739250200930965 -0.0851642472689139 -0.05208205201017583 0.021553455488446036 0.08494866812059865 0.07596027709764398 0.205017839407579 0.012549213167086239 0.0364558305898263 -0.04044191448998045 0.042101154081515824 -0.044780816152223075 0.01226076381570664 -0.14108168113600866 -0.08815530817045972 0.020096033964681802 -0.025263546749823458 -0.08548403746654963 -0.09196561508464399 0.061010596238168936 -0.028403719869227354 0.040038270116440684 -0.05929202521003208 -0.04321773186610806 -0.0005559511421208955 -0.003804951184659213 0.06787279196405 0.059576315910704225 -0.04395468890295588 -0.004469417050733091 -0.06322236160619477 0.05734779409936113 0.04865793219563423 -0.03362925227062646 -0.005254308576152668 0.009978192182791473 0.007757975454607204 0.008341555940595184 0.07309584830226078 -0.0007356359827645004 0.012842362055940283 0.08927881375600367 0.06272830859140928 -0.005832574118658089 0.014397695404372024 -0.005132887684534168 0.029629699204952523 0.029993155998929346 -0.045944326018477685 -0.01275636846935811 -0.03403919414541265 0.038672053478815444 -0.035959467794811295 -0.07175574908515434 0.02715194837335447 -0.007787856066417703 0.013096312372702628 0.05744745055849229 0.010502616432046606 -0.004055142945765876 -0.08922898012630588 -0.05809917905118166 -0.039669473111871426 0.05241072582940327 -0.012548114078044712 -0.04030392391983252 -0.09624582542337641 -0.020527611868174214 0.018640718405999054 0.03807410526034121 -0.059942286431795645 -0.04862526107905233 0.04647518558121444 0.12912092049029875 0.029596523395316685 -0.008015143837643679 0.05265619106157221 0.02778717411137743 0.0014027086278926826 0.007815887065772019 0.06876850000924284 -0.02323739362586339 0.03623613904068458 0.11428480404487432 -0.04866641276780311 0.05758085143655566 0.01344389580197355 -0.04558010954846075 0.0117516487718478 0.00335503230964659 -0.016155804857780596 -0.05787579703942129 -0.0538843906445147 0.08141012254040618 0.018195080739451978 0.03764153451165113
anagrams -0.03997354187529297 0.0031185627528012654 -0.05745870355211028 0.09953321379942066 -0.03577503222108106 0.037286740506402107 -0.0036886130320373696 -0.08895897280818653 0.02115088254518361 0.07646311423880424 0.038588769466917694 -0.001968724977981418 0.023212781151157855 -0.03192823206434844 0.01947043792516346 -0.06939746552576917 -0.03354960920203481 0.020983005113371478 0.0273757492404521 0.08966223475633624 -0.0369822404621059 0.04676717135250489 -0.07515385371464475 -0.07765592528400027 -0.05620727322071592 -0.03919002743597235 0.022891233197518037 -0.010228894094945061 -0.008486560109315746 0.053166793883284116 -0.056812474506174306 0.10780864001891292 -0.09772327485097715 0.08456062600739193 0.008127966987091987 -0.04615295307957605 0.001997239443108597 -0.01671360998159256 0.040797208897456944 -0.042200211689115946 0.03971953696030538 -0.029250823387946795 -0.015813521405344408 0.027787660893399985 0.009018770772694884 0.00134904698396558 0.03479364885593456 -0.005806583050232263 0.027177364315439947 -0.03982198655238844 0.02076619923890614 -0.06895206533912271 -0.008027148265446215 0.001801739289863083 -0.07256168792154132 0.018433627640373765 0.014707788928302183 0.04954875115619329 -0.05762968202272925 0.08941409495918191 -0.0033062127779693736 -0.0657482920381087 0.12426550066394962 -0.03597638123961154 0.001494151372486589 -0.03947592523212838 -0.06949923724988875 -0.007479209989228796 -0.039653594024841574 0.0050212865096308885 -0.06200036813603388 0.01825734934328909 0.06354070689332547 -0.09471120037359933 -0.048003198470674364 0.031545353049764364 0.10689057977977436 0.09384499522406851 -0.0031630180701858334 -0.023253139601882095 0.05782724924401977 0.037710750391527784 -0.05392420373618935 -0.012746444661302056 -0.02483929238681296 -0.03561302923457324 -0.02425575526057062 0.037710823035524164 -0.018253349670343998 -0.05708531941277785 -0.0008918701815414803 -0.014966250057661534 0.1636885762840963 -0.12993574886836928 0.05433841383616862 0.00042087354255334193 0.044534818997811663 0.02184248567817903 -0.028628242404934445 -0.008803418522201761 0.010311775654143322 -0.06643961939646115 0.08836125438542682 -0.03977310685051288 -0.057880788742312346 -0.06284006603631954 -0.049011355355902786 0.02222964470163946 0.004712099738105755 0.006000309068893629 0.0006186788746252469 -0.014962158227155294 -0.05819285929484949 -0.02900655207121196 0.009236149644548927 -0.07020810784662022 0.09964672625340416 0.06732421857245842 -0.004302943534386387 0.08638647951854804 0.11240653611725855 0.06105805590501809 -0.07778738052871222 0.1971077698662019 0.019371300059814047 -0.006448657258774587 0.07611796787847742 0.07429116329092039 0.0357990294901501 0.12702159006253455 0.0007014890016469555 0.03134773394048022 -0.03255186272223913 0.02754237229752158 0.01894259905642241 0.01919642978666469 -0.041029035435072914 0.009833792343676423 -0.0029301592758836053 0.05454972056390905 0.024953335170162762 0.05013744024430453 0.07411830739665455 0.002456720590100476 0.0263734627697366 0.13181498958237478 -0.0003115618298497278 -0.03838675174911423 -0.03369412885652852 0.01526924802600588 0.06451865498477083 -0.09072199318705843 -0.032490320708130654 -0.026844299759173323 -0.07267988653741118 -0.050788312085357216 -0.0054831786350097176 -0.0238286115317076 0.11910474606970396 0.0160769831158843 -0.05412062989366397 0.1056165353174771 -0.09820037575343783 0.022804212820794277 0.10959782116465044 0.002648068453297421 -0.05094713853974629 -0.03632742489583669 0.11658102861119739 0.01063934837453958 -0.08581854959884455 -0.0659723378080518 -0.11501792133973641 -0.003753885521327964 -0.05411814617582591 0.10974720099858012 -0.007169538847229038 0.07609755447617916 -0.0029520919505205815 -0.039458242130141895 0.03304653049061815 -0.03241100539199096 0.03167771767222567 0.0669829252351984 -0.03772484848271458 0.12916498027439138 0.04252072268046724 -0.041957401483736424 0.07926216581414423 -0.020328206848201403 0.008223049220698123 -0.13287453469679797 0.08356175243678463 0.06595600908021573 -0.05937891137785239 -0.03311865558512129 -0.004493166966900236 0.03680522346936479 -0.14194820851850284 -0.022223040990237426 0.046791070290756076 -0.023660239947108263 0.015006378232003225 0.00895723800787434 -0.008474412367643904 -0.08110301210094674 -0.0707837923044832 0.04100445483975536 0.09376803393406305 0.045533530125962604 0.18467773336241497 0.014125150460782838 0.017554851930764406 -0.03097382639198594 0.029271148825397126 -0.05095526734672662 0.0009782837303632423 -0.12478984546655478 -0.07909807889762582 0.020319983153627118 -0.04024657700140881 -0.0585852257460413 -0.082502997032085 0.06898784185608897 -0.01894978293348789 0.04497467275520058 -0.08061115312569712 -0.050756959620784796 0.005590532500252543 -0.00016290656014994248 0.05372574599362001 0.03073242113080333 -0.02607320947590554 -0.033175285716752954 -0.047721116352783886 0.024290389424440912 0.028600445518444307 -0.033676003226084744 0.008226240983922453 0.006953553543777973 -0.004231591006535371 0.012834693175352659 0.07575724152741715 0.015032821101752029 0.02686057095807447 0.12718895613576758 0.06571805446286955 -0.01717771114613704 -0.0013183634760796663 0.027691345535664116 0.04210416367244115 0.015484058215531126 -0.049376418086372276 -0.021681276307364765 -0.013177637204985767 0.04739856383641496 -0.023315627808808193 -0.06153631195908939 0.031213895570298165 -0.022325515678479967 0.02421457011140309 0.051125728544390715 0.023068458943287753 -0.013246847952012916 -0.09992684825787111 -0.05353476154919692 -0.04324377538092112 0.038818707332315634 -0.01928145630069095 -0.059496049545392976 -0.12998967641543444 -0.020214093781542552 0.020770931518543905 0.02036209252958082 -0.08160558318360346 -0.05672014485853898 0.07319755695201756 0.12048009918780138 0.031650382018205726 -0.016068939188141226 0.08594017372719649 0.02992520286141803 0.009635013361975784 0.00747017831385348 0.08651020973271441 -0.0335667694144308 0.050594506891004004 0.1424183830761812 -0.07321811854312096 0.04447885222380948 0.024598719289902517 -0.06520721788428079 0.006064181886110768 0.021315353122276375 -0.003137677302149315 -0.06629744174395727 -0.0491004121468876 0.06012420940516318 0.03707236226050553 0.026824701845533695
anemia -0.009136170583054461 -0.01677873393329842 -0.08327325942292885 0.09401703830178311 -0.055937043461675565 -0.00541092900010959 0.05927811095372962 -0.11443532417383478 0.024126022745620444 0.05679842123493666 0.02141788524752579 0.03420001387439075 0.0010519657882052055 0.006242768355162917 0.01735506014186613 -0.08137617772932519 -0.04427389289256971 -0.009480766257233262 0.001005645915355433 0.10721025318972648 -0.016692600417043 0.05233758706625507 -0.08496028475723222 -0.09069401395384143 -0.0729233570995315 -0.00535734440883124 -0.0013633903400085124 -0.0007598149870652566 -0.00266303122333742 0.06511617400980749 -0.07435251943554903 0.12172680971166662 -0.11651146709362963 0.13181852082288675 0.01194959150475017 -0.05818693760932036 -0.012697394003346381 -0.00816130082080757 0.01559559677139554 -0.03358057960184468 0.03741831779642825 -0.024097031373682756 -0.007782072214883396 0.0327775135172335 0.027399682423170584 -0.0008631737334524414 0.03888771986102331 -0.016551331358415616 0.050456408721202065 -0.02429566408115213 -0.006553495525037831 -0.07238215045589766 -0.044827669220561035 -0.050956466104025655 -0.055477758115239965 -0.017758572179915354 0.02399718285534456 0.01056977202030919 -0.06839525617706567 0.0688828075477162 -0.04705148487146886 -0.093919893154857 0.12940204222423146 -0.03850044764549242 -0.004153171378130794 -0.06254687464017011 -0.09633695158083533 0.021361148567793864 -0.015116489838007221 -0.0025571775230218657 -0.07930249185463766 -0.022575370414680777 0.07173426910702695 -0.07141764618997404 -0.03657415640627573 0.03299605482690087 0.12302877828600386 0.11749703102392371 -0.003837109143732017 -0.02498073071811511 0.060318308476354804 0.008833553730432611 -0.0583650911572619 -0.04433004370480845 -0.05790968331217 -0.03802643008774326 -0.012772748098530101 0.0746983419459039 -0.05067506028992112 -0.0839647304401376 0.021366214221267065 -0.006030539334782921 0.12668115718190276 -0.14368186489714158 0.023961857906926703 -0.004739787267529556 0.0637881281448369 0.07061367921307714 -0.01660716317586383 0.03777497931001811 0.013263807227519585 -0.03611876791343518 0.041949701003898644 -0.07451306254967133 -0.020258185658233424 -0.027403998869822307 -0.06150572324387045 0.044322812557927055 0.023131980194430864 0.015816235865725975 -0.024350676478686047 0.024161515092848477 -0.06018209355987186 -0.023845509946519152 0.02321328773730545 -0.031692927669521205 0.0698873671423519 0.051497685329914625 0.0044147539391192325 0.055564749056024196 0.1107843299573608 0.0012768834237457396 -0.08345019277883062 0.165533953221412 0.012138469578196772 -0.011567536955268168 0.015589112266810324 0.06255265356666413 0.018560135996683946 0.10929831638903416 -0.02818675423009916 0.06972919773085792 -0.048556156880751794 0.036465622329042956 0.025710196390206223 0.0028914302013069416 -0.06515851698785328 0.02706720076190345 -0.033642013281117746 0.07206746625570644 0.010903004108251502 0.0847856819730529 0.05145170978251714 -0.021084214296065693 0.010890773692837594 0.09379649203264678 -0.010673510432326977 0.021476972765783843 -0.021162484900998316 0.028152934231866825 0.0393239493282779 -0.10198907322980665 -0.02800968472662279 -0.025151309028000834 -0.05719999544724139 -0.028913439742402854 0.005421361725976812 0.006794072182167679 0.12192185182501854 -0.013639328195344422 -0.042382320732688154 0.09303722523106253 -0.08440359748810164 0.013799614956383056 0.12365448557728412 0.01509545106998258 -0.048075361189496575 -0.06515912140255285 0.10809082572802312 0.04558865367256823 -0.07452524304801683 -0.09742165486712842 -0.09726360578571568 0.031105035078036053 -0.023829622215794523 0.06856371412146545 -0.049530515238507 0.044081558725280835 -0.03168905347155402 -0.026251460923748207 0.014955683110124024 -0.06757468185030065 0.022941750934021534 0.03012290142335775 -0.02715411984572129 0.14291046682081068 0.048499556658152226 -0.04036674658796359 0.087349508607702 -0.03493722175755476 -0.05745515133879207 -0.12695168806027668 0.07479907075268369 0.06650813456376219 -0.06538565931286146 -0.02023294283883631 0.011787182984245602 0.031761619112750814 -0.1191310671294414 -0.011760392437527774 0.02287257501129768 -0.03574306117573296 -0.006453453291009535 0.027549345731252575 0.0142182937746117 -0.07976473994418837 -0.07749891622564825 0.026729529090242725 0.062080926925377485 0.036093719206020676 0.17622470393082007 0.029561641338168906 0.05855595432639182 0.01462590610505514 0.03421351033232083 -0.04587852586653591 -0.0030968258426265693 -0.16074267899484965 -0.056936300521866025 0.026301183341849707 -0.06372389210315597 -0.07154604862252739 -0.02895240694295991 0.08839018783181968 -0.02336744391622986 0.02322563854207605 -0.10760801652776099 -0.07071405108914033 0.01676043314117961 -0.01229189047842947 0.042659845723113834 0.027435590711196726 -0.06563355944411452 -0.02449396297308834 -0.03704978426156428 0.049525631287924025 0.02113378599617089 -0.05588327552237358 0.007324799301946732 0.04339775731412038 0.038970177289364596 0.020674609062407843 0.057232666344612854 -0.02853509116248025 -0.028862164643233296 0.12947430768567011 0.03243933351023423 -0.055283747357670755 0.006689172492517764 0.016156401584289604 0.007642879984382163 0.017930184658412278 -0.052435248737682676 0.019630094370267002 -0.03298701180638287 0.003183124576468668 -0.011386085716330537 -0.10895634918946925 0.033423497092086744 -0.0060765466774779925 0.02129553316625839 0.08288623999869588 -0.014396118984076674 0.00041858868431062207 -0.10284963343643114 -0.040804571850076674 -0.07258915800519446 0.0658403437975141 -0.009311764668518461 -0.02751382456055279 -0.10646788034766713 -0.019836263972459127 0.01576374691762544 0.006144316256836775 -0.06313932711856994 -0.05326056390933324 0.05025078515434614 0.07951803364343983 0.034276896728680506 -0.0013710086501846834 0.05670606773084651 0.014954145783197372 -0.01316579136146646 -0.011792198809545563 0.08630324453731986 -0.03287469534186635 0.06733341320062425 0.08360064724590562 -0.08997925248160846 0.05899472799182894 0.03176319535758488 -0.04122127000800163 0.007749275376486283 0.012651516412620545 -0.04898296326226397 -0.05538866641819044 -0.019062278690398785 0.08072292395260948 0.025429545078293342 -0.012678454305924082
aquarius (constellation) -0.058238627313417377 -0.01797753130718301 -0.03135581580099385 0.11619537288989086 -0.042268384355529875 0.03241699337253268 0.017615552356286292 -0.060762064927895806 0.014577201303944971 0.07811149869082129 0.059805474414915814 0.00036119105039190285 0.0324110500275634 -0.0343640300852988 0.015355917169044794 -0.06194730342163294 0.0025345532810710615 -0.004765537445746773 0.005945499984685366 0.09787596416035732 -0.06216758331245995 0.058626155067212374 -0.11637113445517346 -0.09133344824931858 -0.09111592694127384 -0.04738033776461876 0.026125492538484542 -0.005014798914545689 0.0019378203306201767 0.0392597146920957 -0.0726098645810125 0.14524688132441993 -0.08746212272865435 0.11867007541592088 0.008229708674891973 -0.055578725208163135 0.013934120465602311 -0.04041009578852378 0.0006615676231044724 -0.03515931312590232 0.03583332579383227 -0.02636394561043226 -0.032076251412613756 0.028577201743359284 0.038518126550137186 -0.01045161692809919 0.010392476740469935 0.03980479814203636 0.0523889318093981 -0.01747373002932533 0.0041601451533439405 -0.03880788590608033 -0.04660547106062272 -0.01620435770776172 -0.04230228833624585 0.04020122655508963 0.03734791591581036 0.06047955988257852 -0.03161134091513834 0.06670031907646418 -0.006062454110901814 -0.07332984450760385 0.09835873274705646 -0.047149648440615324 0.014538158733953522 -0.06725551289475522 -0.10301935729884493 -0.009173248480214008 -0.022743714914461147 0.01121924300197483 -0.076797959608246 0.023934623605382198 0.04412166579461204 -0.08379281027382 -0.04169176459981455 -0.0028210315568225697 0.06859951814516925 0.1324833753382575 0.013300409941420925 -0.03316182386673595 0.052828895804629045 0.03621688523324319 -0.054931392285127105 0.003140101789871447 -0.03048886327315328 -0.043522758656918 -0.030806513990968665 0.07011453822969638 -0.01581475840318746 -0.06189281389180157 0.0034651341140910724 0.006801313973132279 0.13413288609026128 -0.11819068903314783 0.07642477846338852 -0.033550460835878516 0.04467185776572074 0.04755529262664954 -0.030729621023450976 -0.017552414755390683 -0.026027839080540474 -0.056697786281016245 0.0670930892046502 -0.0417863529693724 -0.07188483813199034 -0.02852766459424693 -0.07015747722337688 0.03357089323788419 0.002961174741130827 0.009294207267730364 0.025828669470482905 -0.00934359923623088 -0.04927015507918516 -0.027728157930971657 0.036232778893518225 -0.049131493327710614 0.11455671374391521 0.06556370583792286 0.019366710645938753 0.06757826399056509 0.12329524655193257 0.04032623348495985 -0.05681311030348004 0.1620330395086872 0.03715386229084621 -0.004566355963928124 0.04815123725291747 0.09103923231359419 0.035074606424217204 0.08628855944730772 -0.020787642006596996 0.06146364882033297 -0.015442871751825881 0.06193130254783281 0.032738500421541035 -0.012226844867631802 -0.024796354848441216 0.024669458011684787 -0.007490461973880206 0.09632244462718435 -0.0022755934140028873 0.06596087346375812 0.09246202814743755 0.008463880619755237 0.024896365409330826 0.11520885470618451 -0.019943691577120864 0.004292082133642664 -0.0022841680990895994 0.04060710687756804 0.0588341639050362 -0.10635085073978368 -0.05537725634573762 -0.02764714261116966 -0.06053470266215405 -0.06637977429361404 -0.0003008431605842426 -0.023579378412666097 0.11900777834426003 0.012381693622832991 -0.044491628237325186 0.10838337509184519 -0.09647417527966522 0.038815376589182465 0.12039943481139037 0.006974514698809139 -0.02782456315691361 -0.03505072573248905 0.08715664823830736 -0.0038720785938768138 -0.09509480838061748 -0.05596488618737062 -0.09527072030723946 -0.01130453854272125 -0.022076841022205033 0.1001838361781146 0.0038760191594430166 0.06220713345751593 -0.005336391976286205 -0.02320438542612112 0.0021363370699808656 -0.012745102898751791 0.017086756806886625 0.022797726823336615 -0.03388633595828065 0.10418648317457896 0.047262099567277276 -0.04785682667250192 0.11429228378634244 -0.01779702796521983 0.019351595846596407 -0.15121290071927096 0.09633791191456739 0.04789648901925674 -0.059369884340513754 -0.02605227860780538 -0.007280310501523625 0.07173211772504474 -0.11805221109977174 -0.029591452106728006 0.018124530502184023 -0.04757390497720263 -0.024855892669473037 0.06084360015699388 -0.011760595312778581 -0.10591129836304537 -0.047279172271202846 0.014544138130754154 0.08651821677497083 0.05173932957588553 0.1820763333036427 0.023054620745020234 0.004935767823075587 -0.00784917713488199 0.01145979433017032 -0.05787070669046736 0.0018809317811698497 -0.14390624036846833 -0.07413875748867892 0.0005085413319634624 -0.03853226919554626 -0.04901233729151119 -0.08081994797038221 0.08527350113827499 -0.007777554558150931 0.023423383397456983 -0.09111799911504481 -0.05630775889819057 0.02927247559606245 0.0021338080614749216 0.06871206698100668 0.05817112379660077 -0.06230929848313473 -0.011772584469226936 -0.010851937605521852 0.011911733187439228 0.011172429884152279 -0.06186194396112959 -0.031130463734828296 0.011966631721049314 0.009358433774791126 -0.010506940033717391 0.03310548650126512 -0.008918461994334098 -0.007862756065777807 0.0742066323635935 0.033272333334117055 -0.02665472709112122 0.013586443336173657 -0.012251407520945461 0.03659508285969392 0.026849663573367526 -0.06679205890924574 -0.0005957798381462752 -0.034028909829066936 0.04770246563371748 -0.02194605190388763 -0.08453879077615807 0.022138570188834535 0.004196042535775378 0.03560308608696435 0.09178938359450312 0.028241112834429014 -0.032799561915774975 -0.09814149629110773 -0.07978719889569016 -0.041113034722021075 0.07440054427552019 -0.01005019530141794 -0.055200776525064006 -0.10797464453335495 -0.0014682703269535543 0.006292294624148423 0.009979065118009682 -0.06960329277680416 -0.0761940518386057 0.07259558488200842 0.10603640149537874 0.02786336375018185 -0.008203931675298124 0.08104152841964345 -0.0062927567514331085 0.013936119329409625 0.008455437999843883 0.053970390490450486 -0.03350035947990361 0.04411096835791116 0.09673738809634216 -0.05456662989744813 0.09200519432579954 0.024067777866230253 -0.07138987600238558 -0.001125790247845234 0.051803444475634335 0.01024351876712465 -0.05743224857809398 -0.0329287665289413 0.07906960964506832 0.02201918661513731 0.02969709920518541
arabic alphabet -0.039158212968199685 -0.0031185712111996117 -0.05796902275847427 0.09894005161140904 -0.024050275016496574 0.023510132044895982 0.0012566437261242397 -0.09344769170710658 0.02092514966260112 0.040513079993116895 0.027874548577600414 -0.006789635274766801 -0.01753661298064975 -0.013106153989945695 0.01114041196723413 -0.08104122751053995 -0.007223127813950417 0.018617058600470627 0.037133142858769244 0.09164859888745368 -0.04136340381391013 0.05091173783622763 -0.07890988831946505 -0.059163025010970496 -0.06364161821953569 -0.039490212881636004 0.04988352258721783 0.0046569224895699765 -0.015654361988827938 0.04487356701106546 -0.08930474411692979 0.10905620074227074 -0.10364883885925126 0.09990228314073825 0.0067091306503164316 -0.0632679475249613 -0.010168747258557438 0.003026211309464424 0.030603496708157506 -0.04045620010530493 0.049962173491605574 -0.028825422235709948 -0.004333577217085625 0.016749261843147577 0.015278957238103748 -0.003396670643819188 0.029245841209902347 -0.009443757601879585 0.023920590326141696 -0.040437597741562525 0.018048148682374816 -0.07527252487081539 -0.015864527628834446 -0.0036289020786502784 -0.07880564909366296 -0.002572893288454421 0.02928042091700008 0.04460599904614904 -0.04592915050932866 0.09444708289361665 0.005550109596892595 -0.03691052657084466 0.10848608781750312 -0.028898685374846717 0.01637098270731047 -0.06464548450442839 -0.06949621187133202 -0.0005553594024881711 -0.06248420773324014 0.02546058505998432 -0.07590134409232603 0.007597937973809841 0.049299318663815726 -0.07005660938534501 -0.056959547268642136 0.030965253529665948 0.09938158054908024 0.11348275096510822 0.0069113501486834875 -0.009537784740748836 0.03553400821211609 0.040738289651516955 -0.0622425268120723 0.005568590946187873 -0.019489042820718526 -0.03135426249752139 -0.025869783751858378 0.07205139003871817 -0.035910233939661536 -0.03534064219370202 -0.002498478055463407 -0.021150376460986754 0.1646509519255586 -0.14119462736764973 0.0651607354512935 -0.01904233620466802 0.0296455174187412 0.04717892713738626 -0.030157802263912778 -0.013055479226909484 0.0060510360693765124 -0.08678601234136638 0.09341529779221242 -0.030234235159070942 -0.03970048779642806 -0.04102228947016955 -0.05273701487951925 0.028358255365926715 -0.005479266690467405 0.025354753483250714 0.011074459908975964 0.008241056061710854 -0.07316993935457909 -0.03477141730941818 0.02116818578268329 -0.046584572654651 0.1032693450409606 0.07318074128424686 0.021977941646057313 0.07500512485509052 0.10691219456899681 0.06780103163759062 -0.07630547576120443 0.18657181219311808 0.015249133641176277 -0.005988322357830396 0.06048629192214668 0.06697761994903154 0.03896059479361943 0.12510696333447563 -0.004460280486787421 0.024659869810365345 -0.01504925192567384 0.02965087399773231 0.02402044449580971 0.03329959602387803 -0.03571934162513339 0.010528296519821602 -0.0034136045293506915 0.065309095784624 0.008441967457687527 0.04355621472859624 0.08211318202989937 0.007858748527679075 0.044734097327506245 0.11684609119791672 -0.02259061388828307 -0.011071232013384766 -0.049884207943430896 0.024484828058449162 0.0402886954513908 -0.0893895085142633 -0.0436131955155736 -0.033289605082798074 -0.06663902471606208 -0.04123465320575396 0.005442534216787426 0.009719431647558672 0.10755246286763417 0.009983261839303972 -0.04808562196096025 0.13053710615387518 -0.09194735388231513 0.005714836863447504 0.10465036267024103 -0.015115280541956575 -0.04752109891889987 -0.079105310501567 0.11324293930552977 0.012506109579708994 -0.0984666992316216 -0.07459871229626318 -0.11615844825473819 -0.004199803929050406 -0.05847682068857166 0.08362497251401574 0.004047390829354206 0.08621939417781684 -0.007236237624473293 -0.039101956812077565 0.01791704984652974 -0.03587761942730005 0.02783142553471242 0.06481693273122068 -0.019013469011130782 0.14680656638644674 0.0330343210746244 -0.07038064916349918 0.08382056059107341 0.005889907382387515 0.01668733901919458 -0.13248596937352228 0.06955707909962221 0.05054992430127687 -0.05992977771331306 -0.008867387175779408 -0.008902004687380323 0.02225639880717426 -0.138898936376095 -0.028006862021436308 0.04877138193396892 -0.03725002525691172 3.485003748603413e-05 0.029009992511628137 0.007137035123474174 -0.08976168256560321 -0.08457144737602047 0.03655431007151126 0.10017137850774534 0.05163051885961946 0.17474940470482825 0.04434769088229091 0.0319968512321603 -0.0060563092587520425 0.022921199635239045 -0.037626562224179316 -0.0014693840055520688 -0.12263350562283183 -0.08673415115441678 0.006496125188677601 -0.014245628158637409 -0.06985032352377796 -0.07830199618592797 0.055632752808959705 -0.0176845738369876 0.04346681541145844 -0.08221385764612665 -0.04602705156605323 0.001338557128964177 -0.00010827917328866431 0.06712818824527354 0.03304978545890726 -0.06352206353200601 -0.041013477607969424 -0.042698570940036644 0.04417960967557359 0.029827027668879756 -0.04928605477567473 0.0026340446560156813 0.025779723549562577 -0.009244421090577139 0.012206303913258087 0.08611553434531503 -0.010399194239354283 0.000800199262485841 0.13304092533271727 0.06452628520000003 0.006302082094058766 -0.0004842809367909161 0.0011418773364382528 0.04386185691999132 0.021622628209467698 -0.058967948551277245 -0.02936934182520444 -0.03942919121064194 0.041833570571021966 -0.010647373147653929 -0.06952170335817581 0.03449703272340309 -0.03596821750554132 0.025725852343559702 0.05607947120652768 0.01656903950055728 -0.00779235803370684 -0.09535173184845484 -0.06955350897000051 -0.047278269577614 0.035519392719735275 -0.022882382077734093 -0.057365249813606654 -0.1351294155527728 -0.020113651144933586 0.035962680381458736 0.0036033827678519917 -0.06244661656204083 -0.06231767007990858 0.05891998882071429 0.1014929294950277 0.029188831143570487 -0.0290611602251073 0.06851894939678431 0.012896180433080348 0.008892699734241208 -0.009113357084291486 0.05748464828178723 -0.05421393149741514 0.0335110069956483 0.11821655114287179 -0.07572749639260694 0.044968031604838976 -0.010385896760653537 -0.05877725957417309 0.025014347079236002 0.015063627321004143 -0.008088415054170415 -0.07439355150894296 -0.047298974620572386 0.042935201819217894 0.02955909554518899 0.04087422035649311
arctic fox -0.05216124266034907 -0.019982932759776795 -0.05807000693801949 0.11043767295092417 -0.028091516779023287 0.026001413769874693 0.02491359779094973 -0.07802797732178161 0.029390134387775605 0.09308284209717192 0.032523032310737804 0.011148608759602049 0.03822689744458929 -0.042502679925887486 0.012984397977172301 -0.05450358099102268 -0.04130651818905965 -0.00991605342385759 0.03129548731306662 0.06889268776653967 -0.05000508613889071 0.040883188674328295 -0.10432533173855792 -0.07296674792063652 -0.09155547755013238 -0.02944575563528837 0.03585113853511687 0.004104936661489404 0.009070505702947622 0.05605946978687289 -0.058902147236499294 0.12084292719780151 -0.11364272542537013 0.11921408627007636 0.02874824750648914 -0.05785907702322997 0.015047222603485006 -0.02346482282816225 0.038527221645639 -0.06607508027483563 0.03603224127460324 -0.014324641339461125 -0.024793616964381454 0.04412968791115985 0.030030514039001654 0.006367512000944621 0.027190482888134585 0.005718761156479397 0.06803343341001292 -0.03057094541150859 0.01439746266916715 -0.05818493329758046 -0.022070557769864323 -0.013600855675578425 -0.04918103335034759 0.02901628100996553 0.026669542722659707 0.05737291511086085 -0.04649561835712728 0.11463239926071382 -0.04673563052390744 -0.09144632508757179 0.13108731087235792 -0.046329268293940296 0.0005408532421110923 -0.06711418919336179 -0.10670321598016527 0.010996604940328383 -0.06798848986514466 0.01292312483173366 -0.08504723958731997 -0.010422536864527633 0.03573120844480025 -0.09406286077908148 -0.0562936908438364 0.02146524328976832 0.1262800971281673 0.12346788978254784 -0.013479328966994195 -0.04001217910768252 0.04292838927206457 0.024001134141279853 -0.02508496238487983 -0.004925674055164201 -0.02792208540994093 -0.028593038093591965 -0.03365601171969853 0.07231662342968452 0.006521719294852196 -0.03385340137246898 -0.014974454190914048 -0.02792915311874398 0.14021848071665444 -0.11756582853751558 0.06799148809847995 -0.0015671318386345752 0.0573636895127105 0.05464027951940288 -0.027126653154587815 0.0074662258498382475 -0.006728671956316687 -0.05032544249757909 0.07078145020479397 -0.06963298747609793 -0.06903183622488955 -0.033838509927783686 -0.05474566612774166 0.04739435543816833 -0.004918211624807779 0.01309627193883721 -0.004467586257156187 -0.0038548406530513556 -0.0674375975950246 -0.057045782403029655 0.028114795638524953 -0.03688878083131113 0.0839917597555965 0.06165079343347278 0.006344241615339634 0.05684755599173298 0.1215733424038701 0.052342686247904675 -0.07635133965362363 0.1330023820343083 0.028947150002842897 0.018226552549402506 0.0464485624024574 0.07015777401657926 0.03516365517800835 0.11111876698024174 -0.04324436016111372 0.05657510872569033 -0.03216910196059143 0.0492374718196428 0.006793123541387772 0.009468857855528362 -0.026624466693460507 0.03194228944119912 -0.06110005795485866 0.0978731462106429 0.022350503822961797 0.08684296687721413 0.08223666761948285 0.013662148783355425 0.02183281017993016 0.14309968709631854 -0.003904161011850861 -0.014439271998198278 0.006517178266387263 0.04153088557197967 0.057357400918052685 -0.11107899192952651 -0.06291385917531528 -0.03018056491583302 -0.04819238133531151 -0.05653982289859348 -0.011236375642784444 -0.006340963126176142 0.12247461014233686 -0.008271879751088895 -0.01573683277071883 0.12304005956549698 -0.09903120435604945 0.03963779442003994 0.11199112387809576 0.007524633341812707 -0.04404931052607053 -0.04862691083945288 0.11713172058623002 0.021425483169863105 -0.08454944449329733 -0.07756807153438794 -0.09934777339829517 0.004300212000269222 -0.02625044726877254 0.09321655543425983 -0.022556413717449222 0.07656177153247953 -0.009660165785269728 -0.03217800658471233 0.02229201820643286 -0.020517258490047707 0.025709238796191466 0.03547964944840807 -0.021450290496242485 0.07878877660315801 0.02393077438663145 -0.03934549162246522 0.08720703857137722 -0.02346675781157571 -0.028186521500769855 -0.13249222006106423 0.06992088714659149 0.07863263531577981 -0.04492404604206069 -0.011319438782708163 -0.00373140919750454 0.0372786598688626 -0.10392618871786084 -0.014258364361977124 0.0313539726514817 -0.013289760074800825 -0.01953060772834648 0.05357932635146933 0.005473390001106769 -0.11850798422756531 -0.04448054911411911 0.008644403071938537 0.07739055378105247 0.051360563132148256 0.16706803521096725 0.006602889117636575 0.04059958201188773 -0.013471626799355412 0.018666185996226124 -0.050881903086723135 0.0015977965269439837 -0.1532379113831426 -0.0607897858872062 -0.010847088412681649 -0.02966871674618603 -0.04765819427208366 -0.04290935652815047 0.07821820066793274 -0.01177830039273337 0.0004035371559725975 -0.07497908431687893 -0.05711252121144881 0.0017763262466356643 0.022682186467239508 0.04605587793340873 0.04209549616756525 -0.06506968483903373 0.0010909712392045464 -0.034801217660687576 0.03978931216755379 0.012760941680094312 -0.05108873572686392 0.00689174218504167 0.006883507575485323 -0.0038917114924314883 0.018534790341007672 0.05629263213870136 -0.011187794268782272 0.02207928759294917 0.1062766061153214 0.055800958977867625 -0.045716974731590365 -0.007130906096730043 0.02451101569828306 0.03128555658188409 -0.00974627407304374 -0.037236275700511544 0.009968920511049478 -0.029282884533167186 0.052556438567208826 -0.028040001816647626 -0.0778973023756795 0.026434013176701996 0.010249989710954577 0.03332595387334868 0.10032226613288606 -0.004183764401262317 -0.0437694387558188 -0.10241501547327134 -0.04791909004216592 -0.026191668234616966 0.054301504725307745 -0.018156085285034675 -0.039074786735738 -0.09668347106827095 -0.009462296025061491 0.03148026165046766 0.01662712025244969 -0.05383249007903012 -0.06150384203527309 0.05733193316836159 0.09151055817168756 0.0320492338657731 -0.004838729217647627 0.06978645212760104 0.012934128095565432 0.0010053029043799802 0.012415170397687723 0.08163762913759277 -0.022205205798258194 0.04165111170525638 0.09556456099493266 -0.09376291819255109 0.0678790356392296 0.028922218715163022 -0.0775486407454419 0.03242583875449064 0.03373840132862041 -0.011121776284207406 -0.05064493544728964 -0.02945135464796179 0.10815427286961256 0.017202072595105377 0.019040736071420945
artery -0.002058249189672462 -0.01387726336618756 -0.06548904872934903 0.11902404552945815 -0.05169741513318273 0.0052231902835026215 0.0348670102616035 -0.09584490929593958 0.0029589405190499156 0.061188909222612775 0.02259210014770103 0.013182122531827769 0.0008309171667983219 -0.011160789680456728 0.0037859529575657853 -0.07378567634015132 -0.020003411092354415 0.0005104536501292199 0.03402373147030885 0.10950392036204908 -0.03344538891883748 0.028451367799105415 -0.07885191239202614 -0.08414045694169796 -0.08713687932219488 -0.015927193194511635 -0.0011445793657605975 -0.004217668583060853 0.0006686886210530733 0.053831569688078534 -0.08099457392667886 0.1242027967122026 -0.08815729406830003 0.11193227222856338 -0.0031536753273899033 -0.05442059756614403 0.003767522399547439 -0.0325762553328523 0.03301767301466045 -0.046099287775490945 0.05787140256749411 -0.016284115243615314 -0.017752626703271258 0.020799921511283622 0.01860225746253618 0.014944413878412558 0.009809057625809973 -0.018238862381602834 0.05827109977739893 -0.03532950242306653 -0.0033111499582928754 -0.05239590892064695 -0.053027817593863213 -0.04023645464216519 -0.03319255602657883 -0.0023342296878098327 0.030038915263091697 0.02585024643932369 -0.03971376831200076 0.05787992813671395 -0.04498773825513267 -0.08277641242188849 0.12770005210717195 -0.02672147111075425 0.004639185971386243 -0.07884986271659744 -0.11922377584469732 -0.0032440566604033353 -0.03272853031691668 -0.010859238788388379 -0.10492930334510375 -0.024541463146774634 0.05591842807441172 -0.06768023336627788 -0.02472709085574735 0.01721533317745823 0.11135608091699735 0.1293443206238248 0.018144558470456196 -0.050901410858674674 0.03539687893213704 0.012782906399636947 -0.07391074207216021 -0.034562949918776224 -0.06143385397454126 -0.03426539222163579 0.005079504876341834 0.052163954082841794 -0.047719595404675734 -0.08820329798422992 -0.009978598157229804 -0.0026618635694440978 0.14659143874013483 -0.12791999248274044 0.03983573262565215 -0.024147150500255083 0.061701752084522665 0.050314224872605486 -0.021503608426133212 0.020495470085031765 -0.009215014306840128 -0.05836427838608632 0.07399498901971525 -0.048335493406930254 -0.030876180992153498 -0.021765352343122192 -0.06765963552921178 0.042938023855881476 0.011326171980461467 0.004573988604199173 -0.002693966168038336 0.020627741313753667 -0.05199021912777592 -0.02742113129170855 0.028464045655475646 -0.034004748290338824 0.06414405131731445 0.06971004191389077 -0.002556851969627478 0.051921913638206224 0.11788031774505797 0.035296419192171996 -0.08648770686391433 0.16570144701114858 0.02030130908225673 0.02687344426764885 0.02203547301510254 0.07374716925358421 0.030929000826363857 0.10195670398537404 -0.03033275190867454 0.05009389562098845 -0.050911891289162244 0.021308442758926852 0.009342043967247825 0.024219560621448838 -0.0667282699175852 0.04176722042573188 -0.04571571655406388 0.09639895371419843 0.013017593992827101 0.06678522378997213 0.07214098544285832 -0.005660206161258237 0.004811804197168469 0.09222613533841291 0.008418420356239836 0.024256418978294118 -0.023044320473447618 0.042946738884167335 0.042385688339296866 -0.0881104105791511 -0.045297718877270195 -0.031141835283486668 -0.05026803063374137 -0.049220048583421314 0.009141739449444358 -0.0009519951283411989 0.10921266810533302 -0.005178647906765445 -0.044879193773975194 0.09109215088554228 -0.08107685498523932 0.03757434757611633 0.12586368417699736 0.005726468201667369 -0.0572818840403559 -0.0535315152910869 0.09966301857022536 0.04259555136303005 -0.10358065878941598 -0.08737007954757899 -0.08808124179519107 0.025176686518674666 -0.05337595226871225 0.08434403865063396 -0.034121654251381715 0.040002507002126333 -0.030484721921828828 -0.03916753609934031 0.049461763011064704 -0.043791770666031724 0.013154703820744601 0.049138847328419354 -0.008368133156789397 0.15352979125901098 0.02820508921608066 -0.0513208574721303 0.09809329366558174 -0.038266528606264276 -0.042953906998761816 -0.11858006494785273 0.07351504440997465 0.07209004125853308 -0.05334194490895006 -0.026991096680150307 -0.001997975722687641 0.047356242868625394 -0.1192131664780173 -0.020439690534221445 0.0331620158647526 -0.03404977903398648 -0.0019312108768348502 0.03735779354890588 0.0024209698156217657 -0.09318662720387799 -0.05863028652178884 0.02822316349408324 0.07283367029116036 0.016318832501118572 0.1677024577374382 0.0314669846089138 0.05440636478099545 0.007949447257765314 0.03343137983102875 -0.04567104226757184 0.005453411923916422 -0.18595192230725335 -0.057769664655682174 0.012774769142981899 -0.04968091283860519 -0.05004993771940759 -0.03544230917033338 0.08331754072808753 -0.024882645908474894 0.017621792606112588 -0.10181406125758903 -0.07807930537818211 0.010051674411332447 -0.00131646249206083 0.04186300332680759 0.018535488322948407 -0.06094403420916865 -0.018070119199801317 -0.03117947138078608 0.03135116332403018 0.021401799288409285 -0.03644563931374133 -0.005932392355734782 0.03698088388742743 0.03430535656860553 0.006211699189721804 0.03870374987935943 -0.027906096960103384 -0.005665729509171075 0.12405635534813911 0.04095507070963358 -0.061406739681726746 0.008117157824126066 -0.0016072528302896706 0.01049127831393321 0.02676434331524384 -0.04312668615517595 0.03218996201568932 -0.04996307273321231 0.05328307866685341 -0.030114310623062687 -0.0841314144262183 0.029328423355526916 -0.017426486722821075 0.009994198371555426 0.09351228939751388 0.0008046854660770215 -0.00641734528421587 -0.09809866469052977 -0.06378784915680139 -0.07554761378481983 0.059016525876892476 -0.0015727192860480405 -0.033809702680586876 -0.11042891738668745 -0.035786486093371254 0.026058457338381524 0.022388569390046926 -0.07907590892255098 -0.0498003540927638 0.05369308699682081 0.10961754602985961 0.02654364524886513 0.0021809742435018745 0.05970547171201192 -8.027953733698926e-05 -0.010160056790051645 -0.015053728880940786 0.07546949775412524 -0.03441735114813195 0.048733181683725 0.07676458583361444 -0.09051687867949391 0.07191791257738184 0.028358800570059507 -0.03528140463730246 0.01050261393401194 0.034835481127822907 -0.022386669581348922 -0.06128418776963001 -0.03173686006113862 0.10311020039502652 0.02031981049485301 -0.004677270469082746
axon -0.0001307003489513266 -0.025130967361394373 -0.05782124282189024 0.10782913288203162 -0.05914916483918914 -0.00564289371616187 0.05008292036311128 -0.08628748033529506 0.011850622001658779 0.055665928335977014 0.02931502298544084 0.009875636219853594 0.016462587517476347 -0.003191978154326421 0.022775156719763216 -0.058637812478557 -0.0066804549622007095 -0.015071336309592441 0.020097310288452592 0.09562306650109488 -0.021427138444689135 0.016283837436640535 -0.09062350957813578 -0.08071582984806379 -0.08178601094992312 -0.021021871123780695 -0.004150714312564991 -0.006759548574427135 0.008726580869834763 0.048781031163303845 -0.07944270158208849 0.11165099569744355 -0.0767251927574537 0.13436528856887991 -0.004417124310103356 -0.035567988138485815 0.005430945006000871 -0.003514838944769233 0.030335864431463813 -0.06192488780845221 0.0462694087833767 -0.04159761609431591 -0.022772492255689853 0.016215322636158755 0.02659888707444875 0.02043742989499798 0.017722659815680775 -0.016033005831750026 0.05497226731699411 -0.03262838691905479 -0.011276545175440753 -0.06966995078582718 -0.03781907733832504 -0.021647638351636213 -0.040690359044637206 -0.007021343108125847 0.02016521488468402 0.02840960182975784 -0.04784911105669403 0.0630553223811855 -0.046752963542006476 -0.08536860548664496 0.12768457901567082 -0.025488372548928367 -0.005673066734630487 -0.06506075293723017 -0.1071083961166882 -0.006706538580124755 -0.05305451482643873 -0.021473819552358248 -0.10041291535915162 -0.025948967754615426 0.06967663427095071 -0.054149664793214376 -0.04331766264896262 0.022818478089327167 0.09833070859000805 0.1312171523422875 0.008723898136774676 -0.03759059049472497 0.04439846092407678 0.005470143785590097 -0.07404820929835043 -0.013899460523999693 -0.061215774572884823 -0.05069769619540731 0.019773549492638518 0.05319895667019043 -0.04752836258457 -0.0792045054410616 0.013896112686186103 0.008602893526578028 0.15204871449796203 -0.11232913614033016 0.07303388359999319 -0.03640735234854142 0.06953778696023026 0.02918046774265853 -0.026145406416876456 0.013693134398248019 -0.008433843889700955 -0.04283237870575943 0.08051777650967747 -0.06835140643522494 -0.02160288195986468 -0.011281693572839518 -0.08548369093073112 0.035440780843920196 0.013785129483792551 0.010003400500943232 -0.012078662848715378 -0.004169958033157474 -0.04029024482932892 -0.04413481071116536 0.03677356136643083 -0.02294390214707445 0.06975893266210983 0.07310997341848557 0.02077822882372919 0.05913079180222925 0.10369322622047722 0.04116682912823466 -0.10143664565857899 0.17500647041081008 0.0031427656535281214 0.021777128953737974 0.015195490097297079 0.07980948373558969 0.045912915021326384 0.10520961752163124 -0.024687677082359895 0.05786334653773055 -0.051434524207274276 0.02197278301788946 0.016098453331253072 0.020323691061825647 -0.053966436853661544 0.032501060762182024 -0.049461636071461375 0.09855618346054786 0.033060232833254176 0.06703622042242438 0.08209443988363418 -0.013974290579176086 0.016950608574770185 0.11408532410270475 -0.010115406401283972 0.016309807021143305 -0.009312643868647238 0.053976561819173666 0.04589224011273007 -0.1106224836379816 -0.027769472178058405 -0.03320043710999218 -0.05070250488731633 -0.06131786957885953 0.026140076068979154 -0.016216252059228352 0.11990064875654059 0.002381620056130623 -0.05185778507534587 0.09258960527380002 -0.10461023071812879 0.0474882980072782 0.12291135714630577 0.002877685524218704 -0.04290881217281941 -0.05004099233024569 0.08350924486966663 0.03691366405757177 -0.09314013903215367 -0.08742423914106803 -0.08591352596419229 0.010365229816634595 -0.02339045529008611 0.09065252450596238 -0.028246806617361574 0.05907520000828662 -0.02539624554365069 -0.050435417536794445 0.029583401199768503 -0.05640270935543724 0.005796820837330412 0.053722324424742146 -0.0038507353801258233 0.13519393430617835 0.04769702817063158 -0.06344722679982304 0.11315869528394186 -0.018194043614652305 -0.02609745173797649 -0.1136445163216966 0.07273786880381883 0.05684181188403282 -0.05105912355139896 -0.03205246156119576 0.005380175361074283 0.05503589474214286 -0.09960543587870002 -0.022738216693591867 0.02873796836228132 -0.03741870516004788 -0.01227494247425137 0.03792200904507144 0.010030467352238845 -0.1016560540502504 -0.03800506307961263 0.04076820024407236 0.04717557822349486 0.04012391391847132 0.15560318451908914 0.029355724232666646 0.06166589789336441 0.01178218666435063 0.019958613085078094 -0.06576737129464744 0.017103672674116704 -0.20119127426343544 -0.06435992295039543 -0.010309022458788187 -0.04156773937108296 -0.038222958230397446 -0.04040730274090398 0.10898199710573955 -0.024447952524761833 0.014950416321856029 -0.07920774696282155 -0.07939331466745717 -0.011074625221178452 -0.009404379352250537 0.042999496131514714 0.009639722913522738 -0.058483890411207655 -0.024863861949570132 -0.034467117979255495 0.027422343099526816 0.027053350089626678 -0.03384805417885823 -0.011067225817431223 0.04073528531445742 0.014072937915178134 0.01930615186272728 0.038779875736400946 -0.010356329462785972 0.010760857980534139 0.12710076955076735 0.031834882443965234 -0.027089922492902128 0.021316487568930845 0.0019810653856042726 -0.016600261414573436 0.015335486160888775 -0.054863126555136255 0.007253477465052103 -0.025790190922668717 0.03918902272896825 -0.03043155357464743 -0.07368558110110045 0.026316635244527018 -0.034584440041015636 0.014875205482633871 0.08022814174333878 -0.006519757253245121 0.002583592468958181 -0.1059563534788005 -0.06520546445759151 -0.051682816082953886 0.04703019393679005 0.011364762065136081 -0.04579164013096092 -0.10437934754882337 -0.026541708074682115 0.008199327284157724 0.013142007589180934 -0.0841277033138953 -0.06301662982552805 0.015656626061685556 0.09314842651390325 0.023273066928422903 0.01946400309846156 0.06802264930966774 0.01383158216159914 -0.014852680760349617 -0.025944252628045214 0.06436067567156743 -0.03094280036713094 0.05265873447526284 0.08534906980714002 -0.0904595146319129 0.0717614293646766 0.01480409252789513 -0.0675094223499444 0.0139382724471676 0.019033660317393928 0.009396646142852719 -0.05891726625367068 -0.0745096784573368 0.1036881525585657 0.03343148984509873 -0.018269710224901172
benevento -0.03785622330960601 -0.040818234812366565 -0.037480803163778255 0.0956481954566356 -0.04323164471670771 0.0299478173574265 0.0027785916323027566 -0.06897885697640005 0.018272376786193572 0.10854755875658302 0.043969984027662404 -0.01820494492261913 0.01930044444959181 -0.027522266935777424 -0.013627332620128003 -0.0777911760601992 -0.02333433314273411 -0.0010386529258842984 0.011469940830423988 0.09817890970977597 -0.07307598563869583 0.06938864763222224 -0.13152957641830162 -0.08386931674033868 -0.08394246253583092 -0.021466011881999612 0.025784387566928565 -0.023038601984772887 0.0163199262250633 0.051132223831792244 -0.07411036452459382 0.11301695872829957 -0.11361094261561099 0.12590759217817052 0.024883953017359052 -0.07802255378160027 0.009822072305012728 -0.07172536038054449 0.033950560028771413 -0.061159368744703034 0.055335225218264616 -0.0156557310343382 -0.02039274390619526 0.00822363835550838 0.035471104004759335 -0.017433667132236923 0.0061718359882097385 0.00328998981043107 0.024928988605931613 -0.028042901398023602 0.02546621107860382 -0.03922734724890662 -0.041290335022248506 0.019581362387066214 -0.06459608913618761 0.011245699031330391 0.02353438774277176 0.059897168405559656 -0.06199665350075676 0.09616942466996874 -0.01586200736831698 -0.0798188602585317 0.12354349761750794 -0.03772868004727067 0.004693980091020255 -0.07962514162800666 -0.09561349446212987 0.007049054500882967 -0.08872858671141247 -0.0037728225429983285 -0.08267118461737565 0.0014111911394712297 0.050012182318046466 -0.07218776772812731 -0.049116789499065054 0.026823846001607986 0.09968924271053323 0.13777287107080358 -0.006957126254990841 -0.03704978904217288 0.03572068522721141 0.05771300248852683 -0.014173497284659876 0.0022668639890917595 -0.02427866296296995 -0.017939639225254815 -0.040578003083554595 0.06351478586440674 -0.027523574987079146 -0.061739753661124726 -0.027865662644114317 -0.04852838430104249 0.14302602098339884 -0.12183657715684947 0.06168896916828432 -0.003039308898241516 0.050495813367751934 0.03905518833529724 -0.02473709530790718 -0.02616031335333552 -0.020947517581265087 -0.03518543644518945 0.066510020484252 -0.027286986537142423 -0.05666167209088454 -0.04855760646939872 -0.0629242837792514 0.02156006013307772 0.005235833231003841 0.01086742205303106 0.00795153750756257 -0.0036373935621905533 -0.04703431177749962 -0.0382177360665697 0.02772345177663965 -0.030502196646378373 0.08470338364867819 0.07804026049146531 0.012630740336428152 0.06432758480113751 0.11608425574676594 0.07886863982934945 -0.05062837865058207 0.14633638259468398 0.004942149744699989 0.005310130228182315 0.06781256919051076 0.07951948577429509 0.05866554862750294 0.0894399030087295 -0.04202242425063574 0.04441163016787688 -0.02233123280958218 0.01002428738490268 -0.010054326402015742 0.028159366236558698 -0.031215670778089857 0.021331451360991145 -0.015805486613489645 0.08183308309203785 0.011346003485032315 0.05264230175443173 0.054151894601292334 0.028044058680888623 0.048769275922926215 0.1487039938793395 -0.011406341753447923 -0.004806519989252389 -0.03483112498602658 0.05274357058297586 0.040407328864036224 -0.09890542843190656 -0.03086000826855462 0.007550523473927815 -0.08645915237661721 -0.05278054929519809 -0.008569437897355781 -0.02401165437332047 0.1343245830481293 -0.002262873756994373 -0.06252823407406011 0.09757942645817225 -0.07004754216438347 0.04476670643434585 0.1348677107973249 -0.0025188487650000062 -0.04368565506159599 -0.0032979655766135325 0.13667215734484273 -0.012156359211719623 -0.1116411124285838 -0.056232539989973476 -0.08434618044719051 -0.019766955879875054 -0.05843008984142481 0.07145675876358139 -0.010806707786288687 0.10074208804312991 -0.007435957076785138 -0.02322390936021656 0.038392685361055626 -0.03889619204820738 0.004531904890932024 0.05031681704962252 -0.018527896762464763 0.13193850299415155 0.031168025645194223 -0.06852124082652591 0.09279894391657474 -0.02208682167095653 0.00834803381796562 -0.14878055569650322 0.07485599159085304 0.0843360672450909 -0.05656906502529465 -0.017291379684949825 -0.022893807372948816 0.018869017554307525 -0.09918688627754321 -0.002609666155612825 0.033648479534967524 -0.02752752494648037 -0.011831675143711463 0.04930612111719429 -0.009320162809530474 -0.08352133099052064 -0.04360622421776717 0.03353257508662042 0.09067545391602738 0.054154162514208376 0.18377200947651792 -0.007176066204876039 0.023321137804654193 -0.03187038401079659 0.02837373737536018 -0.01769122852643248 0.0028414953749381702 -0.13371275808595537 -0.06954430167092349 0.006830369338439153 0.01035900216266837 -0.05845994701287148 -0.08280089669481856 0.06369582159407552 0.0034753336761677283 0.03826643306212716 -0.05841351424330122 -0.049229576627237974 0.016973813141915622 -0.00694647196684982 0.08952366292038692 0.04334273145595641 -0.06756594628284802 0.013028502546620297 -0.031274966661335 0.029483356292168902 0.027712745578764634 -0.028019062989523058 -0.02219792546353221 -0.0022750550154048577 -0.005905250535701324 -0.031249583406301813 0.048575523103763014 0.01199965439925848 0.013816501656758762 0.06076680593923721 0.037453468414061115 -0.01722093154587916 0.028135562455232462 -0.01920796565977131 0.05250861637642151 0.04841976559520957 -0.014363867463329854 -0.029999483622758387 -0.050247712533529346 0.04612711871109903 -0.04596600824835782 -0.07119479355104578 0.040765690115654736 -0.006829195008444513 0.01185617524257599 0.06097540789012551 0.02860883672395296 -0.01691718645355113 -0.08577871019204154 -0.03344797482215207 -0.0014502217019468704 0.03898667257688351 -0.008076769232790555 -0.037843932570930314 -0.10360674401083103 -0.023052303282630512 0.008413517710199476 0.01488904585355282 -0.05608336125507196 -0.06790370810349494 0.08394474633033232 0.13223776311849955 0.03614106707951885 -0.014655585769251361 0.04110528949522959 0.019155677932504573 0.004904156440808414 0.03130744411610842 0.05720340615074806 -0.017826201960511934 0.01579997473914881 0.08764650746240861 -0.029193067395777095 0.04715872813324438 0.03665205648047759 -0.08390488270444792 0.00231126322195125 0.04877200562936949 -0.007512076169143811 -0.03823182789725079 -0.053542223509349354 0.0927539621066969 -0.023001382142592987 0.033642795301100044
beryl -0.020332376427315862 -0.026499582469498937 -0.046493266553041715 0.09546858755043945 -0.04448983111070935 0.043669674452845905 0.04831237692264434 -0.10231932406898755 0.035512153729234566 0.09308256681611726 0.038777568190335635 0.010253012895277004 0.015758962011320383 -0.01733403455205378 0.026187760335614263 -0.08244919685666954 -0.051858289587765276 0.0028956387265930213 0.011648115565394385 0.09718599033040293 -0.07306339032995064 0.03419119303613571 -0.11664848425190315 -0.060668316484789285 -0.09261529175654006 -0.021631022945898647 0.0408231340324564 -0.0005786173136082333 0.0018479283684263155 0.04810712969083878 -0.07602588917993766 0.12400600625611863 -0.08802360962347282 0.11551478123861983 0.01930020814097993 -0.03606600912977098 -0.01433161490513173 -0.03945746588771732 0.05640973173999215 -0.05284990666060049 0.029223624694142 -0.03199211149835081 -0.03240325938729892 0.020599085137009306 0.023397341906982352 -0.018788974713217128 0.023343431338341318 -0.0048459294701074795 0.05017828544654536 -0.031126550787159597 -0.0033020174782055502 -0.0545173889335465 -0.00881285913282415 0.003067216123077402 -0.04820488806800281 0.0315335892922307 0.024796495633192084 0.0635268126458537 -0.04254674355884079 0.08141382461344537 -0.004186397000876512 -0.04799783342745369 0.11438221474333653 -0.04870471358279979 0.0012380880633745869 -0.049271042943412974 -0.11162256639588182 -0.015587104081999766 -0.06384105529133785 -0.004290953645260393 -0.089122057115644 -0.005484125557350501 0.04990524950107173 -0.08079728352469853 -0.04507383843234868 0.02139213344680223 0.10489831463452327 0.11007780658064639 -0.005829929997355332 -0.03397983817374875 0.023674737312105187 0.0407346374723275 -0.04715874404085802 -0.027507805288785867 -0.041586583430599955 -0.03911676567770004 -0.005365888329705022 0.05381191840072001 -0.03486232071491597 -0.04133913467468797 -0.008038911832844078 -0.0006313849691987944 0.1172914307451477 -0.12841002097483745 0.03902080191008509 -0.0007097949189649784 0.047622491595900984 0.08303044971256669 -0.03642010337061839 -0.00996590580810394 0.00019526495267275387 -0.051149782710375534 0.0635337726987916 -0.020692165010329326 -0.043468079540301914 -0.04021536231186137 -0.06716791248841408 0.04016914081309492 -0.004797959337544837 0.002361711816494584 -0.009141468596048459 -0.011833979429217732 -0.047753626646255605 -0.028158517642569436 0.0033447123930299503 -0.02569796715156287 0.08745772952924222 0.05089051681725093 0.013383111670168995 0.06949915615395659 0.13023093378775613 0.038500698566606505 -0.0901213317686695 0.14890699803223886 0.030316499681686888 -8.935498066894577e-05 0.06905122807670072 0.055612328039591895 0.054377423816328034 0.09674964934013555 -0.02564602627880666 0.06478608304491044 -0.030591424289457204 0.041819444164130214 0.012651133882235892 -0.011811411634289044 -0.012891514699021155 0.02178310980182757 -0.03441582344847264 0.06678592089225625 0.012093145539518907 0.09551566354567607 0.07522211242023823 -0.002190584108878707 0.035741886590251945 0.13801364738990435 -0.009245352339030906 -0.005220099222186717 -0.018486075121298903 0.02416485623598913 0.048878990593820525 -0.12048764453604843 -0.05244824893040494 -0.04099940179011866 -0.07135704533151414 -0.05553609326624433 0.01695952381781585 -0.024787268886147566 0.13092501205816084 0.006427849838660867 -0.03480251051750408 0.10832819478017876 -0.10676467536068307 0.021707169404557844 0.13877649146933074 0.0017214932032111284 -0.033222174290246806 -0.03925421949005706 0.12407197346218979 0.026501590163931776 -0.08543491934989526 -0.07471503677637598 -0.08887724002721142 -0.030004317243274004 -0.03959745584695268 0.0690228548436084 -0.006969294598417043 0.07655600366396441 -0.005254403853448666 -0.024133137224420675 0.037426072799887085 -0.03350630328882954 0.03046542417794041 0.034948148031044166 -0.005938868710479925 0.10613535576788911 0.049846742666201975 -0.0245882476282657 0.0897225414423436 -0.02834764450484238 -0.021950889620783447 -0.1351202240831327 0.06685338569364419 0.06294494354852734 -0.055654485234854896 -0.009366101511059165 0.012882359412561233 0.04963937775718637 -0.1164716695676158 -0.020814582714495652 0.037498471991974563 -0.04257487115442007 -0.02062409030188123 0.051623223827564096 0.013659828787742306 -0.10183901351034917 -0.05540936078745069 0.018303326847610015 0.11378232031733433 0.05636110392662533 0.18529144357428987 0.016936230247002755 0.029900604371236362 -0.017747175879000928 0.004016086824609566 -0.05509164812709456 0.009589361619738558 -0.1415026208997643 -0.06501780005919157 0.017491199749308944 -0.025722681770231206 -0.03619134330722726 -0.06060144027402437 0.08668780318664669 -0.014072459222652788 0.005321492074357997 -0.09719109671504145 -0.042956898337809295 0.012083050224145273 -0.010728463228679864 0.045376818949760804 0.034817909677732455 -0.06293587949512786 -0.01882838306064891 -0.03908120988907185 0.019362430183223037 0.008509787081232036 -0.054841526988193105 -0.028559332056912905 0.016345403751182604 -0.006836803878767328 0.009772169757573048 0.028020355284957908 -0.015139624254351444 0.011044912149312079 0.08495427835322036 0.034743895214705535 -0.016317274875845847 -0.012686549890007129 0.0011299799087875193 0.033946319972919164 0.006039539365778004 -0.032039256474173626 -0.015798611671233236 -0.012870885496815964 0.041372928719849406 -0.036432791782506906 -0.05903535286168824 0.05218083817336418 -0.008873574518162073 0.020589347513410523 0.09557012116890806 0.02887971251144328 -0.03206188506461639 -0.10327312003231005 -0.07601736719337893 -0.05675199228775662 0.09192961769609527 -0.029667264028406498 -0.05967531492588399 -0.10486503776861504 -0.03685388538296865 0.04188293496182381 0.006371693949298191 -0.06645723556358779 -0.06567437525772626 0.08647260402796868 0.11102292078438485 0.02764119437267885 0.01183633198979188 0.07678243526416925 0.007103315577902696 -0.0037004309623679156 0.02672585986844826 0.07088005336576782 -0.013219326948246112 0.03497462767571219 0.10454940419308768 -0.09137972815659608 0.057051438086547876 0.05059614447123033 -0.06889332325221252 0.023461021088812945 0.05751026161933256 -0.019649123164565765 -0.06714862377897352 -0.03736646911659234 0.08405399513075795 0.021362617258197058 0.021043652628192966
beryllium -0.022489601128142526 -0.009506882846613102 -0.05210377252066889 0.0924774033736452 -0.06512269031504217 0.01769105620912956 0.04061728982569333 -0.13206855819774993 0.019275372085748695 0.08232744758178569 0.016549941222266464 0.026153228790088433 0.008497667294233997 -0.010371027407195539 0.02213445307963767 -0.07705877394414037 -0.01766877614758634 -0.011068313870007387 0.005093568458829764 0.10772669555430822 -0.03652851502028515 0.015930199255404058 -0.09236794094112986 -0.08681740922923405 -0.09461671573115782 -0.010543183948471433 0.03103419875828815 0.015414206275296617 -0.011974936704346099 0.07786520501560394 -0.08107090893352455 0.13207880800182248 -0.09101796443032478 0.1116278547528045 -0.0034971901922192577 -0.03603676755259604 -0.0030792811255496598 -0.031673496072890196 0.03914107273814782 -0.05829814749118905 0.03668978062645197 -0.02192014814300305 -0.02115337580948488 0.002930414168302342 0.02837368124547905 -0.020491752218109595 0.021805619982881917 0.013213972576526591 0.051886402134115654 -0.025130932067441145 -0.00957901815830017 -0.05737964521279276 -0.024436635382967437 -0.018618392068348984 -0.04146367859433482 0.01598406107081663 0.031175531694341764 0.048907928403820924 -0.05330859044028084 0.04319431152903969 -0.043557048062202064 -0.06102719143166524 0.09847404467113781 -0.043488487504616063 -0.0018319114320850328 -0.0801286641615012 -0.09746215418161008 -0.004606857150552659 -0.060962748894189574 -0.01101214063607254 -0.08109201776923909 0.0011749052453740888 0.05685542769365122 -0.07442440657388753 -0.03708804685653189 0.02191861027396334 0.0835206811377221 0.10604693232984407 0.0038991399104786203 -0.029142904642282096 0.06221527014411093 0.04391502274549633 -0.06461183793447423 -0.036546460444565346 -0.0329587354669466 -0.0446967415904937 0.00498585868456447 0.045227377526811934 -0.03464792592674935 -0.06141364868635791 -0.00013805289900738468 0.014612067511667291 0.14072401764947506 -0.136001900728776 0.04256779271032788 0.01173098772892723 0.04092294787543674 0.06340867472777746 -0.03555474771987661 -0.012139653561921449 0.007055818062998369 -0.06466820255728868 0.08087289667650015 -0.0464561402767039 -0.032158922298534814 -0.035858414337571504 -0.08715779419181297 0.02609653271218946 -0.0004887279326463241 0.017212318690675476 -0.037057970223933416 0.014695655316961483 -0.06272317928456553 -0.03259646750518494 0.01578286383150444 -0.025169020314113947 0.07106191969531318 0.0560736994758258 0.01708632457190925 0.053235101970705766 0.12061721858995116 0.018693668190752154 -0.10569539584092122 0.15016388744729262 0.017960285496402134 -0.016976532305973787 0.043730525501239986 0.06983079270200596 0.03873095113410821 0.09837374274894525 -0.01304064469279565 0.056975801723817956 -0.043598461684954445 0.03636954562715604 0.02110789007138315 -0.0050199022668852835 -0.02193611100041978 0.046590657100063895 -0.02349978424952386 0.07923994366956921 0.02764395122363436 0.08930388880354531 0.0764929429252849 -0.013010611908580794 0.012345195834212036 0.09865974342791752 -0.006688100079518843 0.01912304787684791 -0.012874244050116505 0.02702120895207532 0.04085174782949144 -0.10218368775148975 -0.03241531314425177 -0.04740040235089097 -0.057617540630612155 -0.054230539043448184 0.03334203172212474 -0.016631289467983913 0.10331699879469498 0.0004116149333072684 -0.04537901895921178 0.09345675820537563 -0.1008029819946846 0.004972267480711746 0.11409359922350108 0.0256216966884782 -0.029378351441694123 -0.04982395969304211 0.10723289593506252 0.017267958218593185 -0.11594452353295577 -0.07974852199519793 -0.07105523723372179 -0.0005860344186864843 -0.04528465673160119 0.08602156667383438 -0.03807931281195266 0.046819445701188955 -0.015491170984204791 -0.04279808183541271 0.032239229075594726 -0.025357984836978893 0.045149286519816915 0.028216759386176578 -0.02187917929591422 0.11798560017764329 0.04667843763589297 -0.03465914608402033 0.08421121535653361 -0.02352811417171237 -0.048909648509856234 -0.13152084031711772 0.06051559888941412 0.03466648556172331 -0.06409397166979874 -0.03008978926355 0.006718597134256599 0.059920933367909976 -0.10167650767285487 -0.01810886502186416 0.034149029719976055 -0.043841493941473 -0.0040701894382345555 0.04185296517837516 -0.010651774751151215 -0.10019901316732631 -0.07038243106008636 0.019881689224330347 0.0913351659332016 0.06063876412316183 0.20185824578289105 0.008685795668288605 0.03741223250852672 0.026696175186085774 0.012399916228667653 -0.07771254056760986 0.009831839909462629 -0.16295689362244706 -0.060747752480886895 0.02162213079214678 -0.032277821057846386 -0.019351617225520052 -0.05225436493256331 0.08838409028108664 -0.02129704878286654 0.02279232551676886 -0.09825986881461858 -0.07073502027051538 -0.00906614448903097 -0.007302144504470635 0.04463873159441089 0.01640404876916255 -0.07931091627153962 -0.028462264842056627 -0.023619699388674385 0.02442028894744767 0.03449894477980382 -0.07691388854238178 -0.03151551360317067 0.04287869425502493 0.020487579920334335 0.009717218384600884 0.045321061440558315 -0.014089164172776324 -0.01639409341563923 0.0998821765898866 0.048481052839083605 -0.046608697597064964 -0.023845271196442936 -0.00530003791696848 0.008795523635438281 -0.00465345389971648 -0.05884178724947094 0.008134950892089089 -0.026289942587774735 0.04126573223168367 -0.026983405687322597 -0.0684937163144114 0.010721954255960509 -0.007909316005221111 0.013849543222454654 0.08228962931977753 0.013181738249300043 -0.01693358391086592 -0.10877106039236131 -0.07428312941159437 -0.06047823591434553 0.05326851003161989 -0.019443868011075983 -0.026925270009868205 -0.1092042153762505 -0.0269909621018997 0.03974926527384945 0.011675157807584406 -0.08046147263134681 -0.07337232380690542 0.06618627645079028 0.1207676431874813 0.016229403634459093 0.002907414723574076 0.08331841785994626 0.02797990586328508 0.0018223401633728092 -0.027855375996299104 0.06565754633986667 -0.022799255146661722 0.05373490948223288 0.07471211345192105 -0.11291458971077291 0.08779118064314943 0.06703054173985451 -0.051553876621358505 0.024644094466064845 0.04336417224874895 -0.016068119497836014 -0.06619867940216506 -0.02984840950224576 0.10042889540303464 0.03880248961081302 0.024687252390329567
biome -0.059151484078579265 -0.014670560804349102 -0.028844276524906353 0.13308641453271394 -0.04977189875710531 0.03442460185449205 0.06857538820390939 -0.0857555332817993 0.036939996565152775 0.08834316271557162 0.03261362165447655 0.031178014349706094 0.029752151365095902 -0.03165513512883745 0.026120603779071074 -0.08130816414905509 -0.027814021735277885 -0.00915197319598485 0.031051807318181926 0.10485353337752543 -0.03542255604677695 0.03864595071133149 -0.07874177012246611 -0.035236293780268435 -0.09132727812654827 -0.04214832714546923 0.03657355017694764 -0.018715678306251572 0.026336139560228816 0.01617366190599748 -0.04460188095737772 0.13423679768627758 -0.11852068469821601 0.12442313729484232 0.03281170092723164 -0.035367996788414166 0.032212937698728114 -0.0016329774117957545 0.007334405655433422 -0.06721720236760464 0.05812996817693566 -0.006524128140141874 -0.006588305785887455 0.014853963130652131 0.05451590456953729 0.016214501862651158 0.028158280421043944 -0.00011971575480647995 0.07073735505837657 -0.027371970164981104 0.0005126432759700267 -0.04848717926196027 -0.005546438011711628 -0.060272864708524415 -0.023253694988180685 0.04918307227564445 -0.002949410857701801 0.07686596024927032 -0.02372125636616721 0.12865726856312806 -0.07697496336219153 -0.07299109248507658 0.1120638654917676 -0.06302285752607005 -0.02773387400951403 -0.06899499106978065 -0.12339727897181543 0.008875949194184263 -0.04645411846691521 0.008026591690958741 -0.09061966504572504 0.016777822441909635 0.060125965614435846 -0.07255502971846788 -0.040615423593914124 0.010464382929357554 0.1253004793427972 0.10263530346684015 -0.011870227031983031 -0.024008269717559108 0.016444668237730508 0.044588408890146876 -0.03367209764527714 -0.030014310183106064 -0.03206450601347691 -0.041912906883517315 0.012926323883038156 0.07917883171084857 0.006404480835277336 -0.024679138807373775 0.009022986774211322 -0.018728383967265165 0.13456294911741318 -0.1033354457181018 0.05211374321684897 -0.022163513339530514 0.06596068311654889 0.06267735355740134 -0.01602207199693686 -0.03097693528561748 0.03478800334490516 -0.07155597512302155 0.06913285830794871 -0.05690222517026682 -0.06167699181109684 -0.02767326046693962 -0.06782162648229391 0.044293981361091694 -0.029134385234680437 -0.03169757988985545 -0.0029724668615729024 -0.007196441456381625 -0.04495174550512065 -0.02861807224455433 0.00845384513824258 -0.031083252858643926 0.10030979973028784 0.07272932839628411 0.02025313243148325 0.05380444208169399 0.12769247633653796 0.04579538711091275 -0.09903077050012317 0.10846981677632052 0.03267958842892747 0.016320463525896254 0.025540400505835843 0.0822732237999947 0.009944970196400798 0.08716289245159474 -0.02139689427292072 0.05388760930916849 -0.012575750262018074 0.011888773586968254 0.02393180414496957 0.001473100987238301 -0.04323842279822903 0.03774869830986403 -0.0492458431788849 0.06857504059156914 0.03532586259192851 0.10640604946014466 0.05589851590528082 0.040311490873712524 0.0019415723702184747 0.12035235499464683 -0.01060306534206131 0.006482582663815547 0.010774486668299004 0.019734899414510784 0.07824738941510286 -0.1034637759993522 -0.07157784628346411 -0.055375874408912 -0.046149074422245986 -0.040583671149326324 -0.00419671197297368 -0.030379669192081727 0.10773035675203894 0.0022104798144157753 -0.01591079120247851 0.11461265610284041 -0.0820889748321161 0.02435153616519558 0.1202188894719566 -0.027905388590511598 -0.06178365815232547 -0.07823420264310642 0.11268876881751218 0.019172597468590118 -0.06653891541019803 -0.058286948000025186 -0.09077120531913116 -0.0032243204413678916 -0.03213118436678798 0.09450815093189616 -0.02548049443087563 0.05364475237147718 -0.017068139136572954 -0.04987949397140107 0.009872610973660509 -0.007390989894757931 0.0357897347375503 0.02640333047113864 -0.009911486515961092 0.10589428637654291 0.01226853150155978 -0.004473342708350853 0.07887092631058544 -0.011025667073851999 -0.002096101823269928 -0.13866071141513425 0.07536274545910346 0.0688356764265872 -0.03002688479291215 0.007393371065622034 -0.006626855875958061 0.016143711857368653 -0.11930021509698666 -0.019287374098649744 0.02370517383495624 -0.02766900475617753 -0.011540486339006034 0.04544174080683332 -0.017429996290097678 -0.15115095701566447 -0.03270681613436953 0.007639943959935882 0.10091195385012773 0.06042414638581425 0.18009531450902963 0.015207621038698056 0.04871994594089467 0.019287493532334676 -0.007849249327227727 -0.050245017410985734 -0.010728975442649351 -0.16550736389526063 -0.048143172069333925 -0.03391197866596194 -0.0263136491942526 -0.027929022778983917 -0.04498429779352221 0.0830054843654031 0.010964180097665836 0.015290625752281573 -0.06320546424404598 -0.061449837289001046 -0.004733711157027777 -0.0030942238911760424 -0.0010464477544099857 0.02454735530148165 -0.09598594880449196 -0.01043556147271109 -0.016883745330768606 0.026932954116285907 0.015315440262706431 -0.05490577904721538 -0.006811786603776898 0.02739746593977159 -0.00044982802572246516 0.004218236657330334 0.05532522636673099 -0.057222955488122784 0.028935971789954117 0.07450737384167702 0.03922079731550387 -0.05286814165339222 -0.02816978809658637 0.006194097097354109 0.0447056885843173 -0.0033836870076160053 -0.024800040154847474 0.017192352609094727 -0.004766420619760186 0.03381008737480912 -0.05230708570865962 -0.08845240030209989 0.06629131443040426 0.018985096028387983 0.025480514707632594 0.07688360067496801 -0.006085115821809258 0.0008366405482062139 -0.10165789784399326 -0.05585096001511278 -0.035914749570652785 0.034457319776674426 -0.02098304065668764 -0.01903590974179793 -0.07509316749130529 -0.006447267467250265 0.06167920266375352 -0.016736361895404915 -0.05931184458387547 -0.05799551869523613 -0.001592864416221997 0.08401468807472137 0.003116099379202537 0.008643766788345626 0.07325124235135222 0.04142979451975574 -0.03538279062288223 0.01381520006047696 0.057074809149517326 -0.03352108514477858 0.026225671721816016 0.06905916935482959 -0.09308079317883279 0.05788023040500972 0.007842207196487096 -0.05212321622953788 0.06838767182825972 0.05648492469669728 -0.012251793669711216 -0.07033801859989079 -0.032861396218332305 0.1494130604299602 0.01403269001944757 0.004986812384121032
