108 300
alcohol.conllu -0.012519835773054204 0.0146846095638944 -0.12001405412999096 0.017832862813517803 -0.09523574380287668 -0.021939276293718914 0.08113556850253646 -0.16821667385733519 0.0018506839096465234 0.04049391477908063 0.020447763469914997 0.031759963679301395 -0.049729216745823625 0.03226185298758508 0.03418240200427173 -0.11597222828308701 -0.027680342934762063 0.006482720540671522 -0.016987623052131168 0.11084057168869998 0.010990233640474575 -0.039138475430392214 -0.06872749357286655 -0.08205642978556306 -0.0798085947944277 -0.004966688000135763 0.021502975921672135 -0.019371525031504494 -0.058433871421957384 0.08012485039403588 -0.08143940542195167 0.11523034356882608 -0.06987073314141745 0.09487558318317742 0.0072404338579659935 -0.03205829986498664 -0.014429516269744837 0.038426781053070486 -0.01562517175514628 -0.016486269299855336 0.06964655567962155 0.0010994188137078294 -0.004970685311823189 -0.012427474411958302 0.041339268583660306 0.01892943799003923 0.030899529526984472 -0.012732740233607983 0.011060109176344467 -0.03259583708970492 0.0028854825096282385 -0.048599890828887576 0.03674190913036097 -0.07052785297547333 -0.06070291442577624 -0.010672503797660236 0.034730090715417015 0.030281472317732913 -0.022195341850521483 0.011322136753477366 -0.04275909077080649 0.0037383495513292012 0.04353799547677081 -0.011280792816002244 0.003767635336576184 -0.07954837044254488 -0.057325116724939805 0.010895695894082891 0.0024610098208677515 0.012017126803796803 -0.03881217783558332 0.02362708559276778 0.10640021724137379 -0.05820829191081492 -0.027521908216371887 0.054113493732359685 0.05522809854737658 0.09498604219652704 -0.020860063393919243 -0.0064840500871153305 0.08663495675372508 0.00527445798800911 -0.0773282728344112 -0.017101273368757292 -0.05149935868280874 -0.04115872666023905 0.05434941879127911 0.05622841003256816 -0.0005801731604935788 -0.02801222526504337 0.051567552160920245 -0.002137978735214269 0.044886083031846075 -0.08285862096211596 -0.014829478091960923 0.005078796110999216 0.02258207267335907 0.10212240550604951 0.003897919488365847 0.019313461018447293 0.04052511962546422 -0.07799798899549425 0.09754008481500785 -0.02804419938019174 0.01927636745451301 -0.03267518978664599 -0.07124202800283641 0.06966654844324684 0.018901870729551806 0.002054168643513804 -0.07408118319685401 0.03220552703107277 -0.06040983601034794 -0.006994921251388266 0.013686329194428738 0.021552651754525646 0.04076250988891294 0.08459073856516837 -0.014446930363137144 -0.013827864746436472 0.10231598596809123 -0.024345021574494252 -0.11488942790471834 0.11875212256528064 0.008770355238523415 -0.04696640638597078 -0.02300410199724022 0.05245276285962419 -0.02338824918024857 0.09261567938864858 0.008056820965112076 -0.0044335832298290625 -0.07210585081752241 0.035406208584476115 0.02864938761844527 -0.01850288602694735 0.012821536601303652 0.020042465508527323 -0.059284728691168485 0.04935242177832783 0.05994081811181098 0.07825353395043418 0.0666683541324366 -0.014362921192025233 -0.0019175097664092652 0.11091839612953566 0.0015780462379861788 0.004933889105905583 -0.03891042509289644 0.015280436322299983 0.07310968290002266 -0.12609156820968118 -0.02556389944512535 -0.07514492770092376 -0.04006834626059901 -0.022660358373651844 0.0471830692847779 -0.008858132671275908 0.09094098413621836 0.009283845879576315 -0.014797815184881734 0.03807092234221264 -0.08163383841455306 -0.04045428767209459 0.08541505363302007 0.023067686023771846 -0.03867110943428413 -0.10062294958206029 0.09080983032379909 0.06225152024200976 -0.1270431034047532 -0.10212891033922755 -0.05559299397247783 0.04106987106984672 -0.02433503640172997 0.05000845014247896 -0.06778307452141118 0.015498313962229417 -0.016129889111741104 -0.06506862880466298 -0.0011813698800525552 -0.04299250919629095 0.051344776486750614 0.015172987077619965 -0.025682578401243723 0.09640723250831636 0.0725481904651042 -0.055227033492079976 0.05308124446051132 -0.050103049949335926 -0.074372764511292 -0.10429910421424618 0.03144862788339421 -0.0032516303449469037 -0.08099963422583113 -0.011133416367196478 0.01971885649660118 0.05647851613594607 -0.0778656158839835 0.006001470478858143 0.004336903935441759 -0.022912594050249792 0.03797820092792879 0.03044847098719158 -0.006855966782530414 -0.10548055568486962 -0.1000627208360925 0.03208873636484482 0.08971119866809735 0.06951655848105726 0.19694220394621234 0.012633142000375965 0.015614007828129243 0.06758889781329602 0.00011244364096214696 -0.06117416775681836 -0.007984577132042344 -0.12788628264359977 -0.06265403428116378 -0.02240640638194159 -0.024648086461458527 0.041547465308774525 -0.010371515473881092 0.08378611024883117 -0.015856995395327783 0.03948944115753858 -0.06663845931519015 -0.15525760315033652 -0.03091459411546858 -0.030603683450491772 0.03779469614725442 -0.05136610521295687 -0.03701544486672103 -0.0823482671479571 0.01763850119628227 0.0325705603595102 0.02832477916394516 -0.07136020567842842 -0.0038354674304833854 0.037792196518776834 0.03882070627347093 0.0015203821522565347 0.032870664541326235 -0.004848456827364182 -0.07847486205743333 0.06609290262284144 0.025154909981097994 -0.02147890660473611 -0.05091802247824274 -0.03757091328600159 -0.003199553825987974 -0.001215590469098376 -0.09353949889439549 0.018433653022659157 -0.005042029405153864 0.029184979472310118 -0.0006133639338242023 -0.09749612187531624 -0.005880327475464288 -0.01938142801290492 0.000987056600782277 0.1141103713974021 0.016674398085413315 -0.013255681210595687 -0.151962764354906 -0.08041338020784423 -0.04730590285089411 0.01396702793820096 -0.006252030228408342 0.011512903133715459 -0.09158366181747311 -0.06780975402104392 0.07006026532856606 0.006254979829372805 -0.08467606062607813 -0.061658299328806426 0.022809715937479567 0.05589065338149299 0.006660112914737962 0.027126592175900997 0.10146485611885846 0.08482351617908317 -0.04205150020311433 -0.011952396969581768 0.04988554538576186 -0.037232607250375846 0.09006442652957224 0.0369407362157504 -0.14087497466655172 0.09057464728688673 0.042510929075220825 -0.029555517769232976 0.045373362925224446 -0.02054203977111188 -0.09888167729082731 -0.07785840492914217 -0.010433862838194221 0.1024969724427028 0.08525960280808852 -0.0001311663310035767
allergy.conllu -0.009271936664987835 -0.008672436130327707 -0.12596014515372547 0.08802973309784251 -0.08156834701328916 -0.010839525764964358 0.0426834777398276 -0.11159745601235202 0.0125926660464235 0.038414019581727556 -0.004545765435528957 0.08133998154143014 -0.0500944506505416 0.03349517737950066 0.03669985003304628 -0.10311657557198564 -0.0005770349126956413 -0.02697998689137803 0.02509297591707464 0.12172492478761748 0.020330269095789485 0.028549937031239706 -0.0408734115218443 -0.08669712587354492 -0.0641873440668651 -0.015001637774775428 0.0010223234159858763 -0.0005573931065979778 -0.00817033803751976 0.06907950932889916 -0.04364335436422278 0.10188292938500228 -0.12897252187292163 0.1255404786928751 -0.0021278018478231514 -0.014450527551130741 0.02171660809890874 0.008640544081880723 -0.0058737525404590415 -0.029736149780240792 0.03335853240761433 -0.027289023578106853 0.025595083299179016 0.013747353232608022 0.03635326140737516 0.012612791271709507 0.03803253410813393 -0.02998480867646243 0.04902873927708122 -0.02918792259426269 -0.01904339003013138 -0.06891840276303283 -0.0298068534547293 -0.09070886013198837 -0.05420284123253779 -0.017030998414388147 0.00983183215303748 -0.025286010462199304 -0.05196664904032004 0.08230056531279038 -0.046395058178955575 -0.0500517112556441 0.09214660672687845 -0.04987647327208846 0.0007419447525220465 -0.07410033228612722 -0.07366313711778814 0.048380113036715834 -0.014348677067041604 0.010583189415836814 -0.008221323154930906 0.005438516275351348 0.09876529821841132 -0.069285967960267 -0.015324860117862476 0.04562710661578372 0.1141463955441722 0.10675089898591328 -0.027903793884663675 -0.03242086754999567 0.06065276241344563 -0.0049736101295601845 -0.05470682046275401 -0.05243917157063032 -0.0546680946189222 -0.027851291447760225 0.009050636610287852 0.057753683380191406 -0.021881046803676547 -0.07179874515691247 0.04495566522778953 -0.027887501831923855 0.11284671888920655 -0.12629560384013802 0.014298632334636168 -0.02324029489408643 0.07323190456060813 0.06582371536983629 -0.02405580222485065 0.040784065437626374 0.04920294436498861 -0.0390798771382361 0.05427635655863384 -0.07368263525643876 0.016095186059982045 -0.004952489372471527 -0.07132700682169402 0.04593000945578535 0.02418552217189825 0.03441556708812497 -0.05722535944633131 0.026962287695663754 -0.04761580690239942 0.010310690038581989 0.010344293533665375 -0.020150127470380468 0.05177878663157168 0.023485605084682577 0.0008840135472448601 0.051687543739908894 0.11204328289911086 -0.03531310892563761 -0.07748970099010832 0.1382358558556318 0.0016690604276912338 -0.013039852199659502 -0.013032019453253578 0.050657945867578824 0.012129883301060065 0.10221974223541073 -0.027976650592686968 0.05703515696610092 -0.07184803090475715 0.01797246014880002 0.037405187381699595 -0.01246724690130969 -0.08001078979765132 0.028084684640895724 -0.06937091835559732 0.056772437486421475 0.026778903936025954 0.12239813603606893 0.046194239864668064 -0.024687751915260677 -0.00909308594323691 0.09228456433791274 -0.003940586933980231 -0.008245732691816847 -0.009435825924586307 0.03485503600500515 0.06099047743368645 -0.11155663173366125 -0.014965343890290415 -0.03512171811294716 -0.042509678375005217 0.006219168936206221 -0.00999703373945455 -0.007391390302965357 0.10901411812335082 0.009682427157038829 -0.018637744436355987 0.06874529685197879 -0.10113691317530071 -0.018858682251872445 0.10160006210162756 0.05562729506850687 -0.02548209282967623 -0.08416122403208068 0.1161647134028182 0.07161849829138778 -0.06243000674405189 -0.12156865984245786 -0.08469440536676277 0.04459999309192692 0.013516873071093498 0.056272096829266906 -0.0759485966698917 -0.022246061152438233 -0.07631719625536283 -0.0405547986967178 -0.02149240274326257 -0.0515992068868858 0.031072102017201085 0.002063717981223287 -0.022613421170251738 0.09776581978196054 0.00273788301478237 -0.037816098797367324 0.06516633131048097 -0.03595186632679801 -0.06324445132852861 -0.11922705812777061 0.050918434429160886 0.04467283401850562 -0.06374772533603194 -0.03695465058027803 0.025169297249544555 0.033889452291178304 -0.11159513565494114 -0.021172965830817944 0.024386660986659203 -0.01339436594655187 0.023590214661615875 0.013135440435759186 0.049236087985927386 -0.09220122135581747 -0.08200899218000492 -0.01070839793757305 0.04381521335714182 0.05181998309384042 0.2204572376667024 0.012850066885017192 0.08030576808601736 0.022569462532274428 0.0018950583517113235 -0.06022910621969596 -0.0011852983691928937 -0.15182898881663215 -0.03807362155091799 0.028855814161004547 -0.07380172106556265 -0.05932329873349032 -0.03060533539542019 0.09218851520759881 -0.03022107274265471 0.03547832673757953 -0.09452078527884429 -0.10569006304884943 -0.004421128516717877 0.011191515602976718 0.010865679790195681 -0.015521103819663646 -0.05444271849993005 -0.004738612287980173 -0.015979966760402677 0.04995352937970943 0.04593905092515823 -0.04008018428330704 0.013346114344358995 0.07361348887628713 0.04094543429758173 0.020411516770805264 0.03127534785836795 -0.03495477430464 -0.07967920894853843 0.14490648380910667 0.007935379474004786 -0.052530668730993525 -0.04334359184125745 0.03847663699772653 -0.012189555744969053 -0.004443713229188806 -0.047037416063348235 0.045620683809853506 -0.020846232199490715 0.001490949805195029 -0.020716505851162026 -0.12392383579881414 0.017011597655938022 -0.001555979542143574 0.015330066358702465 0.09053363313474953 -0.011241018952391565 -0.001385200435422262 -0.12419493888525432 -0.026559992180201247 -0.06798544691239918 0.024766765116583295 0.008176812952281566 -0.016605455528550906 -0.10958105717818643 -0.022406244029209318 0.025174163694245705 0.0025013976955502192 -0.07251527038971102 -0.03007030108236254 0.021314562104272645 0.05899289476436264 0.00010506731196274878 0.026637064338934754 0.055309841425763145 0.024555801563856793 -0.021114068723155435 -0.015431940013648655 0.07558564947439142 -0.024590868544148888 0.06918530744706371 0.041977185116832696 -0.08602719985095979 0.06119507787120496 0.0024850609277999145 -0.012142789704871346 0.04293344700172457 -0.009345187273345996 -0.08255067162337099 -0.03884039494229439 -0.0037346027093371164 0.09344850386608657 0.08854587505991922 -0.046369483117891304
aluminium.conllu -0.029589210957977154 -0.0053053452514838385 -0.07289940045203896 0.07696355255506944 -0.08867510636956676 0.02398476685706579 0.0738681633226875 -0.16695448583514855 -5.042161346687846e-05 0.07746574022149305 0.01504673973425063 0.06747702179692455 -0.022089350257237572 0.0014015880159530456 0.049080486804644136 -0.10225077190315442 -0.038280389961100725 -0.010501942729370868 -0.0073861623708153116 0.129752502294916 -0.01203546464810746 -0.016535191054139566 -0.05545428756244108 -0.08760959101306583 -0.08198654203575281 -0.008628127961627038 0.025671843250208846 0.014061860361775081 -0.03709739886412575 0.07035415598624231 -0.06155270092094485 0.12678004115343558 -0.08407769292468327 0.08230084829877425 -0.019144254548616107 -0.019136153337438337 0.011660320160011024 -0.0029248373580749447 0.02580733103317723 -0.04983488902870386 0.05299821949566689 -0.01341259827357496 0.006116350482612215 -0.025461063871067575 0.033898033711734755 -0.011342749916643767 0.023038862177084216 0.004793107740690371 0.053847485545006145 -0.028738853881387284 -0.026781648704725807 -0.055888828397502824 0.0037427016036364388 -0.026943970966914737 -0.030474143454919153 0.009779037198981308 0.024584151742356636 0.04321076859637058 -0.03278345028864424 0.029241499582349412 -0.03663350006570091 -0.016067542440706583 0.05760780074343769 -0.03107654456537429 0.001641983367535615 -0.08744584346685531 -0.07027971273526568 0.000598819201116058 -0.02547228469630686 -0.018956164781298596 -0.03180106439499329 0.005799259329336467 0.07479803307341604 -0.04792328855290265 -0.016459091382013596 0.032553564542360254 0.066368871156485 0.0679679068316244 -0.01666271676327086 -0.041288026705113466 0.07549131766432549 0.02720533500406383 -0.08287355595056592 -0.029928333679374183 -0.05741815188498876 -0.030837386079402167 0.061518519171781916 0.04160049250735063 -0.033974159318135896 -0.03703876353232841 0.023610763944744817 0.011772214478016714 0.10649316300973179 -0.1075063605305805 0.011079345507952506 0.02581561788301251 0.024639717426683458 0.08080087135720458 -0.02520859732561203 -0.004177411929722615 0.026632974464035737 -0.08841805252089147 0.08502284128911904 -0.05390295174281495 0.008990202710253853 -0.03479140932634027 -0.0818261055125084 0.04482293120122785 0.0034284743252519386 0.014569313384802806 -0.0659437174093697 0.038675203949061134 -0.05854687813168796 -0.01660228038058108 0.026060423563420143 -0.004167673702048059 0.055420731081035575 0.05876950805732521 -0.0057421304654527655 0.026360831960586216 0.11082992192886278 -0.010136493847853072 -0.11928108585360031 0.10764001750915919 0.014226884835633738 -0.015583752352503541 0.014146148487382576 0.039931210979380564 0.020042967599409447 0.09550194536517703 0.01192185916921538 0.039937002473655864 -0.05001568681804838 0.03306221205573802 0.023831189621325764 -0.03029485209489997 -0.008051554517581156 0.025499501595621532 -0.043115257891254706 0.08007216997353274 0.032087105942673146 0.11072406287126259 0.06639171778174519 -0.0018789862659605572 -0.02188641303151371 0.09059943941555591 -0.012876201175650585 0.015461871890456284 -0.024924346734159324 0.016009653038547417 0.04772954928346573 -0.11466695255831028 -0.027926499675761083 -0.05436433773177928 -0.0429333205372571 -0.026388224837514424 0.04069007658918258 -0.0131202218828418 0.07320311824740502 -0.007186856277505537 -0.024018015036910517 0.08120696829280685 -0.08321244093848812 -0.02047980991122453 0.1021948686223144 0.0271066674313723 -0.025246123712133497 -0.07193520419468959 0.12092960284338487 0.045883091642491526 -0.10590483131375149 -0.09730809846115833 -0.05999393116910473 0.01260561753611392 -0.025033747174695656 0.0840973419115816 -0.05857886301122079 0.009701208653792405 -0.0025192825192124238 -0.045830707562033536 0.03136447344959893 -0.03331125731746765 0.0743924843352749 -0.011811790001447093 -0.0044257009449118435 0.10721142801902121 0.0196603072914943 -0.0278561490708302 0.07296376204111801 -0.040150110263350185 -0.05624964890743143 -0.12945317323870006 0.0409642377771988 0.014559143712946412 -0.09031407261762671 -0.01821799500288435 0.03256432004671844 0.0716585215911231 -0.07516169472737551 -0.01832667786488628 0.01943456877195639 -0.029789755410420726 0.03337859003204238 0.0361711750868674 0.004677210793927012 -0.11324420862887873 -0.08729402431038154 0.006780434815777954 0.08625800362565013 0.07470966675169927 0.22207328055040051 0.0004776382235172424 0.055713404324626514 0.04404659530008571 0.014162014845425676 -0.07799184517944996 -0.0018743578495741963 -0.15587484730798637 -0.05536245674394987 0.021096410167830853 -0.028992242192982232 0.010825474098639246 -0.028555854026283998 0.10375485484088114 -0.010591932287262129 0.01344813728463596 -0.0803095869130899 -0.11694045940028562 -0.034017823168049424 -0.02067144458891783 0.01807525455153497 -0.028965224108465852 -0.072405994390244 -0.028939551820481108 -0.003224201519401151 0.012486127459470394 0.04918327714156764 -0.06894587842796239 -0.009859373875527797 0.05584354173263674 0.032565920342258164 0.008068139932616016 0.032230090129594956 -0.04512812598633807 -0.06955518076017991 0.08097123029305697 0.021207358311463094 -0.029051639285760027 -0.05970077829043122 -0.013764625717030163 -0.0038103701600132683 -0.042136411614210716 -0.07249613824627325 0.006094132366312256 -0.007490074359814839 0.03648400334544054 -0.011446708166182236 -0.06494350840774459 0.005687060268685528 0.0041013473550305215 0.000702045065198348 0.08388080576031738 0.032435560184265896 -0.032334985292387604 -0.15322163855322385 -0.08519471419496145 -0.07105501362122686 0.023029459112015843 -0.022152540953930405 0.012464753863962598 -0.1065403528831086 -0.0319440861074251 0.07128432545691103 0.013659671387347024 -0.09216069932814845 -0.08332618198423153 0.0504154481732007 0.10339853518097566 0.0007067038641872558 0.02498378186470225 0.09000742211842286 0.05658670300243377 -0.027341177428733435 -0.03862992332736416 0.06980045262511517 -0.018086756637862304 0.07877214655575357 0.038623976467116246 -0.15385629724536518 0.09355818683024786 0.0558670188917296 -0.013722910271247193 0.03445038287642066 0.034018959103698745 -0.04972946429952178 -0.07091406300076498 -0.027130742576567952 0.1192425270854823 0.0718534333203155 0.02519197379892361
anachronism.conllu -0.03888650509829584 -0.024722936195132682 -0.09197525404914429 0.09571615350586046 -0.031285401639348155 0.06982491046064668 0.006766484575415783 -0.09391769722606924 0.004078284220420646 0.13382660862929416 0.0506744038300507 0.06156612037825435 -0.04307075663551541 -0.024236406817479513 0.04564790120221154 -0.10551711998236951 -0.011809753660524211 0.05229275913198487 0.048607927664123286 0.1243627954570768 -0.0422223266637008 0.08018632187410502 -0.07403112954262969 -0.1026299478308692 -0.03670356548976224 -0.029238911049256175 0.015254483165274084 0.005706317578079411 -0.008605537699888092 0.05822668282255697 -0.0486155645670174 0.11276687563919413 -0.12009566901611417 0.12121696054470343 0.01537971761672542 -0.03597327684802306 0.01426716701105646 -0.03959563048385109 0.0005595963932198655 -0.015377188415504853 0.026737685681123398 -0.03740756634100006 -0.0025718345746566593 -0.0052354678767077755 0.023033306154973187 0.009780153873281319 0.008325948990711492 -0.014892184521077484 0.026701292401864342 -0.044465582382908264 0.012296097975523744 -0.041860995107461066 -0.011068840705922067 -0.03561633463520131 -0.08810535687468836 0.0019003176453134389 0.04591245095294056 0.04013627563101061 -0.034683815058863816 0.08761216672844116 -0.009238152345846778 -0.012525743984732671 0.08005908519254734 -0.03717320096607693 0.00903918286943357 -0.06594801905795909 -0.0265108018240518 0.01691355155907742 -0.03068743957302128 -0.021399820501622275 0.007811675590677443 0.04101326365432938 0.04982033982488776 -0.058448489154721874 -0.006364257106272863 0.02810871456359326 0.11434893489312178 0.06442916432728937 -0.010662398023926047 -0.0038827044424015905 0.03243031597268628 0.061367994090122405 -0.027899755052785195 -0.023286101582111245 -0.044741530535742625 0.030735442320738337 -0.004828988406992011 0.041068537848266515 -0.03425059615952819 -0.018192740571975324 0.010640222531865588 -0.04315208599272757 0.17222980709195204 -0.11120987223613764 0.06062796291952067 -0.01739751548658586 0.04959726702872074 0.04642314044250713 -0.05254564572226399 0.007010643215064278 0.002063290362339557 -0.07696636051391198 0.08740741025523593 -0.02758151010574223 -0.04522213523198284 -0.026947657649139336 -0.077751200361106 0.029603865222396483 -0.00717266682246947 -0.0009047624487218633 -0.010624124780655303 0.00643663563668687 -0.0692238920226711 -0.036663303258612466 0.01728614373083078 -0.04716976895102309 0.08475654128937571 0.06324680778015805 -0.026994311556559545 0.0574601822892807 0.07162350733131599 0.032795652308350916 -0.037651143801023274 0.116710671262116 0.025063892000439826 0.0008053788184329634 0.05502670857804857 0.045083153339015226 0.028601682185634247 0.10569248031226366 -0.007679733394377196 -0.0054661220679986765 -0.028346107393681718 0.0006184502657497338 0.03637461247070581 0.012214432739286477 -0.058385595369160576 -0.024826615978436436 0.008794498076436051 0.06722265032453295 0.049144582333868515 0.05247704686807885 0.06258337657168785 0.014546392981655845 0.007067130247082013 0.1260989560841635 -0.025344549079824644 -0.041328991720519445 -0.05814446217993233 -0.004177736627093614 0.08139597257999961 -0.1258511350423539 -0.01953754358884377 0.0058679538101994114 -0.10881122834613921 0.0033044557928979925 -0.02188697764260452 -0.027675584790003982 0.08574847554729544 0.0027898887957582053 -0.014564363255653651 0.1390054706947364 -0.06422767155586813 -0.005048888978133518 0.10990994001595727 0.02521462266872991 -0.003280760472921955 -0.08689774849858817 0.14511210278131662 0.031970695778415874 -0.09002593451053371 -0.07030163071156526 -0.11215092882950443 0.006124302059231749 -0.04161202984361423 0.08463271773982242 -0.028731330073589335 0.05649541735810712 0.0025912461171734226 -0.03551966372941514 0.013677997393598472 -0.024871102432340194 0.0636967649629798 0.03240647494485576 -0.0425289976876718 0.1420467693782215 -0.0008458685283055624 -0.05920142902759757 0.09202107398074418 -0.01708605826536501 0.01833780789743768 -0.1539457407463235 0.04440191521996149 0.04702132497444905 -0.05641343876849508 -0.032688486913945186 -0.03465826860036214 0.01680783287768049 -0.1310989158576834 -0.026777807943444715 0.04629016466228791 0.0005720649548060231 0.03013114684132019 0.027739451635747057 0.033600722305025414 -0.0941765823120974 -0.04074893311990462 0.0003451322699154215 0.0805967938522466 0.07980221921203594 0.24444819134816578 0.011168826743351557 0.06689419970722549 -0.06874287467309162 0.05372028924551785 -0.0502731408200176 0.001461862289571279 -0.13033012371961678 -0.10671606637439607 0.025028067980562275 -0.02776852359706279 -0.09906909901682527 -0.11944001905855159 0.057844282418824326 -0.03314475773590425 0.056455116011985884 -0.025684938436787156 -0.06530366324411974 -0.011362480444385117 -0.018132117465241987 0.04319141756193372 0.03997460392598153 -0.026182614397829804 0.005651625936254785 -0.06020032705372737 0.06405859631494279 0.0739771179630734 -0.014477764261376907 -0.007668327048404787 0.013285888753734059 0.009892853696304977 0.005930461465398422 0.0662651931679427 -0.01829795201103569 -0.03458622661190061 0.056046806338627186 0.04371358808716063 0.03885046046095624 -0.020887835950548606 -0.012941110617100854 0.019146752228337127 0.007017754725693399 -0.054996540184900335 -0.013848796264778295 -0.00851954316712002 0.026238349844967215 -0.023748922851325238 -0.07293225712268055 0.022154565659748174 0.0020946012950775403 0.0020946564572138023 0.044574037726292266 0.03691709946269678 -0.0013906033578687002 -0.11026537048283258 -0.05213234376194891 -0.03679588952016751 0.023336327447130302 -0.02069755402638708 0.0016372330102210207 -0.08885497775686951 -0.015101204965377597 0.03735168154194121 0.054320816295928234 -0.05912218900747574 -0.041020394098367885 0.02044008328292639 0.13514343800617237 0.013543170421990746 0.0016602002452706236 0.03681916468616619 0.050914904823344466 -0.010772953735578537 0.002830243149794639 0.07014227110241619 -0.01910689586462887 0.04985171433872941 0.09619255948217346 -0.05350308220443725 0.055736748115341336 -0.02524726187290303 0.005695447811989434 0.016515169160271882 -0.021857264554234354 -0.031289542214148744 -0.06595011983468495 -0.05232390624991026 0.08484141668944865 0.061758381657238244 0.05269602727917991
anagrams.conllu -0.04321151917142441 0.018516307094983527 -0.07461192721590226 0.10230981182398918 -0.046291775428455396 0.056292286574001586 -0.016596721861618306 -0.08156147614200052 0.013358358825361885 0.0584814945489782 0.0463802564380299 0.03458935983229204 -0.010375539994150515 -0.033621037839434154 0.0384528023598171 -0.08122131396947138 -0.037630446039946634 0.03446107225422259 0.04382323672747547 0.11126626660306138 -0.021738171352279127 0.030143894687997556 -0.03256909424755039 -0.07757942087980514 -0.020717575235985622 -0.0604409549238259 0.007569632091676099 -0.02135652223183782 -0.031697237385798396 0.04920814685623078 -0.03568663725920945 0.09325944618132763 -0.09616295615059234 0.03550768778199866 0.018005035917233393 -0.009397135625662226 0.02570065726571704 0.0010878599757374813 0.030343507052227783 -0.015091556494578887 0.04232639259686491 -0.03429460261023016 0.010808538476477262 0.023241181360166688 -0.010778323005386574 0.011984235047518419 0.04964625166739054 -0.019048439984272542 0.025880025840064984 -0.026000393876032223 0.021912629316068865 -0.07696438172188293 0.0221579032791541 0.007975915495063633 -0.07446946114854808 0.01293382217258007 0.005081369587243179 0.03764915821576212 -0.04045860341603287 0.09211976011582941 0.020381598589452137 -0.007205143967814447 0.0886415616498599 -0.02784345390441695 -0.0007213422889309751 -0.018466934511486198 -0.016618577197087286 0.020692440725721482 -0.002750211768611167 0.0010040503437463428 0.009810789964021278 0.0494184703600242 0.0848633745804424 -0.08287869634651858 -0.03397040441257129 0.05338471742106087 0.09226139577775189 0.059873681331540224 -0.021978957044070747 -0.034335002958779566 0.05817286417261831 0.035681445160508675 -0.0772090975560418 -0.015299885127364703 -0.04393275376136157 -0.0228589096209405 0.005895389671048935 0.02671398198919138 0.0037485593199392746 -0.03423964331542201 0.024632642187867215 -0.025731465080800264 0.16251329458900318 -0.10803983808857281 0.045844610217414775 -0.006960329366426436 0.04081823648124983 0.009544786094990158 -0.045042504624069245 -0.0031193843165377945 0.03885678205468311 -0.10083099709850105 0.10893013312207141 -0.03063235496706466 -0.02567266986584132 -0.06547795521584544 -0.051662789291455555 0.029161299039907242 0.0016588633419782073 -0.003995857897685383 -0.006370396085071649 -0.017190354881672528 -0.05792857827087646 -0.012420332264741872 -0.0044919822262521 -0.09706902277268924 0.09681689631738938 0.05817922994244762 -0.033666105730783005 0.07737549269316822 0.0997349515217515 0.03857277076443234 -0.07302215795894852 0.18683885785723642 0.02270019806763146 -0.007206470778301957 0.07148967185269077 0.0524589200410149 0.03194554430026677 0.13146488859088867 0.031512516039804796 0.00021516575563174838 -0.04135326287524756 0.008224575352682327 0.03877585323954922 0.012354455589913316 -0.039277434260714825 -0.020290616096247934 -0.0009833714838332844 0.05158083193060866 0.04208151915061447 0.0450732541585281 0.0718045285390352 0.005609755257481538 0.009485288030723578 0.12007126374182846 -0.0012845417931860793 -0.07529548564755324 -0.05048761645641266 -0.0018639756149578094 0.10422296801556477 -0.09504718651672948 -0.021201609334739507 -0.01933270720585349 -0.07766767193489105 -0.031015078907386674 -0.008546183069499691 -0.030823255556317253 0.08753479093623222 0.011991450126678757 -0.027389293938714174 0.10513148275701803 -0.10590591945641899 -0.004337256134468072 0.09483478010841938 0.00531706318686205 -0.073561066305105 -0.04652348850213888 0.11971864043968132 0.02319958555724257 -0.07028561385594528 -0.08360514588794662 -0.12867039009219852 0.0028812686041170574 -0.034944534365395866 0.13542593495397856 -0.022013103898389036 0.038497758310604896 -0.0004232998897535071 -0.04192205748713125 0.02972654883954687 -0.029164763630402896 0.06529647037377836 0.03583809126417333 -0.038838646176255945 0.12040639492018151 0.010203321540080862 -0.016902795839654528 0.057252772468550824 -0.027162937515749774 0.04090273444177468 -0.1346477590302419 0.07735424976114583 0.054845798537271694 -0.06897240478073473 -0.02607663153657008 0.007447298774187639 0.04136737184861944 -0.14804350914070807 -0.04106542876359594 0.054234667941962945 -0.010281301496358228 0.04855230589685621 -0.012146634884819194 0.0019091504538191885 -0.0813647469585745 -0.07722022055453787 0.03709861911623907 0.08860098234104351 0.024735511021374917 0.20870674738474373 0.020482099223690764 0.03435544611471284 -0.048004093333174895 0.02993999553431547 -0.054612530042170634 -0.011597678843282598 -0.10060521078504364 -0.09172892702384483 0.024414238646916657 -0.04586833618751903 -0.053683232215531416 -0.10212961729013553 0.07181526744402732 -0.0189027943330835 0.05782337911178406 -0.07192775951621143 -0.0833382400766132 0.0018029160544515146 -0.020250070694860282 0.020494726809827845 -0.004400047137664622 0.004804719498756545 -0.048344663606071946 -0.04117382669056205 0.007542434939277586 0.03741115532325653 -0.015902871152779566 0.01981605213315176 0.015751100166465668 -0.016346640020492544 0.018134439327022838 0.07530526207518111 0.014270382288262865 0.0018585860562245866 0.1217912324009073 0.05628792530329654 0.00946054134993262 -0.04358984972800503 0.048609208677585676 0.04442019644092447 -0.011565347614075147 -0.05272072852055245 -0.024529106402614825 0.026079583439183266 0.04380459941511746 -0.011006875900783584 -0.056652951381769824 0.04124859784029401 -0.016606932069679173 0.015459974727674797 0.03049318534320004 0.051223963653392234 -0.023382781030596114 -0.12196211027545875 -0.051070281196743054 -0.04321799910176568 0.006368440568646682 -0.023003442029477524 -0.03979491130246062 -0.15383168618325313 -0.020773443327744903 0.025345847945431828 0.0220044445868909 -0.09516040593600558 -0.04920769392648863 0.06659891964327296 0.12375494644482526 0.014769813742667436 -0.01325644826761302 0.10406959539184983 0.04681832654878027 0.013820617776990207 0.01626731486654192 0.09841653652425938 -0.04082454464735913 0.07115378646605842 0.14623497742567462 -0.08540991175621056 0.01904696592913728 -0.0006440959336954998 -0.03845818001596796 0.0029890920073879423 0.0072039237462168644 -0.01137852809554602 -0.07412034534094064 -0.04024863870595474 0.04484289424548152 0.0779341971548838 0.03777836355551541
anemia.conllu -0.00010635723523573237 -0.021456851813588237 -0.11138494896572014 0.09211374973180547 -0.07020668535729337 -0.0215222264060054 0.08123478504824981 -0.11620154666783486 0.014424067139262059 0.030292256593766404 0.016295322239707907 0.08326534221896169 -0.04579700371125914 0.030886313771291727 0.04080814145376285 -0.09762808475506424 -0.04556320991802943 -0.013053099833068694 -0.00046775277600571546 0.13427911119216754 0.017389489702942216 0.04365715228615186 -0.062115824352380715 -0.10202346596253885 -0.05727941607061208 -0.00519946262322173 -0.030966327229324443 -0.002472274168091051 -0.01464768329357355 0.061354433484592644 -0.06029875742857913 0.11127880184911539 -0.10849729004465988 0.12034357157478613 0.016295125580232887 -0.0411768423622824 0.0052278562588973145 0.010707677428196328 -0.006769928214609082 -0.008046669948471754 0.045534640668516126 -0.024059779912237688 0.01884652874744277 0.031253825137438 0.026334280967576465 0.0045932102322733 0.04602523659934373 -0.02782215796351466 0.06359815942124782 -0.0019649530514960637 -0.026258418587976496 -0.07694054499548897 -0.04566213974269344 -0.07621898061596931 -0.0486778492735178 -0.03542444543527856 0.0098784149081457 -0.014915691310054189 -0.0598921367330667 0.05519190335834981 -0.047446514642908465 -0.060924922172648666 0.10406613324854638 -0.02933554519527729 -0.006623180180563146 -0.05818627262832957 -0.06989844184455082 0.052557309006677884 0.02591137861807315 -0.006658089936705061 -0.029941312301020533 -0.02756027500908739 0.09147088099812639 -0.04591208450723784 -0.007995722390378546 0.04985699580255171 0.12146347465635418 0.10046634037578779 -0.019480294195068932 -0.034906268364887146 0.06292535022459901 -0.014225796223900536 -0.0772735292515846 -0.052903115119478976 -0.08926710126384214 -0.026177856723507312 0.01564789527747721 0.08531953009750391 -0.04545111885110643 -0.07847132572241079 0.04719373353109401 -0.013164477025223114 0.10318010654756239 -0.12390289266348926 -2.3678181072721466e-05 -0.012243563880490062 0.07270117038971387 0.07574400546461417 -0.02299242894793597 0.06372132054605138 0.03833545326465185 -0.035461639493218955 0.030984676565693148 -0.0838833917488534 0.025216220731125717 -0.0103759047835663 -0.062266889528653085 0.06316237868142746 0.03153216394649074 0.015290126864183991 -0.04509208660479243 0.04664882452249332 -0.04638448410000697 -0.007447433409210351 0.01950328643675739 -0.031308273492094404 0.0488235394468725 0.03946387156845746 -0.011127273783874694 0.03392749522068565 0.09486806111877948 -0.04813374039331779 -0.07279961264945159 0.12985423932403625 0.00631087129799597 -0.014894610751194347 -0.02620038512855279 0.039157420759450834 0.0012656597446335863 0.1009764659410326 -0.01752245677481034 0.06965596659805406 -0.06285809240108563 0.027681245174016357 0.04135372034250178 -0.011929607399440052 -0.07942644268050118 0.009612614742464994 -0.05324106146922663 0.07821841776880467 0.020931588598664293 0.10141143259940456 0.03482550414263903 -0.02456167910667909 -0.017390858590678265 0.062364716048655844 -0.011296670681670146 0.020689368061332085 -0.023691604754294746 0.029610311919720522 0.055671391158801264 -0.10757659481689352 -0.019706561301624494 -0.02325377600466495 -0.0437834031627922 0.007724845678453552 0.004446376068345041 0.018441637424359603 0.0970424660282916 -0.02639189826110544 -0.010546491160504224 0.0822637797589718 -0.06833811774568321 -0.0044336803043881 0.11130066040927283 0.02785050491587047 -0.04947805891160596 -0.07875586481944857 0.09828477623948594 0.07577991960926922 -0.04351056437846075 -0.1176375106640343 -0.09218423726797344 0.05438277107605662 0.009786820789569136 0.06217805392834849 -0.08282118274109151 -0.0012058438342061094 -0.04680914622770625 -0.024407258562192634 0.002140546371554923 -0.0823859634744908 0.03213205964295398 -0.013084190701916732 -0.029406211785741373 0.1364173034724671 0.02667964763705366 -0.03256337674415267 0.07829109116951594 -0.046714395888717196 -0.07225934212782936 -0.12440281577075221 0.06570614890213497 0.05637157908457858 -0.07860336847515566 -0.015200621674417998 0.03129686915792406 0.03756865985186981 -0.10240092090374081 -0.026826112957446052 0.01111324867213509 -0.019951252988469424 0.024287489392097336 0.01911524745208702 0.044189459305614305 -0.08150245323858836 -0.07481719252939398 0.008975282974538456 0.03754725457882655 0.01621864801902836 0.18382246830162313 0.03681186240734229 0.08519997590337378 0.022804438970017986 0.03734041758068256 -0.045333278686669004 -0.01662300497503857 -0.1585063637967306 -0.049483972803069834 0.03233891539494769 -0.08682763062937339 -0.06604626577014396 -0.002623869272911778 0.10269137182897069 -0.025834074186019983 0.020623480947821453 -0.10806859786846444 -0.105222235775822 0.01612474564570451 -0.02428211424671385 0.011329205130393167 -0.006337621249457731 -0.058439685306271416 -0.03137283458677945 -0.013112755583345608 0.04537352983127787 0.02939105862383509 -0.04572638170330012 0.015579049653852437 0.06835020924603355 0.056314493707411054 0.021189306573477167 0.03833074689094188 -0.05185307612825562 -0.08874624030190896 0.11824898119652946 -0.005336316139156502 -0.05417021232000996 -0.028995605638684516 0.02466607605768377 -0.01132245082558561 -0.003818786561428885 -0.05721123307590647 0.0392561663768685 -0.019715852200588406 -0.018128488815964527 0.004590134020868661 -0.12161177311958657 0.03115591180796157 0.002210817390992267 0.012911306036698806 0.08218512446531102 -0.011621351049639872 0.0021748440901028002 -0.11843259780786432 -0.02674494461882911 -0.08867059558214571 0.04421878386841158 -0.008849570854487702 0.0026880875766982846 -0.10502438182821362 -0.016738699581467183 0.02546573772514117 -0.0015102030741178944 -0.06458704763431057 -0.04357862141995928 0.03398954486466281 0.05345717463539944 0.02371302627922652 0.008637785081741062 0.0448386309123982 0.0152244353850205 -0.028027004730133788 -0.018193271121805833 0.09215828184142513 -0.03184151698324688 0.09232975099008663 0.047123877689139865 -0.11239220607394448 0.04791194444771133 0.01283155447311376 0.0001310232635126838 0.0104748603600502 -0.0011604818153683233 -0.07872700941316428 -0.05150725650019373 0.003948425771593867 0.08589347624793923 0.054106594750738306 -0.03175119853236711
aquarius (constellation).conllu -0.07377321343768879 -0.010668909616217057 -0.0360442880374862 0.11695699445001294 -0.05360659395482389 0.04266328509352441 0.026039214515400814 -0.05129342556725786 0.0007479593346994761 0.06104512881131575 0.08118922827730293 0.055819140894292164 -0.002719439764952413 -0.01865485906952425 0.049957790134788314 -0.06756881438021164 0.016269385099629496 0.009572933972070142 -0.00015795398904429913 0.1285995062695094 -0.05663305184669375 0.04575120179691542 -0.0947397143552906 -0.10309098003492073 -0.09083906851231488 -0.07010298942910355 0.010142623664321471 -0.015587829675774397 -0.014133976901276083 0.01605295147871734 -0.04023458858796111 0.14967735432086068 -0.06857893120334731 0.084980662020763 0.01553085739502497 -0.031418166729819806 0.05064561404006408 -0.024188915031531744 -0.040520275425039234 -0.006055603660193393 0.042348065743257154 -0.03979424048002334 -0.01471340982419461 0.02559625103773687 0.043421051831089186 -0.009130351431813859 0.0045891105349276234 0.057674321137772176 0.06938790801404887 0.015486179471670612 -0.022337057762869827 -0.0426034321791077 -0.049027885449925764 -0.040620488996931665 -0.036727744790048894 0.059569902216862904 0.028354257641884855 0.06017214461670435 -0.013276743230508273 0.0564808596746579 0.007251779091628404 -0.028770551913123152 0.04490980581012536 -0.04622823680053845 0.02599738692710542 -0.06120451030901483 -0.06861022311484985 0.02120469676697426 0.03419545192651434 0.018832891142305977 -0.01245570773579636 0.0621746137212628 0.05170720855936162 -0.06735185801443531 -0.00358255167201741 0.008378732081284725 0.04818931159412124 0.11512250857727976 -0.0027036666652449997 -0.0450429979704901 0.053200341833290324 0.03461306196887109 -0.08139380882993456 0.013253313843603093 -0.052807112408742266 -0.03206525871622305 -0.0022440956965060137 0.07626384650790993 0.012209331255837398 -0.04394102262481704 0.011260851859907838 0.006886792525265841 0.10696078370993724 -0.08585852777038071 0.08281516589706042 -0.055187126163522074 0.047818258807666304 0.0486481862654114 -0.0559544355669992 -0.013720388120871837 -0.013751854524990925 -0.0813736779823344 0.06156824680428985 -0.043890749911037495 -0.04994049391568908 -0.0008815180860177741 -0.07368414044322515 0.049943871187703444 -0.004077779282786486 0.0068818347209536074 0.02909887887591708 -0.007405097536401007 -0.033110300109672613 -0.0039607510046356185 0.0448259888077822 -0.06593222559113034 0.12618089741550528 0.050473472838793304 -0.003620896103884538 0.059510473451746045 0.10506407686617801 0.002535770089751123 -0.031684788452178377 0.11805927287267332 0.0507313085666934 -0.01601034768275121 0.01610768878895424 0.07959578304701401 0.021490486907044037 0.07624404375430738 -0.008816163675068486 0.061907206029094684 -0.012466546430431304 0.07964056158763169 0.06878176605143613 -0.038902276802751976 -0.019911603291662753 -0.00638692179870506 -0.004159756904589654 0.11649759089917645 -0.01167516424951692 0.07099533139846531 0.11264330881720865 0.022127014253886912 -0.0003965305308245688 0.08506850278993967 -0.03172271923320492 -0.01188777398590892 -0.005525455409399968 0.04433163818312434 0.08259006772098591 -0.12216588587756523 -0.06088519918009017 -0.02544779182000568 -0.06193269970629642 -0.052791140315468 -0.001080443716157265 -0.0296113506798227 0.08735409001553338 0.006496711155799957 -0.008472356273296896 0.10760262063876876 -0.0958070467349132 0.019558388299831538 0.09850753803610995 0.014940185823891821 -0.02002538484442673 -0.04758252230185988 0.06766176680898314 0.011086138628204038 -0.08181941648151267 -0.061276514292773344 -0.10281408099526679 -0.01444454240687737 0.01964990367189811 0.12614634611449618 0.00024263708912685816 0.008224170740400086 0.006772083823853284 -0.025744259805806972 -0.022602146080626353 -0.01258918726875904 0.04472822970027221 -0.03645198919504813 -0.037862121849277286 0.07434534801771378 0.026000797507368716 -0.03267435296769383 0.1438725088794669 -0.0256698355588903 0.05979062759418352 -0.17635082723956996 0.09590851863260198 0.009675133779627618 -0.08564097938417398 -0.038894697877155986 0.005370689342250004 0.10619200685159753 -0.10954923041341577 -0.06575911097412282 0.013558002228513884 -0.05169183039762238 0.004654717878689434 0.0739621132550933 0.011094600314971455 -0.13128690015636718 -0.03980134981271643 -0.010699124651370696 0.07930364091598163 0.037938896041301906 0.1962056538978909 0.01857370709944284 0.008785145928622768 -0.005638573387646833 0.007017242721433105 -0.07232419812464791 -0.011572595571727825 -0.1329985945946099 -0.07724683055303795 -0.013769733108847292 -0.06087808192811526 -0.03634110980509949 -0.08053312886510598 0.09333250703405183 -0.007613188495448799 0.02777787764902806 -0.07971014084491475 -0.09403914684124914 0.03471780777437127 -0.014389174281151192 0.04630217508180187 0.0451159568450944 -0.04790034446564838 -0.007588737996484287 0.03323359350932432 -0.011613185754267142 0.01868925285393476 -0.06129848369821674 -0.04928521309626937 0.0182796119977974 0.023906348805305223 -0.021002804518349395 -0.0076367658645296824 -0.023711929623754232 -0.09275531731169369 0.03887088891635388 -0.010077675674507512 -0.0004301996302400619 -0.0263003723067747 -0.014061827718567736 0.04048545631420609 -0.015365453744559433 -0.09168019381760528 0.01913308557385636 0.004000404391564278 0.03862058367653826 0.0003127292659864913 -0.10261542243405038 0.013921845560686796 0.02116733439358526 0.03699553583808321 0.09178901539660958 0.051170007346566064 -0.046996321744788676 -0.1229104352470378 -0.10047407149425254 -0.049021647487505794 0.05964999716735767 -0.02025743204296624 -0.016504564336876647 -0.10672215518593046 0.01214909837937615 0.020745574044450356 -0.005365210936201385 -0.08279391089627833 -0.08836683321565829 0.05511588492792072 0.07688128547933071 0.007591416900661554 -0.0013528961874073244 0.07148679974462206 -0.010999709658700516 0.010137500827861315 0.009405171479435408 0.04338418699605018 -0.03279485016708692 0.06184584095817126 0.062230259938783485 -0.05585816381704526 0.11124165139060498 -0.0011719460039346919 -0.02139667876546415 0.00012765205623072682 0.061310469037226714 0.01835610246753497 -0.061035981052524155 -0.02670905881886816 0.07669503112479824 0.07344568577250538 0.04369610031801501
arabic alphabet.conllu -0.042532039828060184 -0.0054443227783200895 -0.07699787534755345 0.08997812123600074 -0.024847947116034844 0.0315406743341108 -0.00673978639951218 -0.09242862707481517 0.015279707402426795 -0.0002513224846296458 0.03451788040949386 0.029663203638192012 -0.08902927949764242 0.012136354057210788 0.02493161666530209 -0.10394302969562898 0.0021160674991620968 0.04057851236036294 0.05416245695933218 0.11540189726197213 -0.02611457418517399 0.042010894158990696 -0.04085134682424575 -0.05406721026127617 -0.04261393089310737 -0.06009052444724542 0.05142137942772134 0.004036054469574786 -0.0378127632546285 0.035252565407880715 -0.07514349056520991 0.10422814216937572 -0.09708541776977582 0.065011137723403 0.0140514998810357 -0.04448917858514713 0.0035742770457571123 0.02851913450743861 0.012655036565350318 -0.010690851156690977 0.06954059453305488 -0.042136764507906085 0.03745603264259296 0.005360302013625181 0.008635210528557723 -0.005425117817768336 0.030974881119398667 -0.024830554735383314 0.018409789240898193 -0.032377020644592955 0.0171080244460738 -0.08741684750599922 0.004647156956429545 -0.0039126632888129695 -0.0829979008830933 -0.025404933533543908 0.025135950734536585 0.028986632962774792 -0.02406646862896788 0.10322683041383127 0.03533030237973441 0.037145649390501315 0.066843392498807 -0.009094386680322659 0.023326375319838475 -0.05704256318656904 -0.022386617066473304 0.02692726603603991 -0.04657209406259398 0.03293282022576729 -0.014814782131415457 0.018728890724535187 0.06730797429527256 -0.037963681307742095 -0.034950122653975346 0.05485459214407568 0.08671310880929142 0.0961188842205221 -0.006504601925550547 -0.005991950974722246 0.026777276937505173 0.03684646621681118 -0.09530551509347805 0.01239374977245632 -0.0250544482836657 -0.011552525385998113 -7.275560965789676e-05 0.09033648469320361 -0.026157522433642968 0.004114915984335527 0.018095154533833754 -0.0338945901771576 0.1603998897078016 -0.12040974435036456 0.0631722725733015 -0.039741751085481246 0.015109132564485064 0.04769334590038415 -0.04134577409205494 -0.010634330783872284 0.037254055024540655 -0.1212441398342551 0.11055358916796881 -0.019943061984615883 0.0048610746406744345 -0.033668201854732745 -0.048866254934900655 0.033793819566185664 -0.008719916157111483 0.031021305307505475 0.012308828936384134 0.024409971152258566 -0.07448522986713561 -0.025326598618518235 0.01634767951718841 -0.05458140510727519 0.09846607156454808 0.08264298376730896 0.018043892516792916 0.06928532946094121 0.07777873592343042 0.05306950047499213 -0.06779242955537684 0.1654331315225266 0.011310385123625644 -0.009130188940179826 0.032952748893426115 0.045503352427459204 0.035639948659647765 0.1280311940150697 0.026105784725424627 -0.005994607931164841 -0.00538420107933802 0.016044901987784528 0.050148794364970335 0.03972409009082891 -0.036718298022300935 -0.021374135784147603 -0.007414144260868989 0.06400415863627536 0.020473317619477713 0.026143820878574878 0.09015892513718557 0.029354565153950633 0.03812492275977441 0.09777908115825408 -0.03669128701590658 -0.030554395151578213 -0.08294027956511547 0.01508702003507856 0.06390034007930327 -0.09446402486168454 -0.04538533409652268 -0.03687067510440627 -0.06809571101715896 -0.015306332107604483 0.0008135885501198569 0.026839085660117674 0.0757455298264439 0.003474672739282545 -0.02059182266019841 0.14524509941414598 -0.0818055888864902 -0.03186203836902757 0.09222794734536588 -0.01834537036910662 -0.04941720118296942 -0.11037793573036742 0.11371657355588385 0.022276285929710742 -0.09148068700839383 -0.08723567270353903 -0.1329724217587003 0.003864753195387464 -0.045771950602860045 0.0946476873218718 0.0013549501428099708 0.05952044537775515 -0.0027444069161624827 -0.03814034229045583 -0.001271760371517789 -0.0401036547674709 0.04299051827395765 0.03722636668851878 -0.01186455345544775 0.15409657021973613 0.0008846382362362961 -0.08007735658173283 0.07130008673728763 0.02243564538714912 0.05016277838071613 -0.13493199639860592 0.06426817350853459 0.024502076025627147 -0.07900856947098528 0.006169552773941599 -0.0004031121514034192 0.01539660820472244 -0.13833432656125405 -0.056808303830232436 0.05008914383501447 -0.03954281691649507 0.02739055519504655 0.014246663134129395 0.0295230992178923 -0.09634147730068054 -0.09048222158145929 0.030205202858615186 0.10000281994389508 0.0385752494269787 0.18386871923685646 0.06913119175711797 0.053310204994453124 -0.010685452583996821 0.017190013116913375 -0.03598926711471278 -0.022505043806840853 -0.08805735705577068 -0.09315819809106136 0.0025268127900803764 -0.0052500619760146115 -0.06921729566265386 -0.09600413004784153 0.06056298000657992 -0.024092175847347214 0.056991485234118046 -0.066954324337345 -0.07072984573557448 -0.005315035609126241 -0.015699869825170316 0.04181377279650182 0.001998315263257492 -0.05326105573082893 -0.058859844075911105 -0.01866871557422304 0.037287598741120975 0.03767461863957074 -0.036672342737317655 0.006652135011247318 0.04606943500820749 -0.022310733568529688 0.01009694751197214 0.08990789543689363 -0.02894034875915741 -0.0504141643808928 0.1233111334153406 0.03652564871922446 0.04635727408598081 -0.03979712964277446 -0.010315117234441394 0.047056692742478805 -0.00033120925582003264 -0.07168144138365358 -0.03636685954644774 -0.021472005457123647 0.034908238171091385 0.02747242454236354 -0.060868500669914914 0.03921987368627707 -0.044251223107097774 0.022826131122917377 0.03649121302135356 0.045594606519604536 -0.0005839123844275837 -0.11371008820798814 -0.0780334949745706 -0.04073543763069105 -0.004378450613391662 -0.029688761920029692 -0.03414638640085977 -0.15230063524471885 -0.021488166902952556 0.057570787020312236 -0.010431919885680343 -0.06301696269714559 -0.05893843189142572 0.04014205374802647 0.08363734666764172 0.01264992921388873 -0.03445022765933273 0.06776167618630048 0.013220290571743785 0.01271986900714493 -0.01805814816090288 0.04841951297186473 -0.07383760911182846 0.03812496974138647 0.09902593255472998 -0.08564336124702888 0.026580099837469923 -0.061238828205492375 -0.027935528061157386 0.038566907354854345 0.002025565532549678 -0.018158515604153477 -0.08528910439139603 -0.0424582090632833 0.018718094341629524 0.06290974931022572 0.062015526110220015
arctic fox.conllu -0.07205259514321319 -0.01986878676705958 -0.07831540084738702 0.10410670783618792 -0.03375352005953636 0.037237614628504376 0.040922036891223534 -0.07577787522294539 0.024559210752966312 0.08600307286854239 0.03270349929497198 0.06433072642856028 0.0077016850572478425 -0.04001575193307964 0.04191988439391366 -0.054647517950939986 -0.05962024877420283 -3.101428995540614e-05 0.04605363689746337 0.07367141074307071 -0.03526766929464398 0.025451941474756653 -0.08303877014086546 -0.07218434308313595 -0.09176242529226934 -0.0390556734521376 0.024584007461985063 0.0065239921364394 0.007403897319307251 0.05325409578433026 -0.01525102704976182 0.11817334645184056 -0.12288136212336948 0.08513942965442305 0.049482922967259486 -0.03516413149286819 0.050087182734415564 -0.003883820044001724 0.027175352932040847 -0.06320087137333581 0.03726809173528912 -0.013913363640082096 -0.0024367742125348704 0.05544243960007435 0.03448304067122984 0.022325580746695176 0.03270876031658151 -0.0018884917886023392 0.09741854396446888 -0.013978115207691435 0.001509686849766677 -0.062195902827331784 -0.0028535758939365677 -0.03812108125312599 -0.03524016480686644 0.03324991734496447 0.01870631235207506 0.05004789082664012 -0.026051316086701335 0.1419491897108332 -0.06105134000822416 -0.05563115031886783 0.106194805806226 -0.04675708152388991 -0.007502638128293924 -0.05540391459188935 -0.07832768360005278 0.051084739812572784 -0.04038338274626622 0.00962690112784314 -0.01965403999504762 -0.0021755214769086633 0.047494424887133575 -0.08150332443605046 -0.036652287137922235 0.04744472228242719 0.14323963911140908 0.10515123432326058 -0.03993979968959478 -0.052952617473994136 0.0395490448403452 0.007439947769553571 -0.02387869858692763 -0.012724130797388348 -0.041168442598582856 -0.002825573689481493 -0.016306605209508128 0.08827919825774277 0.04358835890760496 0.006434744636297158 -0.0030454445856584714 -0.05317971299101125 0.11556551326885851 -0.08054623438703575 0.071215452638065 0.003918715888613247 0.06235691602269714 0.0654865944563524 -0.044591189773518676 0.027208102471550456 0.010944764732689438 -0.06609626287613804 0.06827887971373475 -0.08447732290503158 -0.033147152908927585 -0.01366657740621682 -0.053728255159087204 0.0710065549835348 -0.009715850020757257 0.005028030517353985 -0.019004926049853068 0.006973105100908883 -0.07159808940433608 -0.0533133074867701 0.031784649180346514 -0.044128725760404976 0.07089020012819985 0.05132367730697222 -0.015099939394288307 0.0329477182517486 0.10981961509393194 0.0212126992704079 -0.0680305798564616 0.07843549809945109 0.03336271782344143 0.029233339300228752 0.007091807240780637 0.0528762872948316 0.019945313811007243 0.1111507277311094 -0.037858027495428014 0.05347198555497912 -0.0373653704304344 0.06404602434611659 0.03059384127267627 -0.005240679283346498 -0.018000864074171577 0.003185530985786641 -0.10203332217949587 0.124866134767955 0.03236741332854886 0.10298795552618836 0.08930826866464406 0.03315399751813072 -0.009922857514770778 0.13555599149729236 -0.011679050372625902 -0.03358085081076789 0.00867333344472809 0.04488877732608719 0.08604606925222182 -0.1306885641459874 -0.0695317588232658 -0.03815023478639533 -0.03726111360299994 -0.035046284383758626 -0.01934616990046618 -0.0007754006913515602 0.09322903148444923 -0.024455654065628777 0.042342033698207465 0.12852420381547686 -0.0950423420998245 0.020419179348385767 0.09536507996595874 0.015314938326092216 -0.04073720292243426 -0.07004892530799689 0.11159800752629731 0.05466646426936941 -0.06462414757818283 -0.09718038657934003 -0.11158672386222322 0.020118341902320976 0.00894820036928145 0.10766193163312263 -0.0493075568603065 0.032979465241885615 -0.002822324120649931 -0.03321526554867433 0.0009208516427875903 -0.013983838772403343 0.0486010537425898 -0.011248539133856837 -0.02270757101304203 0.032916063467947385 -0.020665604054845056 -0.01772891173909993 0.08498875934920125 -0.028376332928247792 -0.033372989373084735 -0.14503606579417583 0.05611198575235395 0.07100631767614114 -0.05470992287892837 -0.008166711107365414 0.015664160421509116 0.046851926260019806 -0.08803281137710772 -0.030751681645019353 0.024098558418783576 0.007245243126891243 0.0011638642033314913 0.05376441734837688 0.03170216354510304 -0.15688999275828136 -0.038025413509357765 -0.01744205043838463 0.06370373094732766 0.034329201505116494 0.17286628562793732 -0.012086837956401364 0.0747149286358323 -0.016896097510982762 0.015819049579584646 -0.06323815116053803 -0.017854296752232948 -0.15068534884245277 -0.05618829868817996 -0.0309022465531536 -0.034336126796347906 -0.03110056941693959 -0.03335378625127028 0.09210363102864053 -0.003621898469886303 -0.01775276711915694 -0.05262357506679076 -0.0891021190551721 -0.005179022595392072 0.02670128046324319 0.007043676016322386 0.013649120672923058 -0.06493763593324317 0.010969436746870374 -0.0007274277672127067 0.037249158782473805 0.01294664498315781 -0.0427220165208518 0.0143820614041855 0.007812998025877975 -0.007078637895449175 0.030312927719059576 0.037476036523043 -0.023271342036386027 -0.022656568640377236 0.08628609429474218 0.037162317644004586 -0.03982324517587747 -0.06070801632528284 0.04170892316899157 0.028956370572037714 -0.07801074704446545 -0.045136721654999115 0.038191426050628016 0.005829825083093703 0.04836486079855839 -0.006174890453511194 -0.08344113599808305 0.025808569008557655 0.0388369649791494 0.03276184634428951 0.11378812326785252 0.005536737296454528 -0.06424136255193486 -0.12899146747482526 -0.03725186761957528 -0.012906946066926238 0.032428219569932415 -0.0243648535712056 0.0025641185234593807 -0.08771035912147257 0.002488063431971379 0.05235943060072187 0.0026598967207863864 -0.055055875881868915 -0.06653537625844434 0.03680107043952421 0.053832288358015214 0.012282870261385718 0.008131530046002188 0.07205096815090857 0.019414002558572035 -0.013132297500088598 0.018536740087389696 0.09522270967441257 -0.021558944576085825 0.059545057800336615 0.06794592276072271 -0.11728472465701092 0.0675061535433062 0.007447698062878684 -0.050129775262083745 0.05397143054370892 0.025189108120575843 -0.024201772789240596 -0.051453971851634285 -0.009204473682583935 0.1301104831940242 0.05714311326295691 0.020412538904018132
artery.conllu 0.023772947285087907 -0.011321653094584837 -0.08663002704260053 0.12040867268544793 -0.07527266301747013 -0.0014817432868019925 0.06513733309139082 -0.10616114763523375 -0.02195123626392241 0.030103647025593816 0.019293527985333694 0.07199685932308483 -0.05995969898923096 0.0124152463622379 0.02585828738966591 -0.08725571702773018 -0.019734061613765404 0.012281018872135696 0.04593658920937351 0.1377964524297395 -0.003113585722482966 -0.0001058666689166148 -0.03961212419729256 -0.09435921085222618 -0.07782821649124892 -0.012581498128161643 -0.036548016404523306 -0.009417885689941783 -0.014065643069846506 0.04235595800375521 -0.05697621664331427 0.12310720328853851 -0.07215400524938136 0.07362753128352305 -0.012375152005733737 -0.02873607799025563 0.02807413280521882 -0.010352945289362364 0.017354271291853796 -0.02262318851003301 0.07585116337212601 -0.014617971182733676 0.009680590981357791 0.009925765486386833 0.01224730813268177 0.04161476321455694 0.005646257617681468 -0.04022239957606946 0.07628059939754951 -0.023829595028348787 -0.029920879651465507 -0.05144521947646517 -0.05403709525809923 -0.07582046529422688 -0.013353363887710124 -0.020446809616967574 0.02151086146813301 0.0017846974352972395 -0.013611755318210133 0.04199432628048734 -0.05314171860799388 -0.041762450680902084 0.0890306886076965 -0.008288949739406406 -0.0016280926971990837 -0.07245435938820083 -0.09581422710210541 0.03081544625423547 0.020502569634164133 -0.026431713377540248 -0.04633738820400607 -0.023070518792547467 0.07112337666147772 -0.03564020226308549 0.017505626158102087 0.04112978596028182 0.11098874921480209 0.11193480585452657 0.011900283356934887 -0.07468906049261498 0.019968010298446727 -0.006657978207946777 -0.0947391435898258 -0.05628717304715976 -0.09736916200273918 -0.015425426153649505 0.04964511341958882 0.04770288741458921 -0.04557788260235953 -0.08747343416249762 0.0045183379352042 -0.00514324608059477 0.11816309627963534 -0.09369370355312631 0.025831632215331517 -0.03511443737654278 0.06858368067058253 0.05565907795035587 -0.03149395052906857 0.052166346664020764 0.007801054415155379 -0.07359453926228984 0.07443004423310393 -0.04612888138995529 0.031841402842578866 0.00697958397207353 -0.07536356266022695 0.06195180646212259 0.021847908874284228 -0.006191796628850519 -0.012979336363642418 0.053352665628682426 -0.03976576891009319 -0.001341292450666826 0.027498448560413887 -0.031568941330622755 0.03552008747798111 0.06381143668550215 -0.028209005492819652 0.029958288000210703 0.09852125222506276 -0.012224997352135338 -0.08255036332974316 0.1327286817861658 0.014329013577035237 0.03927275788149237 -0.03165328482680905 0.04829084180079663 0.013952408744186337 0.09192089795163921 -0.011601159480193869 0.04102221758483726 -0.06263487685155344 0.010118922880313876 0.02936405666462124 0.017153676008292748 -0.08494539871064732 0.021261084921573328 -0.068942026471633 0.1135400229150894 0.010940243030598536 0.06709703398987252 0.06742517335961669 -0.003600716251843368 -0.033459633514418746 0.04719533345297601 0.013365603101852832 0.03376669297966214 -0.04336877486204562 0.04735708231913717 0.054957614332576746 -0.08838685604133716 -0.03916626973225812 -0.03353593658526017 -0.03705115154204503 -0.024730916680892102 0.017223277800468968 0.015162454333752535 0.0737827355952956 -0.015930760714095802 -0.010875892191797285 0.07670550172589853 -0.06865435656005366 0.0201572452712159 0.11559456473311436 0.017597123852344916 -0.06436691129793767 -0.07727056498701552 0.08435352304643122 0.08945532528752974 -0.09044659247103906 -0.11054677935556698 -0.08904727724521705 0.060996836904136834 -0.03037424381942496 0.08005902693676387 -0.06399403907553392 -0.032484216023367714 -0.038645787163843766 -0.04404492602233349 0.05176233664794874 -0.05635760005650363 0.025148213643501695 0.013292449800591242 0.007786373519708768 0.1529585432041465 -0.010864714419000243 -0.04183086998260151 0.10158569247082011 -0.057162973789784355 -0.0566695526768179 -0.1116526235939125 0.05252204774932024 0.054041704714528474 -0.06680304129235846 -0.03658049113880585 0.01621919497303885 0.061843422247863565 -0.10910293179853879 -0.052341487122381465 0.030082050352074743 -0.027747859639046777 0.0343163127597119 0.02408476941899913 0.024790489177419703 -0.10132492083418264 -0.05865152392446577 0.021860387251845394 0.058907114423971 -0.023543711906940726 0.1676463896550113 0.036573649273358086 0.09068248155985009 0.02142247496757423 0.03459443880777201 -0.04938172907570496 -0.01235437050166529 -0.197962702395902 -0.04977551523835383 0.005325349727166492 -0.06892300974282967 -0.039533137541151224 -0.021888103266472492 0.09215579973191235 -0.027037472582410377 0.011710256137884656 -0.10083774300131639 -0.12598801599369172 0.010503446069569105 -0.008819246640995525 0.00019699264986246798 -0.030183674186410756 -0.05713793895286586 -0.020753113466859114 -0.0019501478896634136 0.022004263148413934 0.025326667401961055 -0.017601320723897456 -0.00949956066149129 0.0602941862749055 0.0597830477619006 0.005519456979147781 0.006711609117804749 -0.05599406366517077 -0.07314657597117169 0.11487204720712657 0.01077923081583178 -0.05993823862541221 -0.03329098330196937 -0.0022192614804667538 -0.009686868598348147 -0.011989987185575101 -0.049009054339211267 0.06528432138763267 -0.029312062866667578 0.04205135098534693 -0.012137929132849126 -0.09261588266551551 0.029162097609237683 -0.010511269464615489 -0.005034841411695849 0.10169345128113245 0.007590026906999965 -0.0023870389956490027 -0.11233384359499989 -0.06650474633595295 -0.09622533134470682 0.04042568949034495 -0.001180870025623683 0.01335431688898056 -0.10647236922404482 -0.038440335272249763 0.046493235073369846 0.012473162065724607 -0.09304213785873554 -0.05133546235257497 0.03173305072725279 0.08439975121289649 0.00397981811984168 0.02135355399259291 0.048321545191586115 0.0014339661999902623 -0.029979665312024523 -0.03012688654780738 0.07946103748693006 -0.03645794004145633 0.06890302405133755 0.030770176240161665 -0.11121584592531876 0.07319222384764694 0.0021368505881271655 0.022705532803623498 0.012265641639337552 0.023627508662203228 -0.043338291290936214 -0.06458551824048611 -0.014925383924584422 0.11818988909681341 0.061429554223271385 -0.01687444549174228
axon.conllu 0.022462026621807345 -0.021719222210679855 -0.07798509176428942 0.0981074608180285 -0.0883636391708601 -0.023506684623849663 0.08916972206937762 -0.08854007859433902 -0.00961961764406124 0.021034311184573593 0.02566305311815061 0.0646891265332975 -0.031045365826985145 0.025542808860289094 0.05820901069371319 -0.058293532508964664 0.004674820850125808 -0.013260105899795732 0.019544784956973777 0.11957489662485775 0.02001339801938029 -0.01810966478222036 -0.05456229286512487 -0.087851932508524 -0.06995241969914452 -0.02511065515461249 -0.044913210154414594 -0.014471662341643935 0.001327891937707329 0.03338895488023766 -0.060526614941514637 0.09178270868926598 -0.051704936657861765 0.10713887151063065 -0.011139918336043891 0.005933457184107811 0.027378615896506538 0.03292074708359672 0.014775006994575863 -0.05124304384984025 0.053164758437815776 -0.054580692453407555 -0.0018298982685825526 0.0019168024720082918 0.0244313986157448 0.04777707304315129 0.021550474214457018 -0.03345212871724711 0.06933645159882698 -0.01218000365707321 -0.04129696058828286 -0.08679457205597377 -0.031841969937635 -0.04537967237058386 -0.02513397359312277 -0.031925375373376814 0.006598339704393978 0.00021792044699925337 -0.023568175582154564 0.043468450566763975 -0.05328846336830536 -0.04401473014080552 0.0877509351469441 -0.0034300277553514337 -0.016957085467507533 -0.050494496507007436 -0.06989676257756634 0.025594484296509918 -0.016104853251757048 -0.04387509844463246 -0.04400891553945984 -0.021617360696332247 0.09151190054924917 -0.013352144440300641 -0.012898330243284668 0.04872757017410228 0.08676574034739354 0.1127128710625422 -0.0006471284213468141 -0.04833823427764469 0.03505983013637834 -0.026851664499910742 -0.09645655915779847 -0.01664019432444062 -0.10397816449352812 -0.044677448265569644 0.07427247826200682 0.049785263401870464 -0.04739131002924407 -0.0712635346177902 0.0437790041777936 0.009632295788620368 0.12386413278044037 -0.06656312258486885 0.07950569295245528 -0.05433683265027122 0.08374152209891522 0.01758837604307847 -0.045470093593716995 0.03276816689555703 0.005473964490701459 -0.0522701687272263 0.08856621761695778 -0.08381404985696889 0.046504876613027074 0.027324327002187326 -0.10460279958063468 0.048403125628806824 0.02409738724575012 0.0036924129780063035 -0.02999783084953701 0.005037073412684176 -0.01571933880586939 -0.029527720991841287 0.0407844452959769 -0.01674076793566841 0.03971338535448259 0.06697006185066888 0.010567500996048081 0.0361170783924948 0.06842614714707157 0.0042612327681159565 -0.10889946961303312 0.15059116743015974 -0.009482239135075878 0.027944877249377737 -0.04343861170513114 0.05992214857311976 0.0382877959809678 0.0962328056806788 -0.008780025553741456 0.052264890410774145 -0.06806483651342264 0.007477135978348488 0.03951834057907346 0.012288068185356237 -0.06174022728167979 0.007644480591269467 -0.07932467569696228 0.12021754371885204 0.0453260025079364 0.06968048299265629 0.08545353054414621 -0.020506846820186775 -0.01720496653940769 0.08181941475513436 -0.017972627517658595 0.009891279066659982 -0.01686021537395745 0.06565051770282083 0.0610185527720426 -0.12216466335715141 -0.01276521966209502 -0.031916413231657045 -0.03862163459327256 -0.03989733291803359 0.03955957135508789 -0.011608146714990454 0.09158877386328998 -0.0103873083366797 -0.021387689824814236 0.07551013778518854 -0.10627004916933765 0.03844105903648947 0.10861140305673078 0.012251010105611523 -0.03688508011296051 -0.06980908352456464 0.05389431166149558 0.07990257290776336 -0.07037078511353673 -0.11188109390959297 -0.08196646594297016 0.03487900062298 0.01964440490442006 0.09284557674954835 -0.0600041327488766 -0.0014150763287649392 -0.039358907884583016 -0.06853784727833043 0.015310590351819139 -0.0815532350799849 0.015535900278611342 0.017329890123206865 0.011959894345405574 0.12406521100381382 0.020292910634249546 -0.06058172975692575 0.12164092203513087 -0.018845057391580034 -0.025044385585995563 -0.1059245089443247 0.05412739676439724 0.03087189796044821 -0.06330729099866732 -0.04088170317815041 0.027191281452285086 0.06964532210304497 -0.07423156425828939 -0.046205680015709634 0.023319107437420585 -0.027984910521721917 0.013970727968919494 0.026386812930037695 0.0358123389018469 -0.11334623118084484 -0.02341481612888729 0.04051716714396819 0.01878273133669195 0.012573907906059162 0.14725747024129282 0.030822190283067926 0.10486258273576633 0.027872037927160725 0.013465883919761844 -0.07956887558530558 0.009887975351605268 -0.22390914930317882 -0.05731355523675013 -0.028983343484297645 -0.058170410332787525 -0.01975974105429886 -0.025584955908705333 0.1342929610958884 -0.023350880749402392 0.005919243342142765 -0.06159396423246788 -0.12679659762085388 -0.03246646036540334 -0.02621519955726613 0.003297497505880748 -0.041949633892268696 -0.051680428842500466 -0.030778182921903745 -0.008324646462450413 0.01662582707082331 0.04020951944589013 -0.01005058358999678 -0.01877968658127195 0.06844873723392297 0.026941441879670333 0.030473568873053466 0.006404623564347311 -0.02499738524342068 -0.043390490401980536 0.11736431768884516 -0.00880652814924918 -0.005082752051360978 -0.009619336260940418 0.006508291187649255 -0.05648080578619357 -0.029253656310437918 -0.06637249684013023 0.027736675422886596 0.01343007898624622 0.019520672258166373 -0.015174650563469115 -0.0717615482042618 0.02279212007121233 -0.04022240623149696 0.00406615320943318 0.07225126995654221 0.0017141430042167136 0.005271249724010461 -0.1292362459626607 -0.06684969089843822 -0.057794671789632636 0.020362445990934463 0.026798893717908074 -0.008943700415655873 -0.103510324121915 -0.02568953797105481 0.015639425323233078 0.0023920010197451273 -0.10455740248055852 -0.07121841874226725 -0.03355959156297285 0.057578467325418305 0.0029558768709663213 0.046811209145801995 0.06004618053669475 0.024372471162851055 -0.040292075836094204 -0.05042121861465629 0.05609085458219915 -0.031954545579511856 0.07521223445856934 0.046283079828094424 -0.10798871379254556 0.06732523141127643 -0.019120630925717676 -0.025068374449324398 0.018341612430234022 -0.0016643889182553437 0.014519913027517704 -0.06519667766495359 -0.08308919412997938 0.11658373969107991 0.08370029792267471 -0.04266208698974299
benevento.conllu -0.04376810896791167 -0.03980742805712387 -0.04000874318722782 0.08288958120282792 -0.07097187496642807 0.05047767939035661 0.006983315568179056 -0.06632698285971837 0.0019991136436081068 0.10990937738132446 0.04884315808599727 0.026954132287403093 -0.03910951796077695 -0.02256865037978295 0.00852134181169839 -0.1057793692375877 -0.02480942826757417 0.019981841776695486 0.014008185083490964 0.13019891839211442 -0.07080798556641768 0.07477002611683879 -0.13108826414491204 -0.09921766674897387 -0.06698449597174945 -0.03125106079457292 0.011319409167493955 -0.047577510694810775 -0.0029034831120494558 0.031795360945696155 -0.04599934419209077 0.10833218851429129 -0.13080549227161103 0.09132845590267315 0.039653069679144295 -0.0684877578425415 0.053244859144216956 -0.07266085942132705 0.012375204073902224 -0.05154280536766129 0.0790754860715154 -0.01261453261295395 0.010281327494879125 -0.014980457400312631 0.03961321227928935 0.0038310201649147217 0.008193100017175702 -0.006172048949667141 0.025936881115876276 -0.011238230352607091 0.014035218154148255 -0.035143652461019366 -0.03041364997651215 0.019535781839622467 -0.07903468980392807 0.006310223184099445 0.010977315134040122 0.05112063937402287 -0.06453694404959001 0.11431490942613527 -0.0016608361759494217 -0.020948956513099005 0.08713006246070741 -0.026727634484197745 0.0004204300891464997 -0.075925474638501 -0.05698140872703903 0.05812476043705823 -0.0747524003639552 -0.012887685791045388 -0.00476786259718844 0.03613787714962542 0.07672592370513537 -0.04784648623654732 -0.027990631780038175 0.06419103976921099 0.11144548708297204 0.12370782458248762 -0.03934810611991612 -0.04974561650730292 0.017604179539108557 0.07341234441645493 -0.011007116536215675 -0.0003082601693211857 -0.04776580017312347 0.019567410662381934 -0.019434734104090943 0.07826874974223944 -0.010083722612154306 -0.034737627798223314 -0.021912575017597375 -0.09125535126662963 0.11869495052995688 -0.09105880386160761 0.06342118433565275 0.0006437474392704058 0.06672699042728278 0.039795701889073054 -0.042079766919033444 -0.03171372292393544 -0.010243945767363111 -0.05523385710486823 0.06657163745548272 -0.014580823130238106 -0.004349566378930675 -0.032986599055048596 -0.07570326809121494 0.0319632779614888 -0.0010687376070274168 0.0024984976567524833 -0.003738270610437534 0.011628452269725795 -0.0396437241783194 -0.01683034479599864 0.029744493858827256 -0.04098375963758362 0.07305676329288065 0.07318611025762584 -0.011954447436478775 0.04221099470318168 0.10191047323875312 0.06107195318648453 -0.01060051520505781 0.10595551431846066 -0.005369125042748625 0.0048176006156151335 0.055373884254753376 0.05756137945128708 0.06077360216005595 0.07998793354432589 -0.03548857674262811 0.023316681573587714 -0.024192035183128808 -0.013576604327553164 0.001776572765555022 0.026935924096193702 -0.02199978042959663 -0.025915753706775665 -0.018943205158463636 0.10623004806536326 -0.0012260839138596234 0.05237979518247047 0.04681528984301531 0.061007403374401956 0.03752421613202477 0.144867753755762 -0.02934784201488549 -0.027793277678123667 -0.0686438454626507 0.0553887300179569 0.05301284261510509 -0.12060329961439488 -0.012990200017540008 0.03677386843147907 -0.1019103426376344 -0.03320605345788584 -0.01301677463228591 -0.028874799809514788 0.12500588039402746 -0.017794686285782128 -0.02011037430164154 0.0938236970449031 -0.05724654315714433 0.02657123060375552 0.13606937473997052 -0.0012007855160056896 -0.0475246632122038 -0.004119055713220638 0.15353339857392378 0.006129816292489862 -0.10830750500086511 -0.07212972711105313 -0.0923062391204913 -0.02288831802032867 -0.04338171879140881 0.0758677128409034 -0.019339389058747415 0.07085813941181707 -0.003934185698741563 -0.02970551980845502 0.038077937478194254 -0.05489137721916006 0.0341777180542709 0.009444518514345333 -0.013036316831879774 0.1306679795966319 -0.018530274134575506 -0.06871475851442847 0.10916326578386847 -0.03812557879572856 0.04635213557834407 -0.18805471388610948 0.04914085279441515 0.0751537348568839 -0.07926232183913284 -0.01828523404754003 -0.017793476728047583 0.023485594051741807 -0.07775738729755396 -0.01665560774562654 0.0440166331046449 -0.01360498850482942 0.03012338080432149 0.044823711392985466 0.012133311539474266 -0.0991786470814229 -0.048916796088171045 0.022937974850992207 0.09565346066050404 0.041735899345532707 0.20894681458740413 -0.03880196247525168 0.0511757514806407 -0.043592358543835044 0.03651760698902368 0.000906258567022852 -0.01921437481249546 -0.12520697776672493 -0.07489722817364663 -0.008091763110116855 0.028870593887775676 -0.05067862592607531 -0.1084160593616985 0.05568573706249612 0.02360005062064621 0.05750612064238338 -0.014268371108155877 -0.07283346928104317 0.01375235068592312 -0.030836245643299325 0.08961064498647013 0.0021734529913575943 -0.06580444802038364 0.03847006877270107 -0.002479947326995078 0.024439641513258056 0.047109399460163154 -0.0045701437219382345 -0.03502593184633553 -0.007894614711953171 -0.009981062997747847 -0.0575862245265931 0.010250437609338282 0.0014240835881343492 -0.05339747680635567 0.01179713539847646 0.003772192199806931 0.03679212056625602 -0.0071641045384335505 -0.03120555895718292 0.06806967249090184 0.02079120595606543 -0.014592261291517644 -0.038113153688639774 -0.021880913448154547 0.02884902973550224 -0.03932704491199285 -0.08271226289114786 0.05616193644545352 0.0013472900306547673 -0.016057281807936145 0.046096182129943854 0.06722868092112044 -0.021307233426573365 -0.10816432166038674 -0.015437339429883592 0.02210668044755953 0.00665128729921511 -0.017565704925005934 0.027074062851787612 -0.1003322115049683 -0.010716664584642132 0.029757568144348583 0.004021458964863875 -0.057424972987405544 -0.07876473167163642 0.08550097460416894 0.12602458936306515 0.014879207730123441 -0.002610352795122851 0.011217602220626122 0.04624134801170113 -0.005811115112155814 0.04817698142655694 0.05369389139674683 -0.009039378894538413 0.017663044385484786 0.047541757714562094 -0.011449400177632758 0.04775455133057465 0.0114637271237041 -0.04618351436617874 0.0009948860793394403 0.056804166677582986 -0.020198810957056026 -0.038475772155156025 -0.05862403756862631 0.09953850336408493 0.005741376368370743 0.05236256931366662
beryl.conllu -0.016929503596310746 -0.033976679780867755 -0.05679692250816892 0.0849700993147141 -0.05555383220691754 0.06559017655875363 0.0755279783900451 -0.11310495473282038 0.038050163236686224 0.08420258908302865 0.041852502705408925 0.052956768551017566 -0.03106362648897244 0.0053125189447424635 0.06459153828002799 -0.10827661465573077 -0.07952003906405637 0.02337359466297669 0.00619189614904119 0.1250954948612889 -0.07502973110550384 0.009938085510030671 -0.10197261800626214 -0.05294873401673486 -0.09065114983105571 -0.03327587667820389 0.0335157022131416 0.0003741920759065608 -0.007433828999633826 0.035799888465544695 -0.053009907819561476 0.11471437908662739 -0.07411023807090099 0.0802514981309421 0.029180532060566994 0.00010034432008672357 -0.0008571472030025061 -0.036150719494185336 0.054138901880463976 -0.03817035810060054 0.02956499821922748 -0.04154915109744893 -0.0170561266951879 0.01247579764215573 0.026767976549451414 -0.024502910722192923 0.025977008151450483 -0.01485894369888337 0.06199301766288766 -0.01683480736075427 -0.027659444738977315 -0.06095051201359972 0.020481310921651407 -0.0004715691006207253 -0.04049280546118071 0.03891693041131723 0.014108410560965103 0.052028757465944174 -0.01734631323909319 0.0760477815903104 0.009061954519578419 0.018078792675205412 0.08579204769875932 -0.04869736155189072 0.0012247889020060095 -0.038398080559378336 -0.08611169840905054 -1.184610491135671e-05 -0.03998715928827462 -0.011441596813311552 -0.03798598705528837 0.0029424291274066806 0.06701510226408429 -0.06240200683552362 -0.013835482501998276 0.044706544008176856 0.10458401866328931 0.08363111322878909 -0.029512072896354196 -0.04326056901776388 0.0071902856283742635 0.040450392643868786 -0.06804264328637397 -0.03296928541140644 -0.06850705656797841 -0.02346219746265351 0.03692618757232602 0.056685005044116187 -0.022220541960341626 -0.009715070383903474 0.001264286108299056 -0.0009934993805069603 0.08609473741621812 -0.10378513298117323 0.019453846265274112 -0.0014249427188786985 0.04654776676464748 0.10452169321914334 -0.06030942598841477 0.0012975134318249082 0.021350716159380917 -0.06651150693638688 0.058323444943817124 -0.006645875349857944 0.002782192141065683 -0.030371562073069704 -0.06499615968478198 0.058266898607165295 -0.00983529097235559 -0.007810466071183351 -0.029970109981923614 -0.015510285361539176 -0.0296231923634903 -0.007130351709591545 -0.010948484728133178 -0.024904259223923995 0.07738698962903935 0.034425999706651354 0.00040289657008394725 0.0546264709620531 0.12751885622404274 0.00128499984637259 -0.0899520167185199 0.10572258460249634 0.03766546543288949 0.0019599151255478282 0.05035184850975752 0.02561035277704308 0.05388280566452765 0.0880009990684063 -0.009334962031008233 0.06518235016189153 -0.03477713279575427 0.041428391519003405 0.02874859517299516 -0.04295170659839128 0.0028193749978550954 -0.01081418705013295 -0.059112879870623664 0.06481461342312404 0.023003082010789835 0.12122792677831264 0.07433837310497571 0.011514897722609163 0.014350472165891394 0.12836619021209286 -0.018038538618951896 -0.01781604727374949 -0.03167366894731449 0.01764066028244567 0.07817789646118356 -0.1455944624200477 -0.052198466276304985 -0.05250946171380889 -0.07338004543178783 -0.03326926144524393 0.02871107698282943 -0.030158431565846706 0.10794731244627782 0.0018285259237462552 0.0019839669708875854 0.09885546804905683 -0.10552729288613612 -0.007165738716474181 0.1359773534913218 0.011942323158764406 -0.025716536791528324 -0.04744350460128176 0.12831484124602072 0.05171060260382456 -0.06605354022622938 -0.09013730679320618 -0.09115676411548525 -0.03705899245735435 -0.013140846746597408 0.07482225453768408 -0.028813057763315348 0.039726603446086736 0.0004282261618496523 -0.0227868723857301 0.028775140361192664 -0.03570213371812755 0.052384820586247126 -0.014077410920887715 0.003674415773090084 0.08183172630506197 0.02937073880528371 -0.0027810889929310275 0.09046342991349313 -0.03835231701530076 -0.011560349259708667 -0.14825875465999025 0.059639586171233674 0.04385380288694039 -0.07482523346206227 -0.0011206452030496233 0.040413253044144996 0.06662587479965364 -0.10773055445391898 -0.03393834404288631 0.03520562387075138 -0.04159333703303148 0.009522223954822679 0.05364089930313959 0.050880149701616945 -0.12233759933579043 -0.052095153115013115 -0.005749187692114188 0.12420846095764491 0.04552599494320847 0.2021110130932421 0.016704463496440402 0.05452883692191811 -0.0330915945463352 -0.0074722193911739366 -0.06965670357568264 0.0025025840413325042 -0.12662697192849845 -0.06294130076467119 0.02202546244744707 -0.034220144325046345 -0.01018140109672918 -0.05727932681683623 0.10951679800419836 -0.01146071994804775 -0.002040628685837273 -0.09433741305754499 -0.06355695186132548 0.008553984503079662 -0.03407234147992143 0.0115511433428706 0.00691195150672498 -0.0591938243824926 -0.023150176001693994 -0.009250057145021572 -0.0008343798893912817 0.01267241853466187 -0.0494613815143672 -0.04393732537597635 0.021627448744750838 -0.013003916112883642 0.0052557853787380746 -0.008764000203164275 -0.03203883341992133 -0.040388240238424966 0.05494981005997316 -1.4000261675556853e-05 0.010467214029927533 -0.06595799389326605 -0.0015337591129361136 0.033260949005969626 -0.035412798960572776 -0.034571624455925765 -0.008513409909326097 0.032570513972220126 0.03799825426814236 -0.021998473873930273 -0.05344836686600545 0.0648410000126555 -0.006668113547779151 0.009444342612557577 0.10812867157582128 0.05362467252342182 -0.04179303206247219 -0.12822008002480972 -0.08916253172807877 -0.07599028153808379 0.09064345242325555 -0.05061948256987527 -0.03809585046936223 -0.1049650860364679 -0.04968812176217182 0.07444589036233093 -0.0062219711515033435 -0.07062903194527127 -0.06381539957113293 0.07909299579351292 0.09169053905258344 0.007378602555728856 0.03779303473392685 0.07777696044954381 0.0065238788384382315 -0.018775589903117448 0.04047006881352879 0.07737527929689221 -0.007170259817206016 0.05365600080779584 0.08763356016153265 -0.11793815122797358 0.05398228330376674 0.044583393091337305 -0.03633687965030045 0.03292854122209585 0.0696059600201771 -0.037276334825020595 -0.08062311283557068 -0.02637876985685915 0.09279293304142645 0.0610912135295537 0.024067372984746933
beryllium.conllu -0.01802762056543511 -0.001328575767657397 -0.06757411760188795 0.08332278088500882 -0.08873271703589396 0.016318053378364287 0.05793717453266909 -0.1547082903957267 0.013647366719011171 0.06224263837750017 0.0036474903845289115 0.07523972893721625 -0.039301462242798554 0.009641333728279543 0.05441982160009733 -0.09230157112356256 -0.018160593312226476 -0.0027171986360065015 -0.0001583622651946808 0.13581645336785012 -0.014715738163795367 -0.01980409371091474 -0.0675399826123202 -0.09336995790168556 -0.092784171829984 -0.012781450380597699 0.017191574109984287 0.021592256483933512 -0.02972016755100703 0.07820000615319439 -0.054892737452026594 0.12960461175671237 -0.07787914541161992 0.07799789304952096 -0.011110024287306366 -0.004954466597671354 0.016646373002878936 -0.017719097028992728 0.030935545741995578 -0.04960639337521151 0.04376368724333601 -0.021428563326834814 -3.1170175706460627e-05 -0.018608833668512872 0.027785488786083126 -0.018709357878902075 0.0231861685346961 0.01413480388768746 0.06518960331287264 -0.009850480590929423 -0.030365382047115936 -0.061496139806303224 -0.011526766716948222 -0.03299439373769792 -0.027842877394392593 0.011073602946086579 0.022054961720753864 0.034808199774004255 -0.039785653289619256 0.020341085685104295 -0.05043145110843183 -0.01109803579733479 0.05538629618890834 -0.03570697520657063 -0.00679357526535189 -0.08250258750353205 -0.06980723464687291 0.018500546965418467 -0.03370860081172854 -0.02155621018812009 -0.030839941596415035 0.017021598169835235 0.07339892551127844 -0.049859860509834174 -0.0038975908686971206 0.0416104297689697 0.07059658243446307 0.07321253282006035 -0.010519762241068873 -0.036739147796663436 0.06936726666563915 0.042700164920540025 -0.08733051005969929 -0.04746843702125662 -0.05362388876972527 -0.03293338488247455 0.04663531553015112 0.03735386565666942 -0.023342261622577087 -0.03969769206428087 0.012631988658882763 0.020040704480464792 0.12293667235275518 -0.11361536667592585 0.02657650830197403 0.018503414028746827 0.03879537670484849 0.06927722250038079 -0.05092628232040784 -0.0034422596728679996 0.02882393740815325 -0.08449048774958104 0.08339800152054756 -0.046945524553774785 0.014484900039353248 -0.026432266287231648 -0.09637482469022038 0.03262737318891622 0.0009934287990619921 0.016024991521661317 -0.06642786000427406 0.03100927345699285 -0.05639140808806885 -0.014258942715442379 0.011920576644798835 -0.016779207243511705 0.05058760653656867 0.04923311214714138 0.0053096520591247144 0.031035961913244568 0.11072357465862682 -0.021840491226875855 -0.11201820378860197 0.10878453016846056 0.015025409115334697 -0.025395159885015593 0.009970246111348027 0.05122090253113043 0.025553047996548763 0.09013416121548543 0.006327167893139558 0.04671963410511097 -0.05080331942309418 0.031999201452537825 0.03613410161681109 -0.027114403199722466 -0.01314033142187423 0.03396625265883394 -0.037550798902624506 0.08603079776228696 0.04318109553664794 0.10302465310933509 0.06969137510124392 -0.007542066216619216 -0.02547898250555663 0.06708904632295976 -0.008412602222198647 0.014977139496123148 -0.020738035873002297 0.022857227881124736 0.05784909553124726 -0.11106319119665098 -0.023388582581427238 -0.05928915239177612 -0.04829045973579845 -0.03510636697252957 0.0466865352958959 -0.013381949014581413 0.06664869318030978 -0.007410694981168036 -0.014479616619148232 0.07778384198832226 -0.09483025464716291 -0.027302865585990366 0.0975916838779155 0.04946429020973602 -0.02156086079092604 -0.05946310958132112 0.0978937618483196 0.03971762505990632 -0.11122525615597322 -0.09357025659858405 -0.059460844533394806 0.014310480268683045 -0.022526789174022562 0.091100457778257 -0.0675940521868463 -0.009689544803729704 -0.015478937420708246 -0.0500296284970127 0.022268168461756374 -0.018843883802636963 0.07125254523597926 -0.018590058172195046 -0.015916027368072086 0.1010413128750799 0.024046535064305683 -0.019249546015178677 0.07838000575739193 -0.029939765289165098 -0.060667807124358875 -0.13587911381343315 0.04048116101819434 0.006256367231418494 -0.08179771822053804 -0.033678190086315875 0.02716774487737382 0.07851921842344801 -0.08386479671529011 -0.0362744302834518 0.029162024124713734 -0.0363031880572041 0.026900825362307746 0.03294981014843413 0.005742215864361355 -0.11770463740529538 -0.07373742689273269 0.001551451387119616 0.08399360251849966 0.05626899660328132 0.22155474596098224 0.0016519860360821007 0.05873419861417499 0.04346137874912352 0.005507628968920045 -0.09750183520746639 0.0027948843247386323 -0.1635147381767456 -0.05891483192646777 0.021926527872803216 -0.036996731389378465 0.007482783739716973 -0.04053952755943789 0.10569716626552757 -0.02436757893271937 0.021599502998596965 -0.09568002932323649 -0.10833073079593877 -0.024734683134044585 -0.021721095238143615 0.011850156810374657 -0.025361578148314103 -0.07592815787178135 -0.03257384328587778 0.006464380763745097 0.010758304262426457 0.04966053414113681 -0.07904488067914026 -0.04262175414654837 0.06343969017425939 0.03190318733924392 0.008963267788523794 0.024620934298599916 -0.027499163448690356 -0.07970682334671078 0.07682134432596373 0.021026737934234336 -0.03805225703087819 -0.07063230044422539 -0.009582167090846399 -0.006638411879944795 -0.04584160157353608 -0.07414892917469247 0.02458002287797774 -0.0023550511226908344 0.03609313827591701 -0.01068572984425632 -0.06814205965487044 -0.003017216254331291 -0.0013396446359350627 -0.0037174549695404764 0.08043041604063336 0.02803548763120248 -0.020017606091904824 -0.13667026502423407 -0.08261197329271115 -0.07666437742568077 0.028722434172963746 -0.02516028585613397 0.007619136024736525 -0.10869000287918654 -0.030585820291320037 0.06226203824542507 0.0055120093686215855 -0.09075258778634096 -0.07563950420640628 0.04989812211674224 0.10828855594077405 -0.003513357176781852 0.017000982633103952 0.08371975517218988 0.03987906312032044 -0.015033058690383563 -0.04696206530928151 0.0682423042427973 -0.017439440171112146 0.0760255922861042 0.03645532955190348 -0.14358435776794992 0.09370320650117316 0.06483850951169862 -0.007681002453532241 0.03163627676001467 0.04185898020288315 -0.025200784240861137 -0.07300936746391738 -0.018449026169142985 0.11541708632060797 0.08154330688893377 0.026361924501207182
biome.conllu -0.07010636396961259 -0.010651962527870136 -0.02352199489490701 0.13483679944890542 -0.0608567385605445 0.041152389474787374 0.09039341128624764 -0.08963915813196303 0.030774778418671222 0.0734431423661981 0.028389789297084373 0.06970094385565637 0.003157760805866308 -0.024714306547044894 0.04869751194034405 -0.08821445569418411 -0.032528910890306434 -0.002737625978409234 0.042460614539995126 0.12167770983789816 -0.020036120763899233 0.025973155937205675 -0.050885829791392306 -0.02033448282568688 -0.08766507838130769 -0.05855529698028947 0.02411880323346688 -0.023354733972889098 0.029135657273360916 -0.007248526671423915 -0.014237336160574673 0.12792012185696539 -0.12254870104555352 0.1017059158647127 0.04146579376425398 -0.009658293461142603 0.06501896039291173 0.03271276023166034 -0.020316429323160003 -0.06469055669317239 0.06619878357653004 -0.002682954246153465 0.014362351244380974 0.0003258496865456208 0.06682753575259309 0.035497392792399295 0.03546362203604314 -0.001449541720066418 0.08516154907179412 -0.011278321545558793 -0.011449400675373419 -0.04933643936768024 0.01861097119056745 -0.09093189943861921 -0.0009087368247654306 0.06327251376558747 -0.022778997795047856 0.08192565141897672 0.008709904905290316 0.1428589555605587 -0.08906546298061788 -0.03723073776780996 0.07973189509082934 -0.06586843669237823 -0.04268252236431556 -0.06726446261834997 -0.11011539367193664 0.03322464589194385 -0.017025547001079003 0.011238699333269576 -0.050029185632478816 0.039711382370898725 0.07238541435708691 -0.05271233777529412 -0.0195911179498312 0.024498928655429558 0.1181129504769062 0.07707689179410478 -0.02866158975664964 -0.027655045570890446 -0.0044474976833210585 0.048484293044954246 -0.028667723363079194 -0.03471971347856365 -0.04484755439394578 -0.03628652227637192 0.04786389506767083 0.08904948453045783 0.024003399366878463 0.0060834311831177235 0.02531512182004728 -0.02176240233208453 0.11471120422966893 -0.0723753757759631 0.04178433735740433 -0.036548501780990506 0.07414457191543924 0.07304110410018046 -0.01740750652280973 -0.03228687759734452 0.0591356065576981 -0.08398447278915017 0.06333290760326944 -0.059801022379864704 -0.03278735916158369 -0.01761567914748188 -0.06977003346825895 0.05728943757300991 -0.042601888542691486 -0.052964190122963564 -0.009088528976537875 3.609091617580532e-05 -0.03210211046260108 -0.011907991082347455 0.00212255438603967 -0.028481276661279892 0.10050621571450964 0.07115843260751391 0.022272055595064327 0.031629342788190504 0.12029071389638123 0.0227953689884632 -0.0993247132160806 0.0589984023610025 0.03542277230676018 0.02384945782943722 -0.0065127697921283515 0.0689661935316534 -0.009386043333329272 0.06998187303336752 -0.016948828780004626 0.044491258036319925 -0.00032853679453494536 0.0008240011221978006 0.037336108443579284 -0.01142364967554515 -0.040920219985346014 0.02388450515474761 -0.06619606337707831 0.0686707278856908 0.04699430276435067 0.12071079234265335 0.04391734058799684 0.06368423875644899 -0.02837190760465973 0.09938306700483023 -0.013728251339520464 0.0035321888447496785 0.020977162279154436 0.014298608883211834 0.10392129031376555 -0.10394189982143107 -0.07302327998536617 -0.06838784538204867 -0.03487072147254982 -0.020819891520612237 -0.0007481062695433753 -0.030617976913022694 0.0789737236327442 -0.003486016698424898 0.02206998143744211 0.1089099108003991 -0.07688300411818147 0.003912938063971536 0.10519689841638476 -0.028214095306627076 -0.06809604597177717 -0.10001666785193736 0.10604830187283837 0.04132513445240631 -0.03926453138746286 -0.06408079113267556 -0.08708176335450855 0.00636842484577144 -0.007326560791232203 0.09327869490350238 -0.04196893815842101 0.011911401648850548 -0.019656552159748215 -0.0549737800527448 -0.009717256360129408 0.009485591811861586 0.0558553989164329 -0.00517796797402548 -0.0012156396364842127 0.0762373260217331 -0.0173932104863078 0.025926968233275918 0.06738585453762365 -0.0097061463066558 0.008618431711200898 -0.14426296820418222 0.06302948391732253 0.062120375395449685 -0.02683896326073467 0.02260228160993208 0.0023551976287026584 0.011018168382572352 -0.10763969146299501 -0.03099185397406416 0.009966181696116207 -0.019388468103908395 0.00827697137175779 0.04569639975298531 -0.015346919558980595 -0.18152300493343299 -0.01599636551918094 -0.005313054565003437 0.09248093788148541 0.05297619606955325 0.17523884768889023 0.009611518171599987 0.07307204101466036 0.035228777135244256 -0.021800638050003915 -0.058174835022037914 -0.023005872281843635 -0.15961437105919646 -0.036222886237486644 -0.05491182625359259 -0.023844652926868017 -0.006215521190990237 -0.033749142562852455 0.08264494359081645 0.02932494037951618 0.014513856680219886 -0.04282606124911056 -0.08036353548369655 -0.0164484607253726 -0.016806221899872083 -0.04596878214635465 -0.0006784953700545235 -0.10684879362496193 -0.0064075158005382025 0.008056696063904922 0.014031777765199625 0.013297307641553464 -0.04989483392813216 -0.00752073183221998 0.03615884273469381 -0.0022785038326941587 0.0033288921437330866 0.046950553700055436 -0.08883359839409061 0.0016158292498574774 0.044022190468961546 0.02415957700463358 -0.044045943003637796 -0.06852100357279606 0.003353698644166732 0.05011860837612726 -0.03056129735221266 -0.020669510610195767 0.03180894623828012 0.026298616546214397 0.018997850022570192 -0.051937092654390775 -0.09457758935998536 0.07835614195853279 0.03395125222512124 0.019343107818443568 0.07652920040093679 -0.006371161616217441 0.005753311112679719 -0.1169586501503751 -0.048734939348681665 -0.037968257723414466 0.011474038831781557 -0.030456405288056026 0.015253632350191861 -0.058701541029793775 0.0025858767022653236 0.08728266098770754 -0.03920510843458243 -0.05195463771063901 -0.055484003779253326 -0.03815699424427824 0.055210987263598105 -0.015727355940106668 0.01813719307436755 0.06889936937570519 0.05834837319169241 -0.06192056346652777 0.011577589849754164 0.0496093460248926 -0.040207820879983605 0.030421433717952005 0.03278161788103755 -0.10284393214689648 0.05310476288656526 -0.022622713873380086 -0.019791647887436422 0.08699808517615615 0.0573918555579026 -0.022435052640763876 -0.07658609715792991 -0.023082620345815784 0.17423559156406737 0.039294876375549445 0.0021627932023508337
