108 300
alcohol -0.033941453870937756 0.0084744019956046 -0.08030632078607138 0.04155787530299124 -0.0660254123133965 -0.013344216265583802 0.05278045759717394 -0.1451602512709649 0.011186292844602437 0.063887954654784 0.015613185636976591 -0.010752939063323495 0.008028276330186861 0.002993531316048418 0.01100042827880304 -0.0878204840110982 -0.02855533675009052 0.009363925522300231 0.00260543148537863 0.0938256969443919 -0.017521567647395434 0.009038020184599538 -0.09345057581734444 -0.07906191925635239 -0.08975033642583866 -0.007875485684250037 0.023314639196620877 -0.012097391143780225 -0.019571420618148812 0.0843135616994322 -0.09161530672434358 0.11453336406991893 -0.08665108756989662 0.11781198943040898 0.0033810937487171967 -0.05963214576976565 -0.02602638302612178 -0.00427089385934442 0.005337412175297045 -0.047423080197406216 0.048052859148941855 -0.006052833164351651 -0.03358991937671741 0.006372438479442084 0.04037494575892152 0.0024950096842126794 0.026369395042825476 -0.003751702337877848 0.020528705805304255 -0.04444513321709603 0.013393993886198259 -0.061130321819604684 0.00498864501257698 -0.04915056939283527 -0.06899017598209306 0.00683189390713429 0.03088202012175342 0.0494025235633798 -0.047743061065156724 0.03077730704228767 -0.04286889696718811 -0.0619259396260364 0.09435503481418452 -0.031150674152748706 -0.0019402796207548183 -0.08594090483198297 -0.08672342092825165 -0.011550271489599051 -0.03757708661260153 0.0133856999147449 -0.09333763121046246 0.0075567272197187285 0.07607367147287968 -0.08836150124620447 -0.047642407828232806 0.028846305773145293 0.08518809926286686 0.11276186217974912 0.002852643378209278 -0.008283042560673366 0.08143298229023312 0.019452750467372458 -0.050411389592143856 -0.02212380366165844 -0.03614251590970319 -0.049266690940867504 0.009421879244993457 0.05638335623036193 -0.025756568372964698 -0.06600041062337701 0.016430914991051513 -0.007298038839615721 0.08485682462182917 -0.12249698221054957 0.013860060571272015 0.009755614989257297 0.03265055819315612 0.08376069830078395 -0.009857014597252025 0.00037099810787710036 0.015849694863483792 -0.06785401746043893 0.08453215453456851 -0.038108083863225305 -0.022776542685516127 -0.047306226834639656 -0.07127442921458492 0.0591174048405282 0.008971277417961377 0.015373773155210112 -0.03741248021314205 0.00407690931029451 -0.06530419901781083 -0.022336182251062604 0.016444501905919923 -0.008440428786985891 0.0700540222183687 0.08051236013564066 -0.008532773072573364 0.0261058946064807 0.12009859686840343 0.02536834935918529 -0.10116028723339353 0.16461657239503155 0.014224496194920376 -0.04377193718755313 0.022241089474070566 0.07195229238972559 0.002870005279101683 0.1094105270507806 -0.019854385972384318 0.028623953681271897 -0.061234206849558465 0.05078809353047715 0.016421400787319577 0.009769789914676408 -0.0074444379271716545 0.03045886859441562 -0.03226336015052171 0.05559570765006878 0.036561119435541474 0.06950470788902688 0.06835575480783884 -0.017330137591234474 0.018046532024233786 0.12073192962981141 -0.0020863097756845814 -0.0006942982489288509 -0.0298297821103184 0.024990285093170635 0.05326870767849459 -0.10151279079109415 -0.033435918494612415 -0.06458052032546144 -0.053304662199193754 -0.0419809692975327 0.02663745097164379 -0.01154752831083113 0.10354014175457439 0.01584052250247358 -0.043954142759933784 0.06819027676094408 -0.09761338182652254 -0.0009822490478067964 0.09943360483271628 0.013820413452535945 -0.03413066445448933 -0.07706404987915326 0.09634846218032445 0.04160650617445404 -0.1287437195104349 -0.09079563975643071 -0.07818355553938687 0.010256829605293769 -0.05909746299769164 0.06413739795110628 -0.03715327832766888 0.06414249523415763 -0.015454399133776067 -0.06111442395148445 0.01475952867649105 -0.05263150719327237 0.03742085250940927 0.060567792008547984 -0.033337821383366543 0.12338075570151448 0.08787196946690205 -0.05884656539062038 0.07230641757284445 -0.027629859484607153 -0.06478310918658653 -0.12137608913995898 0.056623864542308854 0.03647716741969864 -0.0608038380019495 -0.02216140653005212 0.004651106555332293 0.04138277098556242 -0.11442430154602405 0.012492819890832124 0.02081120411326867 -0.024692029153589357 0.008352874256917782 0.03809571201229857 -0.015676493598034292 -0.10191580696760592 -0.09610501017666713 0.03943261796009519 0.09975482296653133 0.06509299768553424 0.19237755578217194 0.011902350497002778 0.020110559947107635 0.03797188067696884 0.025167904303928068 -0.054308777128269016 0.006885679906184025 -0.13886324210442705 -0.06699392584100358 0.004305373775390056 -0.024573618898921686 -0.009157808294302322 -0.030280360506137628 0.07831665223034674 -0.026719671294535258 0.028299196620491164 -0.0856441852831263 -0.11028210085345777 -0.018264991309962095 -0.01295126292133736 0.0619518547996318 0.008946192300789916 -0.0494244667258687 -0.0514885250335184 -0.014600620514922865 0.046059664568187976 0.023866994466392934 -0.07032205619001258 -0.006071353220698407 0.01965328359999822 0.03250682192951236 0.011069697591051801 0.057038042627881376 0.00812247424183859 -0.012252654800280822 0.09229944546145769 0.046802233868377466 -0.028865660328164656 -0.018080613181862364 -0.01018706319736714 0.02032471935856708 0.02206650751121488 -0.06629821269921271 0.006854663659253665 -0.02399928666788956 0.034697544752262804 -0.018077611424551512 -0.09887733583083497 0.014177343709615832 -0.025836261593473832 0.013418515066845218 0.09610552648170317 0.005558175445077223 -0.006735509685811141 -0.12059593695294114 -0.0760662054685676 -0.05417376648626293 0.042287138202731826 -0.010142059245679501 -0.03458373954245679 -0.11026496057424608 -0.05684515549980178 0.037194332114993026 0.015399122334247412 -0.07748405427292002 -0.06966075314662709 0.051799331055294856 0.08452135107491418 0.02434098119025709 0.007525905849076568 0.08444812954782568 0.050399294840382 -0.02235397768740702 -0.009538207197234244 0.06314962121057252 -0.042293282810653976 0.06805855757364254 0.07969491160677904 -0.10679065922115483 0.08045196370617051 0.05498485009353124 -0.0503786524864962 0.0262522337986084 -0.01441081359994441 -0.07155274552739362 -0.07880978706274372 -0.03474473543585577 0.09251707858943044 0.03806702120423821 0.013651630611547482
allergy -0.03186319979563937 0.0034166950976642248 -0.08317297356035613 0.08207153906571502 -0.06275237888743376 -0.005259057990502334 0.03144401887199284 -0.10676416712689522 0.01495990843007491 0.06347308495680261 0.0060420514992245294 0.021148703724111758 0.0051084699140746415 -0.0017838064103195806 0.020134942699534832 -0.07642381825092491 -0.011166103688109807 -0.010706731512671316 0.02111280711757031 0.09775971200783862 -0.005968150931179186 0.04880499540222508 -0.07077102993833458 -0.08212409359071013 -0.08336989540611116 -0.012729921457775335 0.013400841240457893 -0.0009991669180630242 0.008757195901485479 0.07405142023421032 -0.07231044295821552 0.1070841294195904 -0.11798626258841374 0.1329329430211719 -0.007014202062605642 -0.04701049788381374 -0.006292694457332169 -0.022179322854206474 0.009722261989005025 -0.05174266195649663 0.03020935667833244 -0.021504777058800533 -0.015575699362111157 0.0243239623291615 0.033626509429293454 0.005937605179670893 0.03456003771561979 -0.01568830385520472 0.03969260931558288 -0.0458429780642706 0.003821544398200365 -0.07518062575055079 -0.03499839848247924 -0.06004907388785902 -0.06454092154736207 0.00590013430743711 0.015442236858504437 0.013708952508397213 -0.06047737624248902 0.07322306900512757 -0.04375348872582138 -0.08832932944375341 0.11363380182078615 -0.049068722445935076 -0.006592925759722095 -0.08144969674233744 -0.095449986600098 0.016994268919915942 -0.04814030990319918 0.015186735250393997 -0.07268072949909656 0.0006379696201776402 0.06449753742589448 -0.09767528408044031 -0.04296165171924631 0.02637215392337703 0.12084702549275946 0.11725541074774588 -0.004174759538115269 -0.01743682751397539 0.06008347284177064 0.007859187986634472 -0.03574496152366321 -0.043377251891871735 -0.03415818831332765 -0.03622677296496599 -0.01838628783859163 0.05449885568152561 -0.03535520542852955 -0.09088388734192923 0.013351338655253467 -0.025221709230827866 0.1280818729906851 -0.13991039626364696 0.03458269459077855 -0.0032335557790917845 0.06054615849524699 0.05598662639035212 -0.028066194705218657 0.014502336913816362 0.0261659654437854 -0.04897555717402151 0.06006121706330335 -0.060838702944338977 -0.026505744116535137 -0.029233072847993233 -0.07100220935326544 0.04071498204604118 0.010529597097230437 0.030660859411931377 -0.024358570165639096 0.0011827632460512567 -0.05447465920549279 -0.014773222133652342 0.01241713456049719 -0.03536645621347768 0.07620836515969617 0.04336419554657511 0.002662017520986357 0.06700144165725586 0.11753649828517139 0.01594278559396423 -0.07740065257930608 0.1771372383970641 0.012934309349844629 -0.01926249195163282 0.03023221074759572 0.07032187685083471 0.021191085990441328 0.11016942787085236 -0.04176550134826345 0.06423636871431407 -0.06235398038338715 0.03668967868891766 0.024659160566844918 0.014474844134452668 -0.06425251608690125 0.03581763052425984 -0.03624167749894392 0.05607633797832317 0.01089779771558494 0.0888678321138732 0.06214088711196165 -0.02344308556314342 0.016913048303327443 0.11265408165738434 -0.003537426648090699 -0.008402248596802182 -0.015414906459343071 0.03208504144866309 0.03667412100245619 -0.09465024779351283 -0.02961425342468125 -0.037215166555892486 -0.060920080310395364 -0.02822842126294744 -0.006042238242932238 -0.0069432608139348715 0.11715189854797156 0.014885177172829564 -0.0495573130569515 0.08823411300151746 -0.1111512314936349 0.008222039763965803 0.10787362948851505 0.035879538495833994 -0.03265732061720785 -0.06671539604788 0.11145420840866929 0.04288289710067061 -0.0845448797998535 -0.0996393779792278 -0.09854535820217623 0.011032444035268249 -0.035334266815524026 0.07105245708944578 -0.043277964197552345 0.0435033586833321 -0.0490099292531267 -0.048687834440121466 0.00811978390225348 -0.059603231464205986 0.025416878848261697 0.04567501460957097 -0.032981978928417456 0.12097023402590262 0.03490863541598071 -0.045690001904772515 0.08269577639413024 -0.021553464618663854 -0.05468413334029954 -0.13284065836773806 0.06523194510203668 0.06590036655954314 -0.0482174352361257 -0.038932305010742914 0.008226369376616777 0.030571814969290137 -0.132656014396633 -0.00432416168044138 0.04097334026463674 -0.02084973942206952 0.003029096265075155 0.025259866037068392 0.01924227679452253 -0.08670933735296013 -0.08283228624321906 0.01605855345448254 0.07224051358602528 0.054001721411313895 0.19966337065500817 0.00843567288556425 0.0572491319748596 0.01051097583818228 0.025731063144177026 -0.04761472063341474 0.014798943551137355 -0.149937743208832 -0.045215569736413615 0.033134746271017104 -0.05651029944098397 -0.07100637603363762 -0.0482779260426489 0.07749555083412106 -0.037239524220475835 0.029438683243389552 -0.1002579990691858 -0.07703499930026936 -0.002232720391371028 0.012143066661339302 0.056171920619457284 0.02842540959310779 -0.057230705319481594 -0.007324617020258823 -0.035964601827976644 0.05702206162921539 0.02967292098422771 -0.04672368333763837 0.0076343784866700175 0.04302836284998132 0.034833525014783914 0.022775167158589817 0.0576063054385442 -0.01278712982777683 -0.017985353405199488 0.13888254977949516 0.036229892790128865 -0.041326490000512056 -0.014160604605821824 0.03643808190044518 0.011865284235971591 0.012178551832185785 -0.047760575569888344 0.02584211632573368 -0.02980129670694424 0.012083402005051645 -0.029737724954637647 -0.10296885634414552 0.027080663459359753 -0.011731280417709784 0.02281569277970574 0.07941418331351274 -0.01472949992590043 0.000840665897082115 -0.1030968362507713 -0.04393211179046714 -0.059652659467852864 0.05223001272001276 0.0007036358851269151 -0.04951170404284979 -0.11813301673928332 -0.0258452912846842 0.01607289020055196 0.010244967091192053 -0.07009336174721666 -0.0553457088103471 0.048929167964881795 0.08570964270000636 0.017473507937779926 0.006744688763336833 0.05347270708924039 0.016853268239149354 -0.012744858760314275 -0.02109986960054642 0.06805861027726737 -0.03604844392384867 0.0507166072166542 0.07744913502098445 -0.06903592044958926 0.06512166817283617 0.03482702254556639 -0.03789028523756016 0.029125244260700164 -0.0002854628756902499 -0.05001065435376665 -0.056013558770467306 -0.035840378870532 0.08448610387549961 0.039533152143352276 -0.01524046247927475
aluminium -0.044754725616188686 -0.0033994848761863873 -0.04959723005617618 0.08244761619910629 -0.062158303903882994 0.014066456237134239 0.04513528777684711 -0.1364298763182822 0.006311373282328361 0.09037818571174686 0.017818654319065708 0.010081599016164585 0.02716461249977343 -0.02168495694094385 0.019618373061808147 -0.07493753083309972 -0.031098676542525943 -0.007418390593006947 0.0040650644733086164 0.09647842871701458 -0.034033377420553554 0.022446436473754373 -0.08096360030573929 -0.0795419925224294 -0.09186769691909746 -0.010072267853852481 0.030369819169887024 0.00510156511508779 -0.008438598152994893 0.07551499754460152 -0.08352144843759592 0.1177750565121909 -0.08633423552530597 0.1091332194753647 -0.015242582942224001 -0.05087495263920502 -0.010720156026994797 -0.024990488931477622 0.026340831323422922 -0.06496043311918527 0.039326514358184066 -0.01372225881465534 -0.025530771206762757 0.0030263111372126374 0.03490592117495801 -0.011711355594492281 0.016815204923431273 0.00948609988786826 0.04598346436560912 -0.04353232723877245 -0.000548722217912138 -0.0647371038134439 -0.01797936999706877 -0.010117061177891852 -0.04787572888030778 0.01970091639773593 0.02344209534918149 0.06209012717311182 -0.05591205366513531 0.045253779214213266 -0.03657071676401321 -0.06871177011121904 0.09472926290679001 -0.03881920954240001 -0.005531396519968318 -0.08974568362519948 -0.08999331061757304 -0.017657080475765388 -0.05745817253461138 -0.0056294923823739795 -0.08848103541309386 -0.006461482244697712 0.048092028482323274 -0.08388825413630319 -0.03950798426115488 0.01565124817358768 0.08863100432483881 0.09686548502606608 0.002262162121775939 -0.02738188138894595 0.06961759961867092 0.029811588580104836 -0.05039929389544858 -0.020512156547345353 -0.03785770498841814 -0.043860047453522975 0.014344743391105176 0.04551142794103094 -0.0437617450786813 -0.07213149488622796 -0.0005634613315225303 -0.003992588670982742 0.1233047997197893 -0.12930415270400628 0.030963337153682678 0.02414508155292098 0.030827904293896286 0.0681757008579776 -0.022031371238331262 -0.01563055706860571 0.008235779628613724 -0.07530194505119862 0.07533636965782475 -0.048056786476168574 -0.03582588558198398 -0.04918187232168352 -0.07503766427482149 0.040469620201967725 -0.00030363058515402066 0.019677046515002777 -0.02751670251172645 0.008404714155946505 -0.060544059246044994 -0.030878225756296177 0.027144955818262567 -0.023050579412150482 0.08005227375007248 0.061954724500622976 0.0007215279868534831 0.053543646839489034 0.12185650950432972 0.03300276703878645 -0.10460756399703589 0.15510513228703957 0.019282122385678384 -0.022190619232789737 0.05120061627456525 0.060877841948930075 0.03130011595659971 0.1072613989423826 -0.015570505427350261 0.059215285302409604 -0.048135785433862044 0.04471608645178819 0.011263759449004795 0.004794059314178726 -0.02271823567532421 0.036026406554669 -0.019887288769837287 0.06990355119502234 0.01580775583717874 0.08489053315283299 0.07160583783854564 -0.011162620107242284 0.013267454340287286 0.11162326037428914 -0.011910085615615183 0.008281283670449982 -0.023177129199980516 0.02394017505796862 0.02987015228043328 -0.09796441667530478 -0.03391564030659971 -0.0462162082669159 -0.06076270804365802 -0.0454483324826267 0.024983963072348972 -0.01197092625058191 0.0916943300637237 0.007992525258912557 -0.05411999720317743 0.0976548973389508 -0.09334147230265896 0.013809377702542019 0.1074023153032562 0.013469334100978657 -0.03104269234944876 -0.05801570192539276 0.11554050634933725 0.027620813561182015 -0.10774752565263747 -0.08672872808919024 -0.08199366367071757 -0.01219154631397443 -0.05961024351285571 0.08645304108210324 -0.033223191160933904 0.06356668083368272 -0.001225032323713639 -0.04917712717696068 0.04029897319767311 -0.046728615615393994 0.04689713263688696 0.040357865115555926 -0.014147345472631558 0.12559700716280783 0.04803994634904192 -0.04361164468531147 0.08281583497509981 -0.021372131579002432 -0.04941843317438685 -0.13392593288290414 0.061482765556925625 0.046936596000647056 -0.06264434396325538 -0.02746491781946877 0.01244660815070782 0.05053001995413162 -0.10885581896336732 -0.00364244376166331 0.03653899266548264 -0.031194583908880684 0.006066854073309083 0.041021892915490216 -0.005533983773621198 -0.10214805751330616 -0.08197092053020358 0.029224089926813974 0.09894067599066698 0.0716726483503774 0.2023423578487692 0.005398224422174872 0.04445079185330894 0.01923996382424257 0.033540718868839914 -0.056675947644540474 0.01344966281260023 -0.1501829587443055 -0.053953159084833106 0.028101137381493273 -0.026698726329366453 -0.024792233389069582 -0.04690752359886959 0.08248560505685619 -0.021924197691032356 0.014145258944305433 -0.09316305433470609 -0.08228158284011128 -0.014932416466014196 -0.007185970674572444 0.05689163631422736 0.024090968445601157 -0.07320989031523124 -0.023948530848087745 -0.031480347806395304 0.033240187347588226 0.03616563818476237 -0.06622082684640909 -0.00536765584784749 0.03222567666424844 0.026275953242028957 0.013121465726235963 0.05627925726627682 -0.015421666402721215 -0.006661215051079943 0.09757243928610779 0.04531391149115434 -0.03334933638015192 -0.018431055221719294 0.007932940224466268 0.014390113792096131 -0.008684783243165232 -0.05974207796695739 -0.0034514637457013094 -0.02754589434033312 0.037110949317707066 -0.02607651791242945 -0.07374753237152794 0.021347420916553953 -0.005806810951596703 0.012360843366021954 0.07490021829226866 0.011800608990256155 -0.015987549673833003 -0.11989769773364703 -0.07694394540250682 -0.06076260422232665 0.050435346195418986 -0.01838373156108003 -0.032850500963606435 -0.11714533213289699 -0.029486427791893952 0.039098667442606816 0.014253367080322196 -0.08239940458786241 -0.08634323742010001 0.06671523390316524 0.11573561520339724 0.01820119271503972 0.004694672574599388 0.07191675193932064 0.03426513979314038 -0.013411811792359249 -0.030048245021178106 0.06919068496266131 -0.030375293129296186 0.054766388400789366 0.07570111540222235 -0.11261655112074734 0.07889347268319592 0.06345864884532415 -0.043986666139585975 0.02523596304669693 0.024381233416075402 -0.03533261084331886 -0.06867473621644436 -0.05149298171403449 0.09648727033397754 0.023492725226749524 0.02806571660486922
anachronism -0.04203368602963835 -0.00970631146896759 -0.05985282713328365 0.08610374379815802 -0.029653028676733233 0.033357641335127176 0.011872114033913719 -0.08969512383882709 0.013687450708462733 0.11088227640795445 0.0324605133792316 -0.002656066133984818 0.020026222436534312 -0.03313935807869965 0.01909327281549424 -0.07186265827137325 -0.018217857885714367 0.031489800709159646 0.0330958237089616 0.09135690924350265 -0.0524177993580882 0.07486121965034899 -0.08964303183946494 -0.08544861586414518 -0.07182820617244862 -0.02251946411401503 0.0211437849218772 -0.0015733211837521582 0.006751515514989226 0.06342508358935171 -0.07355675418615298 0.10954905909931573 -0.10479889300802415 0.12677266120691102 0.0011256146371083128 -0.06208210604790367 -0.006459353375629576 -0.04672129877578064 0.013558573732775277 -0.04333233513591861 0.021462286807321315 -0.024570233238689357 -0.03554336480588414 0.011685547406122591 0.025868992352362494 0.002989831071284391 0.007621970434172534 0.0031955759460307784 0.031012133434976937 -0.05243484536611526 0.02010264149135145 -0.05912409105133216 -0.024774988417507186 -0.020373409738187895 -0.07748938442472814 0.01280416063014032 0.038527963004632 0.056049703633867735 -0.04595216124097815 0.08060591798540859 -0.028305596278416383 -0.07169157701413757 0.11176820869791042 -0.041711942893394714 -0.005416964722488766 -0.07894122023309794 -0.07032542441859731 -0.0139388380062143 -0.06336141010355786 -0.004581037965272121 -0.07700449133329357 0.015549169059389358 0.035612018310133206 -0.08646149677180548 -0.036616623346444645 0.012573583246719143 0.11490176560036668 0.0973103091772566 0.005376720228991208 -0.0050868279378931906 0.04500340028008826 0.050229551260386696 -0.01836943334131326 -0.020473928719958637 -0.02593976995291981 -0.01394819292735896 -0.02833256579210054 0.044945154515822365 -0.046225156651720736 -0.057900134733037074 -0.006765587093810583 -0.03001156358422094 0.1586239073669131 -0.12981328488412325 0.05874169400207027 0.0008061884885927673 0.04288160650604465 0.04957719892466297 -0.037491130692761596 -0.0036745819331412345 -0.009132380393062267 -0.06718470739762027 0.0728350825704048 -0.03633942890944645 -0.06423186923018555 -0.04342580885213742 -0.07231354393129634 0.027604777928979158 -0.006760882857069795 0.01374496802219142 0.0014173977143062191 -0.007617155587632202 -0.06396649636810829 -0.03979985315653456 0.021545887490766157 -0.04498060532162069 0.0946650004001047 0.06419613196577649 -0.010222211335672228 0.06845352636654649 0.09993733645903141 0.058010732194415965 -0.058434548633107715 0.1634351898895112 0.02218725760068322 -0.015268874916876233 0.06894886842225678 0.06518354010405583 0.03505092460982849 0.10950165782892066 -0.03546322798580601 0.03660497368853195 -0.03471733820069124 0.02488545573264226 0.015553805401853717 0.02247921260284238 -0.0494750234277275 0.012070276410788032 0.008760995370205313 0.061342409421073295 0.023144780625609762 0.04773610781893344 0.06574940824897087 -0.0006524927045120473 0.028924874069627973 0.13343996791844054 -0.01715742389279319 -0.02153222954935242 -0.038037754979185365 0.012422983078323215 0.04373090691917284 -0.09847727792884606 -0.03163908496969854 -0.014935609592471233 -0.09314887267486782 -0.03180469598166962 -0.00880120776299371 -0.018135608907875904 0.10461835651980979 0.013401830770810258 -0.05503293318631324 0.12715712320935307 -0.0862509391563209 0.023446090800954493 0.11315062185227241 0.013628611361138855 -0.022935313069247048 -0.06011523691306628 0.11925732408977888 0.018632949656527373 -0.0990967784515452 -0.06875172421983972 -0.10943677202111865 -0.01673196271946369 -0.06046597004688681 0.08420241532503082 -0.016803656243106507 0.09005356130306535 -0.0017459655597432079 -0.039521145625446424 0.030472119702934952 -0.037125856401374134 0.03529440285880123 0.06536487866315656 -0.03973366977994573 0.14385096085273613 0.038930802866699823 -0.058570590727726565 0.09223561769807619 -0.009846654334252504 -0.008857341930637998 -0.14654725550041112 0.05969730140296099 0.06806630866119923 -0.04226707208734378 -0.03849937184091114 -0.023939290577568016 0.017304822589538846 -0.14083975343062743 -0.005125086167017592 0.04662615228872915 -0.016629391698722858 9.739374819683188e-06 0.03470545089758146 0.006639505985353696 -0.08990693579115248 -0.05793298284715446 0.025175614318478153 0.08695762512457383 0.070313495452763 0.2070721390322426 0.013502292401849995 0.046546643579315865 -0.038906026245426786 0.05312837600607338 -0.04363678181459525 0.016154224118983207 -0.13641355561217566 -0.08374441415325233 0.02464714247974527 -0.030789933461940533 -0.08223730246656744 -0.09077253379822636 0.058891348658483014 -0.03289867525673692 0.03690818101749247 -0.06309136609448306 -0.049655164736156915 0.0009416623887569436 -0.009446727059671249 0.07564704243369609 0.0643607413010066 -0.045755945021636824 -0.006942989951377585 -0.06085652265431965 0.05994557768121163 0.043826250384987775 -0.03230850545623068 -0.004255273438340287 0.004048299921358949 0.011320534022954463 0.012586745422147818 0.0733853201064237 0.005078564679474945 0.018638239744796375 0.08958289471170619 0.05872222239119799 0.005801737813217894 0.0059838302213417165 0.005324103238008322 0.031234469787751167 0.020355523123597577 -0.045031653993203684 -0.008148716370217066 -0.028021605046704277 0.029981558400514547 -0.03359137872211349 -0.07676417289499342 0.0332972751946614 -0.012963882955942925 0.011025715712783045 0.05227095708346084 0.00888298665675819 0.007573979689695391 -0.09319012262773614 -0.05971535723282985 -0.04231912646006379 0.05308862704678533 -0.015093634490850322 -0.04417197508011636 -0.10261767315154502 -0.02123484827922257 0.017838600797998334 0.03507095388654275 -0.06071104335360781 -0.05808614401396752 0.050240367669422095 0.12270892406825072 0.032202379964001875 -0.007669873647227505 0.04409044399762124 0.02186450350732877 -0.00407146218123015 -0.003283950075066082 0.06473546436546966 -0.031451001884473195 0.0390392298935013 0.109755952849245 -0.050551566510383276 0.055823659741535796 0.019893794809341232 -0.03544182590829462 0.011450618582658454 -0.007117826643034289 -0.02072807571290016 -0.06083112356690849 -0.06267314044237114 0.07804482333285385 0.017598059721679465 0.03848216360608158
anagrams -0.05522388423007391 0.016933804087711536 -0.046304317271651484 0.08150003518840883 -0.03417250729258914 0.023888973014392776 -0.0039218620943949015 -0.08762345397926971 0.013890134645430652 0.07226185866779468 0.03287276816396969 -0.011618028839286764 0.02809946894201102 -0.03239897430823193 0.02604618383784127 -0.06186392479831962 -0.03688929725391508 0.030046759470609072 0.02586851862409992 0.08750586592166405 -0.03146639638335285 0.05148467920562409 -0.07126645291709892 -0.07870259517188492 -0.06700181041383844 -0.04009565642738473 0.01045466889525009 -0.014685482373812196 -0.003924459009490352 0.05993417769366286 -0.06029599102324654 0.09734149355831445 -0.09181419237098204 0.08143602293910261 0.0003678180079120333 -0.0550298542384766 0.0008933794961660946 -0.020404523263057184 0.02930304697029458 -0.04674328824501864 0.0383615121193485 -0.022447330404805663 -0.0236112388457226 0.032670581447252316 0.011178490744402594 0.007243985592309803 0.03497020983902971 -0.0033925080339684867 0.02663557864734524 -0.04509885104022141 0.030338195184506176 -0.08005504010758882 -0.004193016727537894 0.003239278207159222 -0.07609556031182985 0.02306797377301806 0.007603917034039976 0.0566447449046074 -0.04886733589129067 0.07732511700651054 -0.014022671172756806 -0.06819847121590555 0.1123765945123357 -0.03560274089735144 -0.010290137127233463 -0.048269520709057885 -0.0606041822880668 -0.00833290608747881 -0.044711313830076385 0.011639583502269797 -0.06456785418488065 0.019256540250508526 0.05705936958538418 -0.10444461348425557 -0.05625720915341626 0.03404795993165172 0.10650204121038026 0.09004962613343337 -0.001454118093209461 -0.014676327294297608 0.05796636343232458 0.03234488406670026 -0.04477875113719866 -0.009861218340911125 -0.027849788481599847 -0.037922269685692414 -0.025722303341048434 0.040823581773310885 -0.009941344133985565 -0.06721405154192268 -0.004808056636172298 -0.024476592003475375 0.15631147035070178 -0.12452265539256856 0.05148098979665142 0.009523745620421435 0.04002821657379873 0.0259987731025193 -0.033623346804489807 -0.016072838961063724 0.014734010152287973 -0.07533966401249442 0.0813422292665206 -0.037419309549429965 -0.05164608858837984 -0.06913017712833144 -0.05252573969390385 0.027337269468723585 -0.0022432458355369656 0.014946502898310754 0.009413732388414793 -0.02045164887748626 -0.05851083771191958 -0.024785995841564382 0.005386963586461156 -0.07281741456589227 0.10021930781775924 0.07213391636858478 -0.011167939210790179 0.08158938213043167 0.1142694851929835 0.06369026786550734 -0.06641613690251323 0.20075460393129835 0.01731721502384601 -0.019478564256379206 0.07600083986188999 0.07299062541055767 0.030816198050024037 0.12551293061876362 -0.015503472980697904 0.03794891542274022 -0.03830302559027928 0.03665687523721916 0.016096290646962816 0.025191566269923846 -0.042150058363897895 0.009049533353673032 0.004941750695375622 0.05001789980106743 0.015309082164980743 0.04019063399097389 0.07862162032560369 0.0018274360462192944 0.023071216734768165 0.13204322214554065 -0.005645404714001873 -0.04386542041893567 -0.03763215907543423 0.012040265061764161 0.0531057529117796 -0.08844441378942579 -0.033867958466320375 -0.027431160136330467 -0.07710762872717337 -0.04580924693496351 -0.003867236285559127 -0.02158731957282624 0.1054541717684859 0.014796063602301459 -0.054642345290066646 0.10687837303829155 -0.10106155151574073 0.019233075631913468 0.09936903749957722 0.006002571687076221 -0.05070438521892441 -0.03732004547124285 0.10550079652101582 0.021154506415169843 -0.08123096914895182 -0.07381912535689412 -0.1232692487647282 -0.017124167718181385 -0.05977955648265848 0.11570573588334682 -0.010476172125646792 0.08027058798838076 -0.0016548203133107716 -0.04367214987300829 0.03336512251898126 -0.04645801251719038 0.029234664199803334 0.06827482443838696 -0.04356256742844412 0.1351708248268845 0.043598036227518566 -0.04451534102690927 0.07875883696581819 -0.01254025557414086 0.0005526556828407036 -0.14405643584679093 0.08434123340362515 0.07264320513173303 -0.05371802204852468 -0.040106614460323216 -0.0012824710783156828 0.03308058018997616 -0.1493197723249944 -0.01244643504160552 0.05135541819485025 -0.023762214497773854 0.019699213877859056 0.006102212691314082 -0.0049241602104031475 -0.09027954807960646 -0.07296564926752439 0.04124091712122336 0.09218850244685792 0.04022170529871231 0.1872672808371511 0.00978816545199819 0.03525504435333965 -0.028552197699775697 0.045727543955372284 -0.043560483527084005 0.012095070913023934 -0.11627144025681582 -0.0741800888236871 0.029966541203186158 -0.04392877641904772 -0.06051835897294005 -0.08373434343929607 0.0702838172629328 -0.024896787766060705 0.04140349160480412 -0.08582645292007618 -0.0600225582387758 0.0018600005707648875 -0.0012234439947517532 0.061801429473525696 0.036798990849653324 -0.033985376133433665 -0.029097898869601253 -0.0368561328307025 0.02654402326301832 0.023642511668193554 -0.03324122346138099 0.008510794246655648 0.004896562185770359 -0.0001542189764841595 0.020233217901300633 0.07721795191076752 0.016241104162105283 0.024762381894514653 0.12316589727785264 0.05997055391911938 -0.0019022732126333251 -0.01325867270774204 0.03817879099828995 0.04258164350087626 0.004719238345901169 -0.05646104895637959 -0.016089809638450397 -0.00954944511001449 0.03601511228620668 -0.021805309609269748 -0.06138032519598188 0.03701045729572213 -0.02790877964731858 0.024233916087293667 0.04868414825308112 0.014204987778825262 -0.0008341671828838199 -0.1055094719135842 -0.05705399414404247 -0.049665582013194216 0.03904916564705041 -0.018106319081127753 -0.0644674723307637 -0.13698552092462016 -0.021404302884641672 0.015005170655442589 0.015479267209311708 -0.07829946317597003 -0.06830318179002326 0.07112446527836555 0.11581826354480153 0.03681526115088672 -0.01647054067851506 0.07231942468692575 0.02346877614832817 -0.0020305609071673714 -0.002619005176589169 0.08119982611611415 -0.0458319593533357 0.05149729715603991 0.12962951659066257 -0.06525978891281094 0.042865164517385736 0.03484515984682856 -0.05043034246447654 0.007207462694569699 0.011418831372086543 -0.011409449568300062 -0.07011886767923878 -0.0627926179999032 0.055347759357285885 0.025882465137323687 0.030496224787444955
anemia -0.021085253472799704 -0.008001770635431163 -0.07904096533104041 0.08284163022507594 -0.058275057754899655 -0.010875255940273727 0.057556797790740584 -0.11649099383176342 0.01775027503919412 0.058263407656146654 0.013721454170902958 0.025373932148149356 0.005257547432228612 0.003405515634008982 0.02033183433342937 -0.07868967681669145 -0.042903854514273754 0.0012019691682779512 0.00044915435208793693 0.10778135872182083 -0.012620232211180707 0.05485615858898244 -0.07856428798445712 -0.09029430152691657 -0.07821296320455265 -0.0038173199893748147 -0.007440160832042854 -0.003799915880072087 0.0064115412373596204 0.0701692211562716 -0.07401325576813367 0.11300339266331318 -0.10855704998588288 0.125408179609572 0.004951795811849157 -0.0595297449193843 -0.013533097998625463 -0.014939650431107598 0.009916143520086546 -0.03763140037053063 0.03507609845340799 -0.022071586435679826 -0.014240414919532884 0.03315225489557624 0.029809284719864 -0.0006938818517159198 0.036407094672791955 -0.01447634077017512 0.04701612747513395 -0.029044790569647882 -0.0029007968642720933 -0.07967629363511379 -0.04360037519308766 -0.05209077139339162 -0.060157769392915714 -0.013865343313084528 0.018677639754702772 0.014484937665214852 -0.06889168628891452 0.061535950211334074 -0.04900894392570355 -0.0954008847166862 0.12075888784222373 -0.037095295731305676 -0.011002005571665276 -0.06900385144965943 -0.089259900158462 0.021088719842503097 -0.02091621471678148 0.0024053128474046774 -0.0803392210276194 -0.0204128802670512 0.06567348246068612 -0.0786738356275829 -0.03454966136283154 0.033716360775935574 0.12425360610450908 0.11161510762311738 -0.0014985760548233314 -0.01958888072966325 0.06438585241232303 0.003173782851487216 -0.048943338885043736 -0.04378593868184005 -0.058867016195211064 -0.03779218299918056 -0.010974356054674046 0.07154050920499044 -0.05438776567096184 -0.09207534942175624 0.01514901049145807 -0.013777063597451948 0.11915373986383858 -0.13990487709238164 0.02214842199963428 0.006741512141156739 0.06076725422386691 0.06952528271347458 -0.023551257804151897 0.03594168775465475 0.018962652873730588 -0.04402974978946676 0.039764726207299234 -0.07440937741712766 -0.01797550312361834 -0.030287928570513663 -0.0629264185105227 0.05063809897022063 0.019494238150873505 0.01901077628450001 -0.01976746188359287 0.015566107816036838 -0.05588418757464156 -0.022017956136999223 0.021369024284239875 -0.03712792245331947 0.07387238439203515 0.05292484320257062 -0.0030852386018823444 0.05756507091942047 0.10879741874350725 0.005267423749061263 -0.08052965823729424 0.16967427862870257 0.012449859688697287 -0.018797894687560424 0.01697995325363263 0.06501413768122846 0.015211206619065169 0.11056764510513688 -0.03526905974232121 0.07280360589681995 -0.054605165622908416 0.04396771440306311 0.02721962372101633 0.010143170145867799 -0.06856161728999183 0.024753217663359865 -0.02703693548078481 0.06899626080279464 0.00711052046863831 0.07433002687786872 0.051635382984013295 -0.022403340290980383 0.006310284344556515 0.09054857099925348 -0.00861445356882868 0.012886784039658065 -0.024290103945042864 0.029365085689093295 0.03820477684067032 -0.09672928862252543 -0.027413642101013155 -0.02828003207058766 -0.06431175226459637 -0.026665873798603624 0.004082565629635478 0.008499543462683843 0.11017025912328159 -0.009320225747797537 -0.0462296579830683 0.09546259973448681 -0.08578851431050244 0.01104769483008659 0.11424272045084027 0.022019100892501014 -0.0454829770451445 -0.06601367614343613 0.10145960242280659 0.04998946958683272 -0.0760682768753317 -0.10021862792150112 -0.10438529899642676 0.022630122200050146 -0.03637885456858346 0.07305468982098066 -0.05437951384334349 0.047918069327137616 -0.02899582286980597 -0.031881392878637664 0.018295943170308332 -0.07711079161551693 0.02593385085166689 0.03371715369428972 -0.031680112290974574 0.14722074349581724 0.0527474589454274 -0.041674897192752185 0.08905050223906257 -0.025679867053353768 -0.06252283042548692 -0.1357004162143168 0.07263017010732316 0.07146748817800085 -0.06106652695011716 -0.02432745061458793 0.0136986116027486 0.027861230154200653 -0.12675696407950113 -0.009657122774165552 0.02755864063564477 -0.031145017573944854 0.0014533268748237482 0.025988669365974954 0.01834922493209775 -0.0828074035181116 -0.07971600454524218 0.029430885611544593 0.0676231227271106 0.03438108642035497 0.17928947674800869 0.024602085923889974 0.0664064926045849 0.012251400203940402 0.04525621787883741 -0.04133255233936999 0.0026550503097164317 -0.15340835044215345 -0.054501502469153126 0.035267576142922925 -0.0624188437586089 -0.07346434771816188 -0.03468969634645635 0.08779085894432977 -0.03356875672259678 0.0232757539658476 -0.11287852424349228 -0.0786011450177353 0.013451905912067068 -0.012999966574247514 0.04870372809716451 0.032616470443158706 -0.06483334928035926 -0.022900811531106128 -0.03240921712971315 0.05425920709088074 0.019438413750012935 -0.05225615319193116 0.006330383365708032 0.040247782058707465 0.04347599706524736 0.02414162618689514 0.06350728048667507 -0.02243053568085107 -0.029727972450868778 0.12059364903579524 0.029493394442727725 -0.04902009666343273 0.0010289508399240292 0.02396724134165046 0.01054625507136129 0.012330650932889337 -0.05455291277840569 0.02338863539352794 -0.027144381906075557 -0.0011280887398470059 -0.011511223715894836 -0.10968924966128263 0.03460594305454332 -0.007738872968573134 0.01836844486234373 0.07581212195809141 -0.01701279295722015 0.008730842216662095 -0.10277570143934324 -0.04308325702277066 -0.07536438593270468 0.06537786624323454 -0.00897196094117541 -0.03098111996173714 -0.11557553513239695 -0.022580982993831454 0.014888576085864328 0.003913004160580466 -0.0661673179465358 -0.06240894056258712 0.04890228730337639 0.07642587050744996 0.03270688150047343 -0.005693990661274397 0.04796436492219706 0.015418191853174399 -0.01974955930425426 -0.021435872063028702 0.08166247769487509 -0.040811312766801895 0.06758993795097126 0.07892583359588977 -0.08455617109933321 0.05789796007255135 0.03750450476413775 -0.02990512248454051 0.008051021700491205 0.0035297145479624304 -0.051362131342215324 -0.05965913130757321 -0.030188561408844607 0.0800599634408529 0.022013103273433886 -0.004987551538087081
aquarius (constellation) -0.06731913422977685 -0.00281453529380344 -0.027712911756243814 0.09635898010030515 -0.04437400657216075 0.023512717067089572 0.020022088765017192 -0.06210992254261955 0.00790316429175356 0.07485249801093881 0.05441252595878684 -0.005870121967496952 0.03370796457226898 -0.034300340966178205 0.024214989209010163 -0.05586400432958224 0.0011585967371847584 0.011420955564228286 0.007321153058388606 0.09058225892877553 -0.055243156936877744 0.06383964064775209 -0.10338934401188775 -0.08504492711076532 -0.09526085626894554 -0.045312608025755576 0.01823893792979348 -0.013338161252539065 0.0064837417174522976 0.04614434694578058 -0.07064946507674921 0.13243177565977077 -0.07396770575400713 0.11462465145577425 0.001489349597022044 -0.059976870667681106 0.009483976252680274 -0.04399966643527236 -0.004367352592830051 -0.03540031372898081 0.02825014940134157 -0.022748023409943825 -0.03998322317289717 0.03263367114541598 0.04192878861732529 -0.01110922149593397 0.00860500018748462 0.04136696282130901 0.055895734658211585 -0.029904452966768445 0.014532384973898029 -0.06243189318612496 -0.04402745553933532 -0.015273747149394416 -0.05011130258350411 0.0472025916965746 0.026296730982056652 0.06873573450235884 -0.0430002405860401 0.06345265907724716 -0.012977083013354125 -0.07905521820080819 0.09398245253096094 -0.04024036631962464 -0.0017921859667023414 -0.07212889561288174 -0.09650051214566058 -0.012173234343242655 -0.03495967538342113 0.016810537310701517 -0.08529833172300234 0.030287718456370613 0.0370905876666854 -0.09506790317586974 -0.03970060250243998 0.002860956544090032 0.07784612467448723 0.1283135761306953 0.016942405405461 -0.027052292783433633 0.057428310096947884 0.030069658269560325 -0.04882831458974967 0.0026911340160290223 -0.03164072281305025 -0.04545857827303066 -0.023130540788238445 0.07182127091366126 -0.017598417654436573 -0.0748072473481902 -0.006865866584985964 -0.010643531221690445 0.12111533495121252 -0.10950059413905601 0.0677225966968477 -0.018442194367275754 0.037363531891948555 0.04764380768206724 -0.0332297435462565 -0.024683867349044337 -0.014373268414453775 -0.06910808216830629 0.060928839407398135 -0.04516238462816647 -0.06126548541365121 -0.03557299285340029 -0.07019226213749909 0.04309057023203787 -0.0021743655627841497 0.021386562045314528 0.025735379688958435 -0.020653527276148182 -0.04645798991803145 -0.021831112632134126 0.03206212784656138 -0.05543484401684539 0.12089601914196481 0.06641284768706059 0.0035160888652727997 0.067250999950913 0.11558455015817512 0.04364223632930442 -0.05674835394497819 0.1720569271284231 0.03992559131307558 -0.020513284959349332 0.050490649053599644 0.0892316554637084 0.029091427171914912 0.09472064153904942 -0.03435655696042496 0.07117648588360949 -0.027039309822878266 0.07073732216906152 0.03088749752529632 0.002954725175880655 -0.03503545872472 0.02202314260377831 -0.001440247684054696 0.08950097600131493 -0.0030494411705054426 0.05868919291141412 0.09468204420696785 0.0061769937820117275 0.019921702801294256 0.11434477770752038 -0.019821184034322273 -0.008276187414801161 -0.019132373113364784 0.035287782287409475 0.05503935923409185 -0.10248305154771689 -0.05281949410719834 -0.03867569889950066 -0.06589308299745429 -0.06439202734732481 -0.0017718962291839318 -0.01715134080451141 0.10217829406646278 0.02112420068650424 -0.05002207793552735 0.1145219049937086 -0.09429275457430467 0.03802420296869105 0.10746739258156884 0.01191325198910846 -0.025936522932026005 -0.03715964902488809 0.08298448995259691 0.009828178340625859 -0.09272154510420075 -0.061236899879223775 -0.10305656965333046 -0.027591439135347045 -0.03571676971206021 0.11082566360877466 -0.007585657598354814 0.06139619286548464 0.0008016011482902337 -0.033444999114479956 0.0071476214981070225 -0.03071780214995087 0.022413490356767384 0.02747525936970783 -0.040873402860522406 0.11066674218373433 0.05233567715181752 -0.050918331974599634 0.11610355804838776 -0.0070032260411052715 0.008105277924996107 -0.1670539078997788 0.0884111092962367 0.05217374283186659 -0.058891758486264614 -0.03261048235336031 -0.009135267805584744 0.058374839693984035 -0.13283289967279963 -0.02324515686614594 0.031906873762734884 -0.03526883771088387 -0.01074478069451776 0.05477531554198105 -0.006432466293567772 -0.11571664739971642 -0.0519670005559853 0.02221570864556865 0.09452810658369272 0.05174525856996071 0.18488887335817655 0.017106933945933215 0.021782828427701618 -0.014336510915053844 0.029015047349588523 -0.052599565531549757 0.010283473170133766 -0.13589947485694132 -0.06721719552373939 0.012791819684830782 -0.042346979468005315 -0.05180825437069204 -0.08050091489255971 0.07894846056707581 -0.02604773113903415 0.024107293906417287 -0.09216489197263762 -0.07089265246467165 0.024739249275627356 -0.005373280868835501 0.07159812621074624 0.07049020596911323 -0.06061011854944333 -0.012749990346555894 -0.006368606355718359 0.02195683549033897 0.01391608958429187 -0.06097340702202926 -0.02647240646740355 0.008496962837811445 0.017169834761735833 -0.0024577646175764265 0.04029400712444357 0.00043114980209570537 -0.01137166734998869 0.07296685573578683 0.029403824935913547 -0.014736387633850266 0.006480132326145883 0.0084743148131116 0.04005161898958984 0.012628231825407309 -0.0687140138419998 0.004640958741197351 -0.021084746200004938 0.03420738080337524 -0.02060650291566898 -0.08693090968196336 0.023060958242038635 -0.000122114852362852 0.0284115204729681 0.07705343098993883 0.022036081302976525 -0.013286856953179238 -0.10401045997507914 -0.08281817263647001 -0.04774736530190987 0.07148786572859799 -0.012193287764924189 -0.05856723593490587 -0.11780819585577974 -0.004320534637449282 0.011595546612914015 0.00760050296981246 -0.07634899957187448 -0.07980025786380296 0.06935986439660449 0.0991907807212663 0.02740270352862453 -0.010057666864635054 0.06280439473562437 -0.005067611049027572 0.0042426814379213865 -0.004769244826851185 0.05489639638317457 -0.04100039604075128 0.04430286153886389 0.09202131239773419 -0.05479158201671591 0.08794988328391003 0.029604881081776373 -0.052426665601317375 0.0012940480839732918 0.03472108717758127 0.004837608222850946 -0.058895795212391494 -0.05149124186606853 0.07024469802655832 0.020778407367613078 0.03500819897235805
arabic alphabet -0.05124462630759875 0.01209284391410049 -0.049330898468690175 0.07688653833391372 -0.02422857995322209 0.01263319361105559 0.002258464723232646 -0.09403060999087523 0.010212609565305087 0.04171082145832154 0.022795758531470988 -0.017283045157976528 -0.012291399849998783 -0.013554335933064102 0.01788405744882177 -0.07539134617585697 -0.008713110156555402 0.02940459268831623 0.040294300879998815 0.08882987878493953 -0.03527836882464055 0.05526588659074614 -0.06966430424748156 -0.06269973525448284 -0.07204632814781879 -0.038879824875346775 0.03924757868897013 -0.002033950489948872 -0.007931148979727975 0.05589767303815856 -0.08675817597726106 0.10300957233557996 -0.09360503718262202 0.0953767029437746 0.0031848796467404948 -0.06722970604278904 -0.005038196908103946 -0.005980024496979165 0.018136189046948914 -0.04191594839082345 0.044723555249536584 -0.024785539564627933 -0.013293844544639041 0.02175986686704838 0.016895043407848778 -0.00020250878356836645 0.024365520470407073 -0.004639179037450868 0.030411035870540455 -0.04464603634970585 0.026123147394897024 -0.09467441313465222 -0.01576182807385318 -0.004324444725267394 -0.08108203699186506 0.004306017502791773 0.02359716394567613 0.05559756345364317 -0.04383249236431739 0.08404886271964548 0.0007133484950561993 -0.040151598376509764 0.10690852260175168 -0.02487012832369427 0.0035626525570526695 -0.07060345275422453 -0.058838661088237924 -0.004878884017686877 -0.07271933436503053 0.029235392061014696 -0.0778990816665091 0.010917939456906759 0.045645428473125964 -0.07582415138218197 -0.056010908971288076 0.03414384715367598 0.09776800168458652 0.10926331437690107 0.00786279429175271 -0.003241050077556407 0.03861416955637334 0.03750132665296159 -0.051998249319258706 0.002451468809978402 -0.01938035762501868 -0.036535455894199986 -0.024691595473944845 0.07457192284084556 -0.033997703072104486 -0.04854015075889983 -0.006780401533865271 -0.029385879867685406 0.15084891376153817 -0.13004614989458305 0.06050212344449387 -0.0048540141558277555 0.027652230789946657 0.04568676789836306 -0.03094399525127084 -0.022666934736268324 0.012837968198727682 -0.097275892275244 0.0846820528884007 -0.03190339876321749 -0.031636702819261266 -0.044443120863475176 -0.05581201428482236 0.03553066127679304 -0.008671845993852744 0.03236824325680536 0.014235921136812034 0.0011979964990979813 -0.0665973771250836 -0.028891800968199672 0.017788911872028884 -0.05409585623623295 0.10607451517767151 0.07265765334296032 0.006634715272334376 0.07395740824057821 0.10565459960395679 0.06565271891312091 -0.06821242492351784 0.1889862819089531 0.01462746952452017 -0.019818410353804203 0.056395135820143515 0.0649314533747612 0.035161669281826756 0.12506215118694103 -0.01517278214539528 0.037313462464924674 -0.027272481363817908 0.03560420530682597 0.0245109197614303 0.03977185373563513 -0.03716234423858359 0.00650509334896756 0.00042805996372547556 0.0631113144085939 0.008111794140378369 0.037000523490429545 0.08417673982022748 0.007215771495451497 0.039805007580824454 0.11697322191355224 -0.022450960784444404 -0.021573906741521476 -0.05415701681047025 0.020989255943879428 0.0333446700208727 -0.08638499922649943 -0.04441678564202176 -0.03881949494252144 -0.06348654622671585 -0.03683069036629734 0.005654630915742565 0.015905129395047644 0.09261691098572279 0.015753656501324237 -0.05138404169317955 0.13692805431010363 -0.08973425214230916 0.006202909279140708 0.0982260354034292 -0.008067879555819684 -0.044293739847519796 -0.07498776105664298 0.09837159672030894 0.025787631433074876 -0.096282918249421 -0.07731757764140076 -0.12601235715910067 -0.022703212365620597 -0.05932316051007941 0.0961969441868802 -0.005597845688315331 0.0896898884094025 -0.006401926620914479 -0.047097466728516016 0.018494214768026335 -0.04757284175029002 0.02512070467584059 0.07028457136909727 -0.029242441024319235 0.15299890726614443 0.03569675547922348 -0.07425716951388112 0.082811467981676 0.01969671600262913 0.00904983931636955 -0.14455198464360958 0.07239630553573996 0.052646387833508564 -0.057027733658574484 -0.02368617461031683 -0.00936427545634851 0.020531364305320196 -0.1489303631651372 -0.02158753607730385 0.05573892592963465 -0.027836536406750937 0.010394861097137664 0.02285297734725281 0.010727522707297096 -0.09906480389811194 -0.08823261951272435 0.039478580308373444 0.1058970150446131 0.04922969477669361 0.1762694973057396 0.04306215809906145 0.049675457605412476 -0.008588782377751132 0.038223620475943375 -0.037905926518763865 0.0016460207007084888 -0.1161462827166688 -0.08107001986462992 0.018172764994828453 -0.017304053364000628 -0.06664783314522328 -0.07752637005302582 0.051318980808101676 -0.025912187506486925 0.039518220874549176 -0.08644471441377571 -0.05647656773873039 -0.0016306001543517365 -0.0033718300781258696 0.07127205046011334 0.03990314873934533 -0.06438392895253095 -0.04139610703333145 -0.03398888572069361 0.05108947147568706 0.027662311433538336 -0.04860807900045195 0.003244144188317259 0.02094218751108412 -0.0003333032780007396 0.018325332926307364 0.08669654685968355 -0.004173564944016366 0.0010106312919086413 0.12294114748783408 0.058725125960410546 0.01274301450923584 -0.010481899303857824 0.012814065368738366 0.043395172053618064 0.010914783586676888 -0.057667467033447106 -0.024121673096967826 -0.03121068841612053 0.027741576581890078 -0.006309407642015992 -0.07222855719425511 0.03520610129935598 -0.03646792898776242 0.020813498806858524 0.045873863737838916 0.012097045519806138 0.00989583008581992 -0.09904124383818329 -0.07011376515899119 -0.051005265542997245 0.03746028597804355 -0.025054400616028812 -0.05389228780021452 -0.14083733229516043 -0.022413431925236028 0.03789176105421307 0.0007754039884498878 -0.06644060804114521 -0.0748276765203813 0.061356493667511655 0.09351838242734507 0.02902247048910207 -0.029223645265468855 0.054116009926145237 0.008964173845208378 0.0006092672328576228 -0.018306683642156183 0.057190529586403874 -0.06908200164726971 0.036012407843212114 0.11203220326083123 -0.07149973910986095 0.04265657599119486 -0.002745620518962507 -0.04244352133239964 0.026803778953762524 0.005574788472156164 -0.012693480916517737 -0.07899716947263226 -0.05903374394305233 0.04040564286771682 0.02814476802428897 0.04291528848373625
arctic fox -0.06263750133317299 -0.009355552293964859 -0.05392070298654247 0.09025652579383629 -0.029609168314218434 0.015897915943325774 0.017921948302002343 -0.07900528314065297 0.021384904501992534 0.09104422033673983 0.028716768758919556 0.0008319955118485617 0.0390667011104505 -0.0448892196331973 0.018708821861530972 -0.04902956122934838 -0.03620017189470549 0.0014959210804752696 0.030160903130797823 0.07287790940570874 -0.046279316342082176 0.04728340300956611 -0.09681313854724137 -0.07382737281973893 -0.09279682005471676 -0.03157848325733323 0.02583108169443946 2.862639808821135e-05 0.017319351817009054 0.06337432338213692 -0.05928938700155069 0.11088993009753965 -0.1009212809262425 0.11550346682333988 0.018137248753196014 -0.061064919056724516 0.008356410664319946 -0.034050657160533994 0.03402957828056415 -0.06783892386553134 0.03125587131777333 -0.008600378660230239 -0.03596631957317315 0.04364627528325375 0.03225040295285013 0.00608411654978588 0.02438947859052145 0.00739453752964508 0.06647261422235227 -0.03516123669315559 0.019442110697274702 -0.06711346493373486 -0.02001676105895452 -0.013603805735811462 -0.052931996106463854 0.02870257937860914 0.02335847804980339 0.062298216863165654 -0.04799763367441305 0.10176780648107814 -0.045972403952707915 -0.09155293847323949 0.12342198133424534 -0.04438886045917639 -0.0052252461996807826 -0.07626888432073682 -0.10228534259994947 0.006680248180371701 -0.07453696483520023 0.012421733300569369 -0.09027602795042763 -0.005711197878274445 0.03152733675163839 -0.09808215007009215 -0.05124366873823229 0.02669090011301428 0.13078560205222986 0.1162857585936349 -0.009868533602856009 -0.03547623862426319 0.05017363463817833 0.0172717389497879 -0.018717437162238962 -0.004911438568323653 -0.033046521401120015 -0.027630790316198344 -0.02785867221822114 0.06808605644591936 0.0030914022918614374 -0.04549484803356978 -0.020239535705901607 -0.03342408659672063 0.13636863673041733 -0.11730888443897329 0.06741867702474508 0.006590129806372606 0.05170686610185761 0.05593904782351857 -0.030273819580320098 0.0017220057989992374 -0.0030075963592211116 -0.056361192105233715 0.06806709031789093 -0.06539739075217793 -0.06623731784675399 -0.03676623346360963 -0.0587053381703904 0.05500721294892209 -0.005559406286386586 0.022147726878364585 0.0021665906562896953 -0.011033311177563223 -0.0654197371449497 -0.05512362425980875 0.027663972647552465 -0.040988419890207975 0.0877703875432842 0.06417835635389657 -0.004541939760394779 0.06066338439407954 0.11886731583938898 0.0549529499448999 -0.07389916298488126 0.14398397297918586 0.02736303563149847 0.006828873839579759 0.05232368768099826 0.07219382266932116 0.03199522700079766 0.11169247859056725 -0.0485712008706712 0.06339832668902394 -0.035313817521364615 0.052781207675208094 0.010851410053695255 0.019631287366985765 -0.03624738024827656 0.030654913744116667 -0.049566217945370326 0.09387190948782219 0.021214205601641632 0.07667140660584246 0.08122548481375365 0.01225962042368307 0.016768430395668017 0.13774745700372995 -0.0028028865654897528 -0.02137044374172934 -0.003497017714380517 0.04164105305116947 0.053914669952790296 -0.10578942741320049 -0.06365383186954335 -0.03171748007674275 -0.05376622335333707 -0.053792906753106516 -0.012128239228070227 -0.007830736834682906 0.10842171294734285 -0.001626064536577281 -0.018577105310489953 0.12199966891200391 -0.09926290745686889 0.03765125348552925 0.10420620701298289 0.011245610677024419 -0.038909453106181664 -0.049653704766077375 0.10650341894100536 0.02926069074531383 -0.08695721595836724 -0.07638055146335271 -0.10617645571470104 -0.010229171964316774 -0.04000866491173861 0.09777157560362826 -0.029324966670514138 0.08022204866899611 -0.008949584205045403 -0.04271963288929423 0.025119485310074685 -0.03177491456814735 0.026318175111103657 0.03911284775307711 -0.02780510160056991 0.08748821740103062 0.031422193813632315 -0.03983557723003928 0.09022854771377259 -0.014261115704681993 -0.03398780862830148 -0.1440911922899503 0.06796301991289543 0.08109866186464978 -0.04115415360113642 -0.01573434605224465 -0.000876201150676914 0.03693136616501102 -0.11322102214377922 -0.004107935037963301 0.04006787874897896 -0.006377699404282414 -0.010237689454028042 0.04963709410526926 0.00846385070759536 -0.12213811634892417 -0.04684684166109798 0.012206186547614925 0.08558291985346238 0.046206577442575884 0.1697955585377889 -0.0007641176717360237 0.04808368289661821 -0.014625727863357307 0.03184895381841039 -0.05119797589945511 0.008880637460383735 -0.15037679002548485 -0.059639986760390604 0.006383478414292301 -0.029710407070906417 -0.05115808095056532 -0.04863003822237118 0.07887725883332372 -0.028413982916953597 0.0005871112767624581 -0.08108573493734221 -0.0629800043621272 -0.001520687430288765 0.02555119931615116 0.05664093015677015 0.051182998933334375 -0.06132235113278929 0.006545201012421229 -0.030715853040554346 0.047264088569645646 0.009935561642441826 -0.04713815556762943 0.005429139076469438 0.00235133689533717 0.003000121827429762 0.023229005045387215 0.062474589623836986 -0.00269031313400958 0.022299721105967053 0.10147001942519676 0.05192587043450671 -0.03364498922572042 -0.011695253917947184 0.03635376342456649 0.03305364021061639 -0.014096321399932325 -0.0421652810736433 0.013174292909352205 -0.025786185842309038 0.045348991313132345 -0.02533395927436104 -0.08091454287284539 0.02584411829230795 0.006534351708748397 0.03177248184432613 0.08812545157559855 -0.001446445014693724 -0.03079669452504423 -0.10156056784351429 -0.05085348450399375 -0.030932912033805434 0.05641873271636194 -0.019498046364351738 -0.04582046934333459 -0.11178604073557145 -0.013509222740072553 0.03143634854055118 0.017580652100367803 -0.056662906623981726 -0.06886130612286093 0.05724434117779889 0.09343710056951789 0.030438717576195304 -0.006671044024332134 0.05840378383161322 0.012701838499534794 -0.004137545331910144 0.0042129407092448765 0.0790763600656785 -0.03209185542051057 0.0453176720047932 0.09343111768057678 -0.08956115504580522 0.06690920640930259 0.03608663947841617 -0.0658093484673527 0.03416215819975986 0.025995553048154648 -0.015273983352656095 -0.05619686928468361 -0.0438381701841512 0.0982393636015345 0.012087511711626357 0.020205349452231892
artery -0.012509499676805638 -0.002993830644347847 -0.05785075534158859 0.11176654047314671 -0.05129325169726661 -0.0016443822992683191 0.030705154615997435 -0.09766250503238207 0.0007587436851740623 0.061563271257507844 0.015014817642855937 0.005081785182751068 0.006487810626767715 -0.014705816474618017 0.006577872077349467 -0.06759068557694675 -0.020205378168552918 0.007949596912812655 0.03762285488629841 0.10810651239601184 -0.027204912822536297 0.029791809038727125 -0.07191822592165327 -0.0851448261164962 -0.0900942956093566 -0.012790277177370583 -0.005656317353512227 -0.005526787723741933 0.005876792302707763 0.05762004147219241 -0.0809999143480614 0.11448999936435209 -0.08392045728491944 0.1069075427054967 -0.00830574414313808 -0.05860330377805469 0.0012158816175122018 -0.03851398323807238 0.025175832398009353 -0.05012582035463942 0.05450543311708927 -0.01586911118060151 -0.025478463251590287 0.02394048419247162 0.0205519126486101 0.013212705763904571 0.010610881526883244 -0.016732576086189103 0.05411587265981689 -0.03790820886363832 -0.0008228698776057805 -0.0584870582218641 -0.052617595706831756 -0.04074714369506254 -0.03714095114015457 0.002730993169448259 0.02478641855425393 0.028528403217117693 -0.04318233289471194 0.0511003710522456 -0.045926148547687645 -0.0869534266520517 0.12171105911188285 -0.02626265287459385 -0.005171664089911448 -0.08416392909785554 -0.11848761413081958 -0.001414640037830322 -0.03875120624690082 -0.006851164218938042 -0.10833085378254663 -0.020395757219199586 0.04963854152767868 -0.07352184741795081 -0.026282654385590794 0.018422369195397 0.11511416692522203 0.12242560723929348 0.021380874942579946 -0.04540588403925389 0.04061783138135706 0.008774480718908918 -0.06192058509032242 -0.035609553072000956 -0.06259060159676078 -0.032550981193500396 0.004489452696015212 0.04842683832758114 -0.048118343243086024 -0.09227659312034839 -0.013519400713324997 -0.006707779652962877 0.14306004906348307 -0.12849463561623112 0.03762122867680927 -0.013754266581537408 0.06134637985131513 0.047010320395096374 -0.027259631812584433 0.018278216384167142 -0.002694177906670146 -0.06240518201741981 0.07106884320786522 -0.048997755166162914 -0.030620241376450075 -0.024461120556899408 -0.06807778888325355 0.04852689170387911 0.007694823636981891 0.01027725192282188 0.0015596149361411086 0.009946476263267782 -0.05110583365082924 -0.026136618000749158 0.02381745040296493 -0.039723222099469116 0.06548758195910984 0.06752134050356466 -0.004788950429266504 0.053318464403168446 0.11666770338192668 0.03876199474548477 -0.08170738214644355 0.17069830876634579 0.020075690256445983 0.018021549128017685 0.027881582879274353 0.0726887055775258 0.026988534121141942 0.1012629225197139 -0.036182670720123156 0.053616322867348215 -0.05585889289338325 0.03122627417149383 0.011905954115757376 0.030032350093410983 -0.06594565624667074 0.039418104783491996 -0.034579002906934934 0.0908528863267962 0.010882616460627857 0.05997501659662388 0.07143729034244234 -0.005471759710249221 0.0027188910181080916 0.08853130620699638 0.008175877630307242 0.01568656417319983 -0.02439987676405718 0.04175122776725801 0.03929565801299572 -0.08304091607342905 -0.04781205158334968 -0.03403157500241658 -0.05436390860942858 -0.04831449337460145 0.007243735350011015 -0.00037410961713021116 0.10086327642157421 -0.0018862553554611198 -0.04795940958484091 0.09422568144965143 -0.08416990122950371 0.03535645114649712 0.1194104311182612 0.012517647547921687 -0.05600699155281494 -0.05586329487585147 0.09537581320156563 0.044449310241296 -0.1024336901849574 -0.0916942149637554 -0.09556754036802467 0.018022036878198866 -0.06482553017271503 0.08838668450587013 -0.03680699984462211 0.04266923056085215 -0.02697864608885943 -0.04836502048394019 0.04853511139472471 -0.05312693408246274 0.01839650417645225 0.05288620698154012 -0.013088347822819152 0.15511146938958992 0.03233202816866686 -0.05118360997177094 0.09991458926509417 -0.02887759050722146 -0.04705253783692903 -0.12352998451220865 0.07412310886348168 0.07521727984404261 -0.04816097976402747 -0.03375833766336181 0.003015851080127784 0.047759583730834686 -0.1275544396045627 -0.018763446637718457 0.040792865170033034 -0.02845649967215379 0.004589439629590233 0.034909736777308985 0.0027289248812779267 -0.0941740533316386 -0.062250212444479536 0.030213998472352177 0.07916282767981499 0.014740030802445197 0.17070790126880597 0.029382065289813845 0.061301281933854805 0.006821606424277252 0.043759438138642706 -0.04322043091727413 0.013493369958832876 -0.18008490425921767 -0.05591767317553335 0.019961781712462892 -0.04900165160921666 -0.052599452263428624 -0.03820866469615217 0.08316069163975516 -0.029146106833728192 0.015400833415102656 -0.1086017405734514 -0.08064856832351798 0.007027167242129796 -0.0005349993073974231 0.049494580137512754 0.025063447855912507 -0.0598094123372479 -0.015626140715014062 -0.028720696701900146 0.0361426390267645 0.021064020986871133 -0.03567104590020458 -0.005784236678054701 0.031290580897327336 0.036023113059974014 0.011960837828438757 0.04510144404941733 -0.022470316453101373 -0.003177903204289666 0.11801982168337823 0.03515451793528425 -0.05269145952385112 0.0010117693789093642 0.011767810082123603 0.013595085981296249 0.02089885419009391 -0.04577692849563813 0.033954117269111274 -0.04452151271508032 0.04780704651042381 -0.030214926289956843 -0.08793284821105966 0.030426205673532346 -0.019924651092309842 0.01060998315924264 0.08625682199487752 -0.0015238403595772612 0.0009632050716129791 -0.0955484600833514 -0.06626597410398555 -0.07940450663723908 0.06077285174223956 -0.004044065871586387 -0.04227929777837758 -0.11781088795330837 -0.04012276706140106 0.021756001969972797 0.02029448639382272 -0.07973656793009631 -0.05661451471386802 0.054199472269228055 0.10936954998181858 0.02295907354004606 -0.0008955788392979028 0.04965329376672029 -0.0010399162171539685 -0.01433145108716659 -0.026395237689121026 0.07473191331972483 -0.0406300265502441 0.04978515471287149 0.07246324877817649 -0.08571264572458488 0.07154462603136688 0.035797545259366605 -0.023913569790324305 0.010573956107159294 0.023892326960273404 -0.024203475789033466 -0.06694899514710984 -0.040589223015315624 0.10234427981226998 0.017158796765785876 -0.00014841167021860068
axon -0.01288541565261999 -0.012304940201064688 -0.05280273428645916 0.09620579717637845 -0.061038725605246986 -0.014273953001771766 0.048514808346367864 -0.0906352854168594 0.008676469973346488 0.05425780109871126 0.024928204925987425 -0.0014245471912882057 0.023261792655737218 -0.008099772268686415 0.024490133897502646 -0.050913125853866655 -0.011014269918094554 -0.004651919811802875 0.023519657319330405 0.09755822702135954 -0.015436317356106505 0.024012341815989754 -0.08634246231995917 -0.08444223766463645 -0.08869142599364739 -0.020658469421808292 -0.015007854460441545 -0.006583160075421081 0.015212383557192085 0.056479753235220614 -0.07877053086317604 0.10493706151644476 -0.07026881319154238 0.12948380006249235 -0.011706417158889891 -0.04140314321651538 0.002451920572008291 -0.010142595040675254 0.02405472830801538 -0.0638530412721536 0.04068330088464146 -0.03675873214436461 -0.030871942068551216 0.019655503654906793 0.02897731862983919 0.015234522300752394 0.020286514736315393 -0.01275065417937923 0.05434795490830322 -0.035892291224393975 -0.005049343501068424 -0.08013398234100137 -0.038299922334105535 -0.023165745092155066 -0.04310219943179088 0.0005614549864257673 0.014847468082117671 0.03184291665021354 -0.04818708507395979 0.056553326507284576 -0.0478686717553314 -0.08930125701762721 0.11931412774189357 -0.027679695201450586 -0.01707579532127187 -0.07421158798983996 -0.10357552905836492 -0.004975643925598655 -0.05900006550111084 -0.015031014817613987 -0.10486693895745217 -0.01959386953109167 0.064016201879261 -0.06226985047152876 -0.04058500108706707 0.0248567359929356 0.10378258039614939 0.12415265329806649 0.013079968909826467 -0.03211317466306732 0.05113211547383059 0.002077765708922386 -0.06233959394900483 -0.016838913384401164 -0.060798803634045016 -0.049718636512909954 0.020142376838110106 0.05032653118394751 -0.0491080145126483 -0.08998241085136285 0.012791392734224359 0.004492322678314373 0.14650457433513603 -0.11018994261212907 0.06856957298516932 -0.024346794925054562 0.06763069450577076 0.02882832533712141 -0.0358525982067561 0.010379403293460883 -0.004074458586625953 -0.051731390687876 0.07780126278230622 -0.06593433855866732 -0.017888740418414036 -0.010798138531591 -0.08676865076080256 0.0429302173507841 0.01138396419326724 0.01752431676689128 -0.010981221225889324 -0.013481511151660184 -0.0369960376121469 -0.04172121136224305 0.029975350233310244 -0.03002249960912163 0.0729698371364127 0.07451470355995331 0.013858519184862595 0.0571794017999701 0.10033483757246031 0.042889309768388874 -0.0964053929030121 0.18062969437875853 0.007562264489364278 0.009978469448147845 0.01887477769694998 0.07876735913259642 0.04151402406755394 0.10487290832882673 -0.03171131343571507 0.06490418633162906 -0.05480312477567549 0.03258111488754918 0.017010034304958347 0.030362547405007906 -0.05524616708971599 0.0281949453023601 -0.037998795669979595 0.09403481715617854 0.028834575725514813 0.05798167596476731 0.08316610139649094 -0.016763664903578196 0.010657619474013698 0.11202803657439137 -0.007908594177696475 0.008865043823473546 -0.01323047160517433 0.055380351494734754 0.04382893914637783 -0.09985893131449204 -0.02622315990254224 -0.03659259721167667 -0.055980652234363805 -0.060018413122609 0.023474904807109623 -0.015812515547374697 0.10543129307873944 0.005813525773154469 -0.05572518004238741 0.09296127424142402 -0.10817884743298659 0.042327820472163366 0.11474385266302303 0.010667117011757163 -0.04071269166907016 -0.051080869835307734 0.07627216959335041 0.036631734687678746 -0.09465113049447559 -0.09011656512401886 -0.09577304686833567 -0.0021071212524062183 -0.03574008338502397 0.09318899805504223 -0.02764060719877648 0.06353656420302876 -0.02062079526768201 -0.060476565720330756 0.02778326295411463 -0.06580532454899826 0.010472916919890664 0.0568281593369799 -0.010317968447661259 0.13939050714910553 0.05505662611349858 -0.06697158866664228 0.11351711928458712 -0.008720347506992764 -0.034816035651962736 -0.12170001278128084 0.07500322360276407 0.060377463299689224 -0.04588509033789103 -0.034612537485009975 0.011264446550493551 0.051326241279980145 -0.10998882248494206 -0.021480730312086735 0.03263179772730076 -0.02933976486456784 -0.0030817413952657696 0.03406308683404207 0.012077423572928687 -0.10424344152714023 -0.04178162809013567 0.042864820631185824 0.05235830301761787 0.03767463626602954 0.15812671398520267 0.025004568364292868 0.06917041179042416 0.00889777807262951 0.031142712744398556 -0.060906026849414055 0.023412423226574195 -0.19025569452732258 -0.06094044224884213 0.00012947180509820374 -0.03965564366120445 -0.04335124581965228 -0.046823469019840705 0.10715946863844229 -0.03229428091831462 0.013108899320674234 -0.08597556290627614 -0.08450655333869775 -0.013960085539681623 -0.01007666537285881 0.0523050311404486 0.018568212694767407 -0.05356600270373374 -0.019462269255498786 -0.029750420721849614 0.03208315499682023 0.025735942999074616 -0.03156742814674142 -0.011548467538210058 0.036207021965712974 0.01703229751637174 0.024981934232561225 0.04597894917614025 -0.003333811477007006 0.012755654494936056 0.11992585195123255 0.027060247994442985 -0.016740132170125786 0.012553242711299789 0.014227670126158295 -0.013202841438590017 0.007337810255893052 -0.05942928874967932 0.012061297439764043 -0.020835539407225788 0.03175496099745229 -0.030523146582785037 -0.07801268235454739 0.027860799807781587 -0.034444914451746314 0.017067931943171587 0.07295418334410624 -0.008386391304419817 0.007961731163260011 -0.10501434525167144 -0.06579986294367103 -0.05489129547940873 0.04604142707896041 0.009366133382678115 -0.053687769041027913 -0.1159258636933 -0.031405593344432936 0.007507867026441493 0.011159063262421609 -0.08453579259751286 -0.07524085118815546 0.01925506317550031 0.09280321067172091 0.023917451837016785 0.016091180246465206 0.058097706265861256 0.0151268753326714 -0.02061366576130483 -0.039640522263686244 0.06487064232755327 -0.040429143992597276 0.0534145156591218 0.08174603743929823 -0.08231263273181658 0.07043852245633143 0.0244563382230258 -0.05294902227579192 0.016461249868047603 0.0043261587160303245 0.00020062009576079446 -0.0655576345311944 -0.08115555757244254 0.10127723209646351 0.02699739724453615 -0.0141029247217351
benevento -0.04716599213392744 -0.026337622780936574 -0.03036096732334638 0.08485943581327118 -0.045861634908364396 0.023704099297688307 0.005540686109529404 -0.07260531596130385 0.012762076296120313 0.0995690021542509 0.034151812720243445 -0.023721299115360934 0.027297683040348655 -0.034424487324623707 -0.006388529017262309 -0.06878799448689578 -0.02133466708327726 0.008643980006223058 0.016881809147885035 0.0917318050288672 -0.06812652043298544 0.0720158738535518 -0.1236069086315339 -0.0805132113890034 -0.08502459271929552 -0.022218129237716006 0.023209612810675795 -0.02581801666983642 0.017486963810177315 0.055898823562736774 -0.07649411537293205 0.10681981272883338 -0.10652854663112298 0.12012389281478672 0.01484662785796393 -0.08045740149922147 0.0049571808599901184 -0.06772373138155288 0.022346614054979945 -0.06454660087357618 0.04985899248273109 -0.01434500550225207 -0.028231741863534377 0.010833384757338539 0.03976217033491991 -0.008589426438814572 0.00587469305371487 0.0032060718634284824 0.02713127297389855 -0.03749884476400781 0.03045032040797813 -0.053115023482653886 -0.03532013054204561 0.014307704352419019 -0.06724135787405387 0.01895943304568165 0.02151576327937419 0.06291219906693243 -0.06521380654332333 0.08765602445381686 -0.022485600620503348 -0.08297402174746546 0.12326501149504648 -0.03369416963207255 -0.009271066041902696 -0.08473767473697888 -0.09091669958161658 0.004207309922494964 -0.08426324173582908 0.002625106969356779 -0.09178895532501459 0.007133589500432595 0.044873920652743954 -0.08131894068973167 -0.04943948928978313 0.024216623035172146 0.10731556868140972 0.13521915160587317 -0.0037527702754134324 -0.03063630199470741 0.04094017622460082 0.05355006420217671 -0.011933502372905896 -2.1769373544947227e-05 -0.029494908693567627 -0.019998302649727333 -0.03340974741367387 0.06277556974161361 -0.029003632372513324 -0.0731202146192721 -0.027175006590103225 -0.049071439230743266 0.1361448387843778 -0.11886677638192639 0.05523409323199474 0.0021900817244177974 0.05342528125012161 0.045710545839349574 -0.024389008605478713 -0.028262883798004665 -0.011358868162269256 -0.04796290789307622 0.061046010682845486 -0.0309314723218972 -0.05282835462056115 -0.053176570984868485 -0.06709439123514944 0.02285558677827566 0.004616823181856982 0.015809562533779853 0.008268244743464433 -0.013170971242194856 -0.048527065824358735 -0.032765274117393335 0.02529015290477916 -0.038562931602174104 0.09099088081898854 0.07385810405546812 0.00699017567300389 0.06278807099871009 0.11545580005601902 0.07733338011366352 -0.052293420309336515 0.1543996669563527 0.008734760036786648 -0.0038834980739830874 0.0687660365535876 0.0787950810598513 0.05457014699508016 0.09148541507188127 -0.048373058177631226 0.05225690261707834 -0.032235433242348815 0.02017496338910667 -0.007596698799052613 0.03506535977775153 -0.03469122947973333 0.019660059694542258 -0.00800311094593426 0.07441767457769097 0.008675355967313187 0.04762589738739949 0.058202133422858335 0.023884411455244833 0.041324043697424165 0.14293133480704767 -0.014918021230452539 -0.011382951215752363 -0.03972956804751846 0.04840721146129638 0.03614409620618229 -0.0951136604659956 -0.03014364222678342 -0.004384055415982472 -0.08572183678859162 -0.05421226953349761 -0.005904022886536708 -0.019680196038275453 0.12207546015076058 0.005528890285596413 -0.05910660080334954 0.1027960778873006 -0.07558288124258032 0.03969508328100713 0.12560664827388493 0.0030214880749074163 -0.04540413525742742 -0.012698199971324499 0.12512036902058873 -0.0025473777359948544 -0.1100116435542664 -0.06696746928130622 -0.0929796234404511 -0.029255297919581112 -0.06818505337220394 0.08408974955410689 -0.010160423553373425 0.10133400384056257 -0.002331634012224927 -0.0322729104871181 0.038313338718066935 -0.050433610682305965 0.01291319329853455 0.05517911404204647 -0.01914715031895585 0.1359791739490687 0.03917118176269891 -0.06636609266019441 0.09702576818376908 -0.015638336762634313 -0.0013040776392478498 -0.15672992820001325 0.07075441185699267 0.08551060162806465 -0.05141957148640616 -0.022255046182032185 -0.019291613490486085 0.01657296076468784 -0.11071631232144065 0.006609544154820121 0.04502555195140825 -0.023735926653781495 -0.004734458259294899 0.04293690301023845 -0.007520843897720111 -0.09242391433873887 -0.05092932597648635 0.03807298709011042 0.09193039333741795 0.0487889138980241 0.18209780435736925 -0.004208703686912329 0.03865509779547759 -0.030916590889909702 0.04263133854828512 -0.02038887597919988 0.011114644285505746 -0.13073188441116115 -0.06135377959434612 0.01390203766224156 0.0036762813067025522 -0.06213313671538695 -0.0810850359080504 0.05975340106849038 -0.009159550112887247 0.03518744410062406 -0.0675640041409195 -0.05793641099485916 0.015373681210690016 -0.010627820826756102 0.09321748896908619 0.05577601810438727 -0.06540055901267226 0.010733894017875039 -0.028141078135407775 0.03726136608043908 0.024291494382858717 -0.0349787839369394 -0.01749467367377034 -0.008219320319836491 -0.002304343407284926 -0.023418133478018653 0.05430914505369477 0.01579237579782026 0.018796706086930567 0.06447318683646307 0.03848508193235643 -0.007882840587513212 0.01989404136895406 -0.0028700975663443072 0.052691432552756004 0.04234339001451839 -0.022331556487143554 -0.024541784624669803 -0.040288325439162706 0.0407911740887279 -0.041875831791095275 -0.07646574577410566 0.04599825927754639 -0.011083555151797838 0.009463229983543708 0.059172780392949716 0.02481597176721035 -0.0031407754264139785 -0.08821274487251739 -0.04245427998704685 -0.01262367727037535 0.0441037143967133 -0.011075799999105379 -0.043164530961724304 -0.10910398183432288 -0.02408304522711131 0.01011843484609076 0.013040609648633125 -0.055651115172220406 -0.07137821106703282 0.08244123653278299 0.12404524242916062 0.030391718900891707 -0.012401826522947006 0.036314372895804026 0.01901494641898638 0.0012578786116623048 0.01890315740495892 0.05818619157687745 -0.030571135097267308 0.020936525763452073 0.08479630503091741 -0.031543054374489114 0.05336839364787754 0.04143444643093569 -0.071159094707963 0.0046906282871533875 0.033561299003432014 -0.011139034818654726 -0.047739747591699584 -0.06307426011578811 0.08548468187889503 -0.020660034047029638 0.035829888464305806
beryl -0.03630261743336496 -0.012916923017615482 -0.045488416816616285 0.07969134000219302 -0.04913809661713193 0.034278054504713294 0.04427896040119545 -0.10517130703305316 0.027955880191483994 0.0908154678361423 0.02730662990202128 -0.001757452232276062 0.020128404750339925 -0.021804130807901948 0.03389572208677859 -0.07467612937128935 -0.047800514231915246 0.016036635111219187 0.012943587352693959 0.09421934815002027 -0.06968637766623109 0.04167051814681727 -0.10782052493013378 -0.06300075472131614 -0.09845285362737112 -0.024246175635476156 0.03358804593687614 -0.006316392953468495 0.00897626317734134 0.05588791760814354 -0.07684680358705065 0.11214948577935528 -0.07847495117963857 0.11092823041705616 0.011560914849326195 -0.0438910122103614 -0.018701387639624204 -0.04193785265599031 0.04688974655097853 -0.06000019203257788 0.025874597675171893 -0.029580373317490503 -0.03856852909939244 0.022976370203310996 0.03243261329712375 -0.015449458281212377 0.02676128880913248 -0.005420341469937624 0.04781754561164842 -0.038919362985195924 0.0017595454991380464 -0.06403223682216129 -0.005611772397858398 -0.0037751397222257795 -0.05388495120614747 0.03873797903130013 0.016427898521787648 0.06481010481091573 -0.05014670910284519 0.07367203780460589 -0.008563077639554393 -0.04973053900341606 0.1093173627880798 -0.04491168555752814 -0.010812115701584926 -0.05553238013946281 -0.10218575222688184 -0.013513416112882115 -0.0667461190937785 0.002632273537107189 -0.09424054878350353 0.00047709262461951375 0.04147799503095366 -0.09313406270491636 -0.04373213169293152 0.024996449143150835 0.11452058854754912 0.10722970933341196 0.001453903618249406 -0.028579863160103948 0.030539544230387992 0.03544470340692887 -0.034418830469074534 -0.02106362045340397 -0.04130875192693731 -0.03535325752502585 0.001729574778172685 0.05147324103124589 -0.03852426879552234 -0.05376989769681308 -0.010708787728675418 -0.010641667741983786 0.11226114955527114 -0.13004586177958488 0.035672044276655226 0.013056258126725407 0.04917783638780916 0.07867330692387721 -0.04377771181319412 -0.008266697728088612 0.007225562842580525 -0.0606478638423367 0.062030794016486174 -0.02130649594028262 -0.04324173271099334 -0.041643344401030076 -0.06990930851969024 0.04585326179121464 -0.006135233010210234 0.008680174268842471 -0.004424740833371443 -0.021685654601814465 -0.0478420601848177 -0.025023471293724033 0.0029214534371645863 -0.036132131037430494 0.09335224758766816 0.048436255112280655 0.0008082529348513915 0.07001333610755084 0.12499472014741035 0.0451688907832204 -0.08457162299256119 0.15444678971627082 0.0346878039090215 -0.013676502216214829 0.0737103037773955 0.05642752507576331 0.049429315125557656 0.0970780730570363 -0.036395543073427065 0.06709417578561958 -0.03851588476965829 0.0544671648660801 0.01693687521356013 -0.0006430288047190716 -0.01958745515070109 0.017048538838753766 -0.024728169197453482 0.05983310537319574 0.006052833674869353 0.08558219620318024 0.06951414004870475 -0.004733566688869078 0.029253296194245163 0.12817309798986812 -0.008901298291743817 -0.01253897913239369 -0.01981496100065072 0.02224181669743463 0.04918916184105765 -0.11266414975084592 -0.047523520757288426 -0.0425694444774713 -0.07635217812570504 -0.053546051959822275 0.01391416523172091 -0.019641770245102465 0.11119469628626369 0.015710468016323875 -0.03520079465071038 0.1103564924098552 -0.10756015706530363 0.019229471254187436 0.12611123672476118 0.006500735574532746 -0.03286092880391573 -0.04098959661981629 0.11464102549509454 0.036551102949454045 -0.08687323004100658 -0.08076016501885043 -0.10065734655305585 -0.036569689127376424 -0.05257977782065974 0.07750043172361452 -0.009691515141133176 0.07797546526254061 -0.002040151077618539 -0.04084660792395627 0.03789211356553811 -0.04745279703750254 0.039664784581165485 0.04058927271107255 -0.006702926049540654 0.11248787391368995 0.056243954795093115 -0.0256793915762718 0.09329278484247908 -0.017797593731460577 -0.032783548214805516 -0.14065524805002463 0.05976991676335152 0.07172563997664005 -0.051571693304109295 -0.011297912932459483 0.014232932074747566 0.045251983304104175 -0.12903458704801427 -0.01584377760308941 0.051492127371568476 -0.031129103664796907 -0.014621829409234207 0.045080965140381395 0.017236608338669458 -0.10630475617868944 -0.059417419939605975 0.020113515253434227 0.12196618402871319 0.051913354707608744 0.18621115883941164 0.011411671057868234 0.04066781763318538 -0.02088260904365587 0.019444574741032474 -0.05249601114076985 0.018188500131833544 -0.13706696952222236 -0.06048798824343616 0.027362947146482713 -0.024388380169205415 -0.04153461899490255 -0.06064967352679786 0.08637087705288675 -0.031625738722606524 0.005162899570723069 -0.10206490183227311 -0.05066337266726529 0.008432569330785077 -0.01159233261744168 0.05616954615230449 0.04504080236927045 -0.05678108339984464 -0.014446074604480219 -0.035356047464520646 0.031571528448326495 0.00776843120339015 -0.05328349243186376 -0.02626213582594318 0.012044006037355783 0.0039323319592818665 0.013312494125290477 0.03748242632134384 -0.006390345701342998 0.011659282912018476 0.07915635630607953 0.026556117577334143 -0.005328698979372801 -0.01965033988429403 0.017260378403187386 0.03729935179940618 -0.00304082920312007 -0.038753391029254916 -0.006453716279147994 -0.003801838811646753 0.03480549271675898 -0.03472152092461344 -0.0651894567766287 0.05273160792579304 -0.00932209128496741 0.018286932221129964 0.08694028430908624 0.026171041028569136 -0.02029092524453195 -0.10301148894928909 -0.07891915665763422 -0.06146863750213954 0.09224880331020624 -0.030679897955875595 -0.06695929367251162 -0.1159549347356722 -0.03938472239257507 0.03746200952758606 0.006331222139287493 -0.07027114686655107 -0.07094960547327557 0.08517346042274347 0.10665593687745066 0.021365025486962563 0.013180829839167022 0.06606388704713459 0.008859344943589 -0.009011799132307263 0.017595092688774162 0.06879958358040039 -0.02402960827499813 0.03484631604554484 0.09991131300479901 -0.08361287549648592 0.05612523092960148 0.056125763854672446 -0.05249582477009101 0.022489534840217994 0.044247437148454576 -0.02039236438569634 -0.07007301392637845 -0.05049333255212129 0.07758336369098319 0.022783834969547327 0.0281487026985957
beryllium -0.03528962504696251 0.00035824599964569037 -0.04857038466821269 0.0789553468536018 -0.06692088508135155 0.00894839987928082 0.038687482668625955 -0.13373900113487155 0.013961293943134523 0.08215862966288255 0.009683324363947025 0.01681014861763609 0.013034858097562704 -0.014349234546349073 0.024976891628285917 -0.07127313967470135 -0.016692731627141716 -0.0004087727919956117 0.00890856140585008 0.10644642670008951 -0.032247357398636045 0.02093252536661217 -0.08576462024605462 -0.08399153663493696 -0.09893871862530496 -0.011252470578489967 0.024350888801731363 0.012421347715711375 -0.0033326884629179964 0.08342855694731201 -0.08118949863832622 0.12052318484513545 -0.08236021650469998 0.10665141100371806 -0.008722580877753931 -0.03987684008515851 -0.004832181814452508 -0.036562648134492115 0.029500467604899393 -0.06296511550102908 0.03311329019387016 -0.02085664397324068 -0.02897600085146401 0.006366587215444881 0.03327592496945774 -0.01966388170714641 0.0207490497855713 0.013659825812460944 0.05003346762382155 -0.030053298546718406 -0.00497467751845189 -0.06500750256491315 -0.025000528243563674 -0.022053336928743242 -0.04775896511060521 0.019244361168242297 0.026065316360411612 0.051823106275890915 -0.05715241170268836 0.03506797952108068 -0.046563683799685354 -0.06360109415220562 0.09196557569100444 -0.04140675569439035 -0.011618291795917716 -0.0875005133808673 -0.08943822898458235 -0.0037793721626562028 -0.06193947009898845 -0.005662428972505044 -0.08571954842199334 0.00419873399163694 0.05097104042284806 -0.08401291375039334 -0.03482042104575054 0.023299279001900996 0.0875803055897654 0.10213422125172192 0.007243304145966363 -0.025043230746175857 0.06675787981853065 0.03892182056931991 -0.05483305049588823 -0.03498001603590922 -0.0350708089008779 -0.04395446094988508 0.008813340250887756 0.0442163806504647 -0.03805607309755884 -0.07194603284280467 -0.004407768903099084 0.005187334037138038 0.13337015399838534 -0.1335481114384251 0.03877187416601936 0.019675728079193343 0.042828974932140225 0.0630483441235317 -0.04142261354250559 -0.013177657234593796 0.012351265853536124 -0.07367860089127716 0.07614568271775776 -0.04698656360892557 -0.030941661461215762 -0.04003071106889179 -0.0905021912415702 0.03326131027233568 -0.0038131528247701534 0.02175164374401636 -0.030625835656700257 0.004050942012904508 -0.05990690985592941 -0.028960837082642608 0.013356719204534483 -0.034900156803180205 0.07444665699515511 0.05552198561747404 0.009742133104618442 0.054038044667254696 0.11789917655706796 0.02131791027738676 -0.09960668870156071 0.1570497763643507 0.020378001931195464 -0.029031131112032645 0.04591584262427076 0.06942308454621385 0.034958628184364626 0.09898553430035045 -0.021227389877908794 0.06044672535182149 -0.05015499605620458 0.04579258215305322 0.023932568673786028 0.0049005379857765975 -0.025660802220709416 0.042327270344813164 -0.015319401828137616 0.07435408656755385 0.025078208798128387 0.0801820120598647 0.0745009418802387 -0.013855965356318379 0.008431319526892793 0.09384932339093355 -0.008194112274786863 0.01179098273277183 -0.016612119870457673 0.027643814898245862 0.03923395835656957 -0.09708316214943831 -0.03138287527433799 -0.05037311925508187 -0.06137309067216853 -0.05129834283457904 0.03066942703297459 -0.012668006674773897 0.08947082127025774 0.005130473096756552 -0.046036080947605446 0.09603203032169248 -0.10402400371738933 0.002189946664920915 0.10469044321381911 0.030401839491177803 -0.029325348691709486 -0.05202128948914043 0.09837691567937129 0.023863186227787977 -0.11408156728669178 -0.0851111242475607 -0.08245525552009166 -0.011035271140769812 -0.05635871551901622 0.09247900703904754 -0.04047961841996082 0.04746104661597185 -0.01349839386120239 -0.05316331313948403 0.03315850261949547 -0.03793448153411707 0.04881264635598946 0.031886291696297926 -0.0246939968103094 0.12159351507549387 0.05219844251630495 -0.035886800111801065 0.0868481084554469 -0.01486257805729845 -0.05561764962497988 -0.14012928171466263 0.05900845413767202 0.039454971460332146 -0.05915870847116383 -0.03566979242821484 0.008884405610981637 0.05608618597538372 -0.11236905328284996 -0.014315112168697177 0.04214582295004634 -0.037357768960188276 0.0019020837072107485 0.03807958285618999 -0.005582179544594162 -0.10552540693418064 -0.07332419053134062 0.022671164132365952 0.09615549649846893 0.05657883846204681 0.2018910090495585 0.0066225151202346086 0.04866755218557009 0.024033062500803608 0.02906287495629816 -0.07339261471281858 0.016033550085028794 -0.15584932204833027 -0.057772494564895104 0.03053104527476016 -0.03311036304429062 -0.024441605421688946 -0.05405105605547401 0.08718183973917193 -0.03221695117679499 0.021472846554214105 -0.10275586624382477 -0.07936367184705338 -0.009814617764750375 -0.00873846082199371 0.05154969504562572 0.023886428358893 -0.07674509812972434 -0.025000076375570682 -0.020658366051485483 0.03200032201102304 0.03275316669654153 -0.07526526131749799 -0.028276594392831363 0.03860207568578533 0.028079084817494392 0.01327161176665708 0.051656924444677996 -0.00681400506037124 -0.014629198020356754 0.09479083497664492 0.042205668820850084 -0.037386816787307826 -0.029793414454487497 0.007998340384439542 0.0102140799855373 -0.01218917393667206 -0.06095799939923219 0.012136096818802657 -0.019279205940462136 0.03552127088706825 -0.024104568582773798 -0.07107589678567891 0.01524527916543332 -0.009518858182464646 0.013502169239897872 0.07410226525258466 0.00977875559368881 -0.006666057646890264 -0.10823769679067699 -0.07579018360919154 -0.06466872690626134 0.053346752190753126 -0.021132595860621536 -0.03247324402808533 -0.11850882992094852 -0.030274962698547743 0.03585004235836344 0.009775058841466205 -0.08069299960486517 -0.07913417580180723 0.06515785845336029 0.11550623137354865 0.013786043682628452 0.0009392806492829087 0.07220188417147358 0.025043346713607972 -0.003224490305083712 -0.035174478901147235 0.06261852919072242 -0.03367362012567096 0.05495409420448362 0.07126714030521741 -0.10754185953003077 0.08468614099997994 0.07244382275165043 -0.03732004661589099 0.0237948972215767 0.031389200346216804 -0.021515036836643207 -0.07226800283533519 -0.04219683470547442 0.09700848708420322 0.03491845537500407 0.029256918425228456
biome -0.07026847455540605 -0.0056959147713178315 -0.02414269990742751 0.1236887439887207 -0.05011796861763544 0.027180046381758336 0.0665065556655651 -0.08294588179069275 0.02552962829156526 0.08278875158214709 0.027568821363106618 0.022156989102616688 0.033762696411461644 -0.030407872846976495 0.03245565317368849 -0.07432688674495136 -0.030741041255600017 -0.0003950459440600052 0.029428559713118987 0.10697278679603381 -0.03540244608879144 0.04595017580631422 -0.07651926292299796 -0.03949577395153492 -0.09698215969361068 -0.042965199820617424 0.030952618478956227 -0.020024907113781642 0.028945369519593516 0.021126366070288102 -0.04935602375301218 0.1317680194478429 -0.11261069160356017 0.12155481262029977 0.02634151742751336 -0.046361734057277504 0.0313387468876161 -0.011881164693883117 0.001450586159036642 -0.06196593137899778 0.05836330124474446 -0.007043140761749891 -0.019280010890534605 0.01844433171511771 0.052410035579739 0.016467019313611445 0.02818748742093634 -0.00047780717345293345 0.06873339370402705 -0.03306885645842235 0.009110140810381754 -0.05979562649363371 -0.004689449998680756 -0.05811498518933027 -0.024073985538227646 0.05698875933538525 -0.004501985317740881 0.08021347417334275 -0.016397866243183856 0.12098019891481554 -0.07191906237819402 -0.07166676638861992 0.10934396285412759 -0.05895487110824532 -0.04135913530409402 -0.07324514198092373 -0.11735995881436521 0.0072819126687597 -0.04997890883295088 0.009062060450622413 -0.08968162174607187 0.01595005485946815 0.05481353482964021 -0.07709162710434701 -0.04427488069377921 0.009795657254415113 0.12798975734448273 0.10438347758491925 -0.009622733228626536 -0.021398315212889322 0.01778268373532024 0.04376394973530387 -0.025926821637856916 -0.0280122381669757 -0.031564092328225817 -0.04398297921129515 0.011140601344022017 0.08323133121524905 0.005747564816575814 -0.034776723912814306 0.009454419154371181 -0.023737465053909428 0.12794551045094962 -0.09686518278877529 0.05075679394740796 -0.014396560405285223 0.060817649121961456 0.06478415585837101 -0.02015769146994546 -0.03622975005768299 0.03306986125540292 -0.07643928084467722 0.06242148654586791 -0.05398216703654484 -0.057091234673480866 -0.030681405892380047 -0.07173856616619281 0.04991895680479435 -0.02783108532903754 -0.025180107569329663 5.0831510726981406e-05 -0.009417108508744011 -0.04140205615560461 -0.027693206372474962 0.012168846216116629 -0.035009526332290083 0.1053296646792374 0.0761093948164719 0.013087174272542737 0.05073915635588632 0.1303173760385805 0.04849001259336976 -0.09311487781782367 0.11797381495725084 0.03280216652192762 0.004818635333624482 0.031149769922121314 0.08558956226240566 0.011753909056484949 0.08715253771516898 -0.028327065218657174 0.06444506579638774 -0.01973028530107248 0.01690444997339137 0.024486035084033356 0.005825819651427422 -0.04440995686540374 0.0334458912601965 -0.04052853187854324 0.06656110720018182 0.035383648902593094 0.0980464232031999 0.05928100238697112 0.03662660539943374 0.0011954046707216759 0.12167936959904031 -0.01405467733522377 -0.001973461426475103 0.004934946512405423 0.02097747641753133 0.07491407015131273 -0.09765295327080271 -0.06872234860828623 -0.062436301836100945 -0.051199997034109594 -0.03623187017383162 0.00025734526097260146 -0.029847805703836782 0.0976137144044044 0.009303853468608769 -0.0184656585126039 0.11549724707124465 -0.08594980591823162 0.02348913724776789 0.11768281905645359 -0.02478667274197188 -0.06327297771282925 -0.07793125710132008 0.1061907971553773 0.028218761732192045 -0.06558132619752592 -0.06348070171038704 -0.10028847140249343 -0.010644937523099786 -0.039818240409374386 0.10014079757804466 -0.028916069566141005 0.054936806707215145 -0.017161563486489277 -0.05921437784322857 0.010703311064359667 -0.01718002639958942 0.03442541224869417 0.027490617152782372 -0.018991474194459772 0.11095607624046958 0.012008047604593265 -0.0072295457672904755 0.07698489376904677 -0.003045317650248267 -0.0049629760114372175 -0.14670342475794457 0.07440034097804979 0.06954943981341061 -0.027561667408392065 -0.0030697346282300354 -0.0037272834801483678 0.015068686549635365 -0.12729588814012271 -0.02045424773851562 0.02983461050341724 -0.024733930234732204 -0.005015471147550687 0.041910551630172765 -0.01682465803309595 -0.1533887205932736 -0.03666010449708546 0.009661346932831856 0.10410883878761039 0.053455874242470246 0.18441899985092627 0.014839466734931427 0.05163593976716284 0.018835576765979297 0.004228615800599814 -0.04978096913808323 -0.007311035298328245 -0.1596021869878452 -0.045775729566959945 -0.02384061171272449 -0.03093266096520806 -0.026833835391951097 -0.04965789985082303 0.08082786363268672 0.0019746186396165013 0.011774169252019365 -0.06791820495106049 -0.0689951221189987 -0.0024776193356191396 -0.004227109469142346 0.009586297344696387 0.031162048058496643 -0.09191914403020046 -0.010189069488496384 -0.01537186562056675 0.0271174564991807 0.009106020852940341 -0.053187449824959786 -0.0036027462479557345 0.022321547091391815 -0.0018144810152261298 0.007280113023274201 0.05550132447670079 -0.048818186792174215 0.03215492746179031 0.07300632909857849 0.03745816041152322 -0.0364071887954129 -0.0348403572480474 0.01669655053330042 0.04359361853313046 -0.006239920765467946 -0.025769618884261814 0.021769965633714035 0.0009288226014842864 0.026347244857392513 -0.0508855355832531 -0.08810859802395629 0.06960667362467177 0.01711766815798914 0.02297088544127896 0.07112499537419724 -0.007818381003623332 0.009827933532059872 -0.10595445093768531 -0.05603892558432673 -0.03723940393713361 0.03420868108665821 -0.020694893357138984 -0.026013997747750962 -0.07975781955891893 -0.008658024019284503 0.06099841511152234 -0.014632580964171285 -0.05703077733627838 -0.06547944166528272 0.008939590419373401 0.08516729583474099 0.005764499459560655 0.007612773079660425 0.06872802615814 0.03651341078129673 -0.03919941847549375 0.005983463982429543 0.056334132628001465 -0.04271636154776395 0.032160281965699214 0.06820233238782936 -0.09031892806647952 0.0591683151774008 0.01661898194494699 -0.04185026788338608 0.06558231973922911 0.04146054503933164 -0.02254174936350426 -0.07824750032428716 -0.044360477439041944 0.1460613368604842 0.009825606127094504 0.0032580779944614536
