108 300
alcohol.conllu -0.023910038442601745 0.012638319377575861 -0.10477117544781711 0.011094203876591836 -0.09119224358132785 -0.026262771040727866 0.0808188104189167 -0.16694925676236488 -0.001561462066610589 0.0462132197962733 0.014390302065340256 0.02541528507171302 -0.0409182338475157 0.029830700773426793 0.030782032333305245 -0.11524974771035354 -0.03371558305150165 0.014065953512267226 -0.007039519253758778 0.11513520605742424 0.010633240675101501 -0.028733153415941397 -0.07424928750015473 -0.08598075566745123 -0.08048737384655273 -0.004123008755282712 0.02342837272484888 -0.012244524420892083 -0.04917921145816731 0.09101595162730981 -0.07943757077467943 0.11251846603780319 -0.07182080214141906 0.09536620108384877 0.005366566281582718 -0.04662840279410308 -0.016907853971305672 0.021629130084211343 -0.020716456492002672 -0.02009034123558817 0.07135867228877488 0.00030047560783419354 -0.013105634093292986 -0.011433716673367074 0.044773668952201966 0.020423681961105725 0.035012032943339766 -0.018956013275818164 0.010470463190572835 -0.041056230892481206 0.0032302774937735114 -0.04965683587657498 0.040596570902959435 -0.08015962776960325 -0.07498156201987649 -0.006876279453182624 0.0336065520906109 0.03640012927635663 -0.016594942855889618 0.001757366173811867 -0.045367089212077126 -0.00779307911381488 0.05196501629436665 -0.019118988640565247 -0.0036401573965897144 -0.08241634562550372 -0.05156923194922565 0.013187740343135253 0.00027326209015011277 0.011106548453394038 -0.032762958496913734 0.01594148941372861 0.10617906482120663 -0.06642314417523504 -0.03541389671883445 0.04846557635409882 0.06237778538987616 0.0961976186015769 -0.0191650193844875 0.0005208031226141215 0.09096472114596131 0.012437649770075164 -0.06835564228555979 -0.025685066568021414 -0.05280296294803703 -0.03568046180895644 0.0414659793778448 0.05629991627038248 0.007050526860792268 -0.03192461282111254 0.052249532911790256 0.0006663513814517591 0.03710241099909141 -0.08652445109547859 -0.009245354430504657 0.00746817914908801 0.027122613031882164 0.0964077545204218 0.0005178767530497163 0.01268694309426581 0.04484878419956761 -0.07608177412900814 0.09142584758400003 -0.03170151551799141 0.01891325505619218 -0.04326439773290637 -0.07629665114593794 0.07282460183640596 0.019933031612031842 0.008361871726538662 -0.06317335191532085 0.027155837661840456 -0.055548084042026734 -0.011053698983046754 0.008708368704327304 0.013797726443271109 0.03789192527236471 0.08500006693152012 -0.0204623037695664 -0.013699619705238619 0.11062470037740305 -0.021526964056714806 -0.09486140298736451 0.12274799816319892 0.0017071290369414219 -0.06257123746889041 -0.02246871898291676 0.053434408465704256 -0.020873262246765216 0.09747387656073908 0.008866692312976638 0.0006780888165204794 -0.08369239875825402 0.0411209462948381 0.032986063758665814 -0.015280370298429893 0.012562420494430805 0.011005416239685728 -0.04842317849886541 0.04534062049129317 0.05674613942172128 0.07952535526151179 0.06301092389623099 -0.013310625739126537 -0.0022782081045903285 0.10842524103591154 -0.0050193183747424715 -0.007753297171015435 -0.038299104705782246 0.012811800248447134 0.07407021319560009 -0.12058326324569921 -0.020564035083513958 -0.07800825201991103 -0.03327243546652909 -0.01444993361983788 0.03924385536087225 -0.0067931221316674855 0.08178184717183239 0.009743546639591759 -0.0075864731603592995 0.03714853062744519 -0.08777119755529866 -0.031798243471262755 0.08328145616175284 0.028644516337569915 -0.03539396765146396 -0.10402344176189848 0.08401663105793551 0.06983931968256867 -0.12642877427444332 -0.10646752947256344 -0.06760640953474628 0.041475956511001257 -0.030020738542016076 0.0553190732522583 -0.056570675741517654 0.02331584032848279 -0.019934448586012447 -0.06964579152066695 -0.0029098245154795415 -0.05538811296347893 0.05037105140431712 0.030659545180161497 -0.03570803258583449 0.10270706947857251 0.07487692624867183 -0.054482690529376834 0.05298417444403542 -0.04547888376021728 -0.08053090299806896 -0.09629622022909379 0.03450745664860852 -0.002220072268901079 -0.08223085966594111 -0.012355402550815768 0.021808493865723564 0.05727071863602632 -0.091055146693388 0.0004409158157627806 0.00551489360229357 -0.02180794927482199 0.031632356085835006 0.026228139447368248 -0.011134611208783726 -0.10555871640785082 -0.10359866510989436 0.022831523903889754 0.09723821615100564 0.05881082257046901 0.19312810989937135 0.014721269148068289 0.016198412848370418 0.06127343576974632 0.009926424706794468 -0.0612446073703446 -0.013000671321136652 -0.11990376584322601 -0.06457170548244778 -0.01000312962560903 -0.02651055531699211 0.03347975754930485 -0.009701636502157246 0.08935053569971006 -0.020613092432316116 0.03425069629121298 -0.07092477340573378 -0.1584297644139937 -0.03461034514050562 -0.020467347667764913 0.03613944415006209 -0.04639012086023732 -0.0326646628793039 -0.07370898287950055 0.018938313101763422 0.03514052682465516 0.019385280376319727 -0.0683579216549233 -0.0052017828260910205 0.03380378519225536 0.04136736883381433 0.006817213079129221 0.03629183717347893 -0.003977952738807961 -0.06038332893235087 0.06961361681725411 0.017468257367607362 -0.011529865718237806 -0.06459290178299885 -0.03311840315545766 0.0017647643715698325 0.0027733939115529593 -0.09000428288424309 0.0162618975518593 -0.004709834192256163 0.022019584054639663 0.008175808459356176 -0.10360740620005135 0.003582757960390459 -0.02539674636601637 0.005977926108187326 0.11022463274684957 0.01652223926256706 -0.017251975555930193 -0.1417476972133008 -0.07638505058676105 -0.05044200186040539 0.013462271338536528 -0.009523431648187974 0.0077498257130145945 -0.09371250115447845 -0.07065878909184335 0.05952426372693997 0.015304463863135059 -0.07709714384117541 -0.07115857797000559 0.031938449428497225 0.06071666996961884 0.008274706614781956 0.02742349936714695 0.10183296371816707 0.07512957540523173 -0.03840796491992013 -0.016748898139657416 0.05684775806074676 -0.039798685944625406 0.10103164124037581 0.04004351672467375 -0.13939604544960105 0.08781656980947489 0.04640787075861358 -0.016060141532516198 0.040708639019249884 -0.03531482479126198 -0.11039134265865501 -0.09049108810785057 -0.015780180015703943 0.10161879894872061 0.07676899863486449 0.00013272838970345823
allergy.conllu -0.020366946963831466 4.254388394140841e-05 -0.11133776734721088 0.08038975938173662 -0.0851037889899895 -0.015424021692763443 0.04267097328682588 -0.10856373282951022 0.005632649759631847 0.036860899063033595 -0.009226236617846448 0.0697422697883145 -0.04476086338920445 0.02423102632389807 0.0466729103324817 -0.10198636124793614 -0.002325509135487464 -0.02003152604346063 0.02171076559193228 0.13039685660073808 0.024230990122478743 0.03710976836214667 -0.03990118951167126 -0.09257731512359398 -0.06691287614215548 -0.013255696524900022 -0.0032299056200661242 0.005391167052056689 -0.002084008175229332 0.07630497563948492 -0.04952860883223354 0.0994564436732576 -0.12356258454821732 0.12055893259978123 -0.014106629713561887 -0.026679150855857516 0.01614856889533256 -0.005569943639839851 -0.012496887876031497 -0.0303773606047904 0.03839564972276003 -0.025443871902224857 0.017341057794477255 0.016311027820003713 0.03724488438301365 0.016069891285116936 0.045129054169166474 -0.034512905631499544 0.04259208618901739 -0.03862149679408324 -0.012012789457844833 -0.07097089511685772 -0.027027766292285343 -0.10076268379437345 -0.05736433776525124 -0.007316704202515708 0.013145005270957534 -0.026962357972669212 -0.03334026783658112 0.06915087714580624 -0.04560817729915946 -0.04929003740230834 0.08279074977524259 -0.051999218102223924 -0.011347447564306352 -0.07694722058445819 -0.06400803912540334 0.05057698826663135 -0.01628801092942243 0.01406902336703488 -0.006183637013030775 0.001614198317603278 0.09433630054285527 -0.0790509748040089 -0.025732770281816964 0.04358438383436709 0.11685577026280425 0.10603915831146667 -0.027009456290591247 -0.023323650052865703 0.06403398633790304 -0.00605719201466963 -0.044891423569003816 -0.05606488174323201 -0.05379718054663183 -0.023945353068183205 0.0006985634445843769 0.055558971598141965 -0.01694645553943712 -0.07885459456875885 0.04883781198044255 -0.030088659159181366 0.10743247082704914 -0.11899721373697113 0.019169576137022387 -0.018861561982349995 0.070081042464625 0.05911509015453959 -0.03356792909522573 0.0384807227709461 0.05606209473097196 -0.04702656195265274 0.05328054283656793 -0.06866944260092755 0.016519497960439295 -0.012259451005744115 -0.0744753487133082 0.0455349138540111 0.023071179399570575 0.030615086136846062 -0.04435070561700166 0.01879538925085416 -0.04711155800914355 0.004005685873095573 0.010165452134099778 -0.02768047577069516 0.05035832743358751 0.027838901069625027 0.00013825209751324802 0.047268647813788305 0.11667991104823415 -0.028553013749377906 -0.0673654551330206 0.14243623964140364 -0.003234427071433627 -0.019891422156837292 -0.009821253622747798 0.05476485679082043 0.009287636513187413 0.09551217250393261 -0.030930519665655035 0.06153204828653593 -0.08504763039924979 0.0266126012792736 0.04323621389324561 -0.006831049523897685 -0.0793283780671171 0.019928366524162258 -0.05349673279732479 0.05641719789146562 0.021405091580871092 0.11196786801106826 0.05007486326087739 -0.02662995714411236 -0.011546845698045729 0.09294349373944873 -0.006457173850246502 -0.012222036628317577 -0.008724796408479008 0.031164667671216128 0.058267411218152765 -0.1060273339369295 -0.014049804176033924 -0.037993975677267984 -0.048211751698459517 0.013846019964483536 -0.007840611867659875 -0.006803218833968699 0.09742665394615511 0.01210693450653877 -0.014191303970102464 0.06651984782320501 -0.108798132805132 -0.022999510671160964 0.09688843570290444 0.0655460482203569 -0.032289232838091715 -0.08687079222571849 0.1083452805989554 0.07592895512869634 -0.06496567278798032 -0.12591628455695816 -0.0967473898356693 0.04140492232266716 0.005178920821915831 0.0632028230281779 -0.07134586847514005 -0.014064907408654492 -0.0738047339919701 -0.05001923330918579 -0.020901875728372977 -0.06691313198421864 0.029178369762693016 0.0052485549172678995 -0.03284503826809734 0.10289321849963244 -0.003286702870019143 -0.034996551389959336 0.06832495641263116 -0.03018311918362391 -0.06857993771210226 -0.11957166017849744 0.052105558579164615 0.0497711632235314 -0.0583856606826048 -0.041461247979202594 0.027327651370215367 0.038427652339259356 -0.12075338574098092 -0.01873501002902896 0.03060309574859203 -0.013561560852143979 0.023676070377940943 0.0064514190622372335 0.049822960661032076 -0.08850122246315002 -0.08708853677315449 -0.013678594437179193 0.04992417355705528 0.04030129224450711 0.21780417816804523 0.012229021748699246 0.08054207478395069 0.021345215657320792 0.012399764384929476 -0.05464903089319981 0.0032842396092417387 -0.14325843733160432 -0.03460476389977747 0.03752471258274507 -0.07413653922557553 -0.060529064200837604 -0.04362418770809021 0.09564002822635718 -0.03747877345364333 0.03699207299573764 -0.10287650354721191 -0.10753843516087976 -0.01008330758438241 0.014987292355088775 0.023151822419447538 -0.01575634060690162 -0.05223343913982964 -0.002990506731624063 -0.012740853344930294 0.04832353352848342 0.030257205846046728 -0.033797388085970395 0.013633618347491232 0.06857684699405223 0.04164454575684704 0.026944718390246987 0.03826686927791715 -0.03221275316134616 -0.06832343077106698 0.14399070663100808 0.004127715437681746 -0.03852127797155059 -0.057906845084560905 0.04223997693469822 -0.013016714043250732 -0.00695554922523638 -0.054878071319767865 0.052433693790099635 -0.02043551296577557 -0.003097755015306878 -0.016326543789717117 -0.12031814792155393 0.02526140756920288 -0.005388914580746917 0.02059727323641177 0.08438971482050302 -0.015058377539615649 0.00042680443044233035 -0.12270454929815902 -0.026402309460466664 -0.06520873524579532 0.02467739031181493 0.01158630759380035 -0.024766741149156807 -0.11650188237902333 -0.02417937447810336 0.017606787142300417 0.005089513622928722 -0.06917418882611431 -0.046668546923994254 0.027163217762416227 0.0662597358259303 -0.0012238723815846707 0.028338832270069367 0.05171891599967681 0.023827390933949696 -0.023372226903784373 -0.030978788618006587 0.06536142745808335 -0.03500074243902181 0.07894237977027214 0.03993835271900026 -0.08147008711503051 0.06364013757754845 0.012537828596018558 -0.0006517690915014576 0.043340525310581704 -0.0212292597244061 -0.0897072832051124 -0.054658527804090556 -0.013897832369585176 0.09416003070490048 0.08085203949113189 -0.04578400529761711
aluminium.conllu -0.038998359351817294 0.0029743082912916667 -0.0622118274243037 0.0695616164069478 -0.0900460414820004 0.015473814501118689 0.06861121479618555 -0.1636674878555264 -0.005206673420876769 0.08076744326954695 0.007395820074485524 0.0576172878357377 -0.018756710383705726 -0.004466524886561017 0.053466577576218484 -0.10042865953193039 -0.040162844281327485 -0.0035564508463244585 -0.0038496987749359027 0.1327559776492812 -0.011380838409883957 -0.011104022534288785 -0.05565196792462557 -0.09039906150682403 -0.08528059815549563 -0.010956417246484022 0.024547794829844684 0.017041741198389745 -0.03247651109356179 0.0799817208142155 -0.06426957249097776 0.11817113784756866 -0.0789065998842276 0.07801705445370657 -0.02673660905767314 -0.026955190986798286 0.008573008453751235 -0.01288524144149705 0.013544725079973065 -0.05469731268114426 0.05625505098304322 -0.01577716407761781 -8.543793739305871e-05 -0.018004446064497866 0.037213788628380214 -0.005103418868678325 0.026000531197784584 0.0018700236490538085 0.047549383476311075 -0.03548734606543613 -0.022756881864478874 -0.05583431817742154 0.006483808352798571 -0.032488182617541016 -0.03925001385256169 0.015375175867708216 0.027220378274710137 0.047839203053967154 -0.02588005172234383 0.016367756391658987 -0.037052052240821726 -0.015929980815069116 0.055189676411708355 -0.03023788260199902 -0.008977474895889048 -0.09197775366069989 -0.05993039046252616 0.004991172352492069 -0.02844680836283017 -0.015780143734332668 -0.03134599323826037 0.0016234104839704402 0.06837639541363352 -0.05926351713961396 -0.024400014588016602 0.032429638484727144 0.0723987350530254 0.06795732497695657 -0.016344428217813296 -0.03457578295331127 0.08015003151484407 0.02833452563971152 -0.07358447762357884 -0.029591269765241054 -0.058782124606133385 -0.027292552481054035 0.05842545212780891 0.03964292151853043 -0.027649570226985245 -0.04222777821458366 0.02602460960258164 0.008280088177735208 0.10441238550781792 -0.10718225882034166 0.015283491188965069 0.03049401605746246 0.028121148724396233 0.07289257525398599 -0.029434205783132945 -0.004517084460016712 0.031098669621191424 -0.0936282950636899 0.08188471233929032 -0.052702491333892265 0.006901414377270243 -0.04155270714007955 -0.08521183749233775 0.044534902540816615 0.0020062219510167383 0.012560351143596321 -0.05236157946970853 0.030959167545478575 -0.0571932913498197 -0.021401596785090463 0.02515158893545968 -0.013796442683069557 0.0513881018474603 0.05830574482503211 -0.005678508708753241 0.026940457662811244 0.11827109538704188 -0.00498068360214099 -0.10594578537047909 0.11259333264739811 0.010840995908913844 -0.024634037947151754 0.01649495181760815 0.03973917748500653 0.017653289219108283 0.09416400375253113 0.009254217510871599 0.045594563831207933 -0.062083175691696114 0.039967327630119745 0.028089475915469675 -0.022762900848038777 -0.010020768621069834 0.01733329865608157 -0.028249376730097815 0.07605447043140924 0.0281899626546095 0.1036070050234333 0.06726199704408226 -0.0033856733236125565 -0.021131893542588993 0.09088512838460722 -0.021114599449975388 0.0076636815791869565 -0.021255278309789714 0.014865542079247085 0.043401938227489105 -0.11348961623642655 -0.027883729218852366 -0.055361222379526835 -0.045047718334754745 -0.022119401223847007 0.04323287056311344 -0.00919711787517394 0.06207410692257109 -0.007924312611457436 -0.019548669529115232 0.07937186686389212 -0.08723397036902877 -0.023016899570064746 0.09772124490703514 0.0330739167901341 -0.02938905970730106 -0.07467753495976916 0.11433752589691028 0.05453259847009576 -0.10472939060934525 -0.10246862430926292 -0.07470428597283846 0.013312836013924174 -0.03328634187199544 0.09450731562035596 -0.053908736735287864 0.017586507052058956 -0.0017599616588912462 -0.05826934803524396 0.02893808457910377 -0.04392800941284796 0.07360339935601551 -0.002372050168414497 -0.0071553168540282 0.11085606459422095 0.017696830363099793 -0.027217508565459975 0.07873044549914311 -0.03573526756067145 -0.061628134059940914 -0.1307757881175135 0.04613284587376537 0.020047465424714906 -0.08435324817399213 -0.023314349029120777 0.03472954538075607 0.07664254590675612 -0.08342016842128634 -0.018110209444932485 0.02766788176488079 -0.029853586040185343 0.030185063797758226 0.03048987586481747 0.00737291553443661 -0.11385324717601501 -0.09069131856101043 0.003940426095028291 0.09331891056330824 0.06650595581469548 0.21992202384969836 0.005906393269195361 0.0613902123911778 0.04218583584026317 0.026842122512564338 -0.07249253235396817 -0.0003551127636062777 -0.14770910527095218 -0.051550382604269654 0.028831895002070358 -0.032846626916114084 0.007642422235421557 -0.034848935864227326 0.10674717648509224 -0.01469823552092702 0.013235373410160603 -0.08643443949012376 -0.11788454132132255 -0.03647994018130673 -0.014811567074419172 0.024198066814213413 -0.027253964404430255 -0.07068193113971298 -0.024401213373156174 -0.002084236735702454 0.015223953710411796 0.035520626460535484 -0.06287503717563081 -0.007084574997049012 0.05232196096938035 0.033491586546691855 0.014726505711459057 0.038571608608143036 -0.03894910754943574 -0.0567972141469399 0.08126727496574883 0.01671122868996978 -0.018500394634831187 -0.07058266877346478 -0.006768322999827297 -0.005583110371456268 -0.04570649526330627 -0.07736749701793875 0.01054134358430558 -0.007558163614770545 0.03355649045470334 -0.008164179747165367 -0.06895776877265526 0.011242924666281491 -9.543883046313591e-05 0.005552417717680229 0.0786984287653125 0.027397893663458774 -0.03014832570014019 -0.15317057119044755 -0.08236325447282634 -0.07191939640361938 0.02350786925397779 -0.02190645127088329 0.009330391750837887 -0.11082452283590719 -0.033988064955722534 0.062458387028918504 0.012447077250911617 -0.08713099448194649 -0.09296668963885431 0.05521597086545656 0.10662386652752862 -0.00307220580246 0.026649964718910638 0.086522070866401 0.05034850755376052 -0.02781650318389597 -0.04774486517277564 0.06662956076895646 -0.026600539159959292 0.08764180954269848 0.03777859257825153 -0.1514138366460401 0.09371861477074742 0.06017376809513275 0.0011710268496485188 0.03335274528110211 0.022690805360666675 -0.05596652905796458 -0.08342177072264406 -0.039885368678657544 0.11580517276948751 0.0670862244224944 0.02436895193586628
anachronism.conllu -0.04961635382020698 -0.015480926148037701 -0.08152962310700933 0.09113146702594432 -0.03755505386903272 0.05756418823299822 0.012867089790458612 -0.09189963228380044 -0.0032673254411202794 0.13306419608647774 0.036582555698974145 0.046844823292955334 -0.03593311131532852 -0.03328021907200307 0.052640125774520055 -0.10601871397334463 -0.012272157703111531 0.05761779645321978 0.04932802855517058 0.12860081686619806 -0.04026679209061972 0.08659891916609906 -0.06852008165818262 -0.10559700924168622 -0.047849527592228006 -0.03376485937323983 0.011264874235287745 0.005654162511888765 -0.005169201121125845 0.06097557740283068 -0.05384405468283119 0.10103174720962722 -0.11112547980609169 0.112229780412461 -0.0009953088225967376 -0.047888579937326536 0.014281958971993598 -0.04986822926963186 -0.010836787038241548 -0.019567863728113016 0.028121326761051557 -0.04073665787529908 -0.012181426869363568 -0.007598286496187832 0.0253661889317549 0.018385097338843435 0.013743537836083885 -0.013269565410441988 0.02253982491600597 -0.04910034518122424 0.014458901687678757 -0.04436239458566984 -0.006423290096075413 -0.04600347204703682 -0.09376417415140537 0.0068913651236607405 0.05139147393134602 0.044912663952961694 -0.018689541501854687 0.07593570032293234 -0.013373745336064122 -0.012082422381320327 0.07452469341718429 -0.035628368118166324 -0.0027654635280231162 -0.07280867012083603 -0.017860888788243004 0.018836663815255388 -0.038450609340227614 -0.016141513174104467 0.0010724897526039024 0.03918042462272767 0.045971404796225177 -0.0677886034291774 -0.012991755420398977 0.02474953252732373 0.11717602053154548 0.06696555070234077 -0.011592473884109073 -0.0004474902044974399 0.037839999900705544 0.05826770031488649 -0.014631529502021689 -0.024706528999240022 -0.04783650342793059 0.03292668675223377 -0.010458671998253288 0.040105834782628476 -0.0296838318384798 -0.021255591426785375 0.020861731278959836 -0.041920861461442006 0.1678074402570428 -0.11069650276305516 0.06255599897082274 -0.008747898515746193 0.05122953750665896 0.043683077353480156 -0.055184893761028954 0.008912476463593708 0.007228034916410305 -0.08549786836173633 0.08570693003345184 -0.030480517971136097 -0.04949311824383096 -0.03341687896919894 -0.08328365730067999 0.02738943671241997 -0.01151808469923702 0.0009075633657964278 0.0009044331012007827 0.0032071232861196684 -0.06165492129326185 -0.03964458072492369 0.02210020981727179 -0.05685837471488446 0.08009656168101274 0.06395303686825535 -0.026306036166153453 0.05297212144881048 0.0767043293337084 0.035966508329669716 -0.031074505074609408 0.12686194219818525 0.021231599054108503 -0.007907013439587373 0.05556705737110061 0.04089528122197368 0.02852089851725456 0.10469844520153716 -0.015472265853127559 0.0011097809808660384 -0.044430029329597866 0.005143820512277054 0.04088951042260127 0.014115477413259012 -0.04999428243853029 -0.027292036192598828 0.021480688078993088 0.06626214286381171 0.041054062598351315 0.04850325569607145 0.061877039873715727 0.008843446928398755 0.004132492811303433 0.1268405299357888 -0.030087762184316434 -0.0435849642690972 -0.046289986395287135 -0.005740215017938459 0.07363199485224314 -0.12083102910304688 -0.019245105264655494 0.0038855842664211747 -0.10912584227265039 0.005515405420463628 -0.017273362877182646 -0.02524008928304708 0.0786413461601472 0.0029656355124224997 -0.00994289834513694 0.13491260734844787 -0.07257781942340458 -0.007551345155309224 0.10587701090560891 0.033456738682161175 -0.012326841906030365 -0.0871393596689751 0.13264731571130095 0.04058241305669982 -0.08456964485892131 -0.07751285900928341 -0.12568969827092175 0.006510672592426717 -0.04268857593503272 0.09306568147169304 -0.02847572346381055 0.06338019821485981 -0.0011293101498008207 -0.04468534312324309 0.016481979028943713 -0.03586772339578761 0.05740502998421511 0.03769548480434767 -0.042085473785075295 0.14492283854740343 -0.0060253353541932075 -0.05355800050827708 0.09319608167385328 -0.015472515010612753 0.008401497536144529 -0.15257686917820207 0.042083902216558854 0.05426106106772407 -0.051921807306235426 -0.0420859298806738 -0.028761064005930512 0.025998084979596957 -0.13501580852805858 -0.025511786933893842 0.04639619262039507 -0.0015730943207790224 0.028778202239099465 0.01927281382778593 0.03487247618608133 -0.09205359246565419 -0.04779441212332935 -0.0071402043082570395 0.08470747219230881 0.06939802653652931 0.24501101473523385 0.014862762349966033 0.0715412927388554 -0.06317825177483588 0.06452444796645258 -0.04614316629198887 0.005300016323363466 -0.12284567063939196 -0.10045921751102724 0.03252758569313435 -0.03273324373252012 -0.09209593701591645 -0.11931808760292521 0.06253016797372672 -0.03129204768226874 0.05599412631683769 -0.03271236040199973 -0.06787469756325104 -0.010619849644213666 -0.015844923146602182 0.05582855537899956 0.03736679420031491 -0.027128734305456353 0.0063022525487339415 -0.05867960040945339 0.06146263590665413 0.060363713781727016 -0.005896073868469276 -0.007412547756797329 0.005595195520994601 0.011815159536779689 0.014034145477387414 0.0677060896178696 -0.011480029238675754 -0.019489298216405694 0.05878544182147033 0.04056032409478628 0.047771254595630516 -0.03446206037093739 -0.007694184067884478 0.01908273480575163 -0.0004298444376585929 -0.059689990262997525 -0.00855728943258378 -0.00836320257001187 0.02007269412319196 -0.02194584490799524 -0.0765768587469388 0.03119946469873211 -0.005659614998897028 0.005194791319213987 0.04304957956833372 0.03141618988891609 0.0060564141711503955 -0.1132562894303301 -0.05028120531619321 -0.04093254838377755 0.025374468871857077 -0.022541427820839684 -0.007067534731297165 -0.09198732369930576 -0.02003351135830462 0.028572888933943014 0.05204375851403722 -0.05462541126773864 -0.05512411221206433 0.02364373300244756 0.13370381102425954 0.012196943010210385 0.00844940848566396 0.03523564713334148 0.040987866065372955 -0.014349862675753682 -0.008323524152274272 0.06073431391852781 -0.027395965636981257 0.05919794735076593 0.09146140217033981 -0.05389837265079335 0.05805538546809723 -0.016806563300267887 0.018418746863363283 0.0134069977035538 -0.03146568125915625 -0.03475834205909911 -0.07272369223235674 -0.05911974130055335 0.08668459579240274 0.05743929349230698 0.05062502710035203
anagrams.conllu -0.0649422473429096 0.028502714812351254 -0.05569656796984626 0.08300446249354831 -0.046773951635111416 0.032532590752987596 -0.016893604717142807 -0.08423898470547121 0.006651803404360866 0.05655302689399975 0.03592789773335941 0.01922130453354022 -0.004510023227532807 -0.03399007841972139 0.05042534350916657 -0.08313051547916786 -0.047862017042892765 0.04683803089582517 0.03406810278726147 0.12139392343565117 -0.010280431416553645 0.03914965289159827 -0.040169575451531596 -0.0897553660704275 -0.03991558825604396 -0.05960230319004047 -0.0026093178694165334 -0.022933697692382418 -0.026083881642877223 0.058726897888135315 -0.03774236025195582 0.08467661948339253 -0.09277812379269007 0.03218864817289521 0.004698443606755522 -0.02995707370807609 0.026165923283195548 -0.00515848452533962 0.020346907051025917 -0.02654832561296013 0.047069627232250624 -0.029846136130821346 0.002052126010306654 0.030168294710763068 -0.011243167578755056 0.018748054737588452 0.056940399278679873 -0.023336822901338043 0.014572536307842278 -0.031665885178192306 0.02950903135333772 -0.0752549046384822 0.029345595680052697 -0.0024116705010555337 -0.08229909274286581 0.01797170965816569 0.004129937635520083 0.043122036603637746 -0.017945985702026497 0.07791209296097859 0.009247449367205349 -0.016613785970885996 0.07409736024330767 -0.03317090449281031 -0.01157344011661571 -0.022096974141226564 -0.00506740444270012 0.01954455010501206 -0.012375345759675343 0.00947443056801058 0.010357432507243813 0.04196875443408668 0.07966562956677667 -0.0967524905492838 -0.053723169716037765 0.058260764687853496 0.09388462036039746 0.054614955054000595 -0.022880921691418678 -0.021788043921082936 0.056048089168549635 0.03157166305121535 -0.06158540382028439 -0.009555079461619511 -0.04368115557280418 -0.02004801186586807 -0.004600366607811393 0.02582254737470023 0.023018590462003812 -0.0367593518923858 0.023212049278069323 -0.024752050886876573 0.15922143260343993 -0.10258565789375255 0.046584143016641814 0.005814590320728933 0.04087298450674873 0.014325051296340091 -0.05304249926092182 -0.010416729740218742 0.04035583577137532 -0.09920981835381999 0.09761594734364788 -0.03411917188976129 -0.026973937570893333 -0.06952768424125041 -0.056402114582576775 0.024931543217936836 -0.003280952027532046 -0.00043908456628116867 0.016128851306177885 -0.020582879065065573 -0.05866803318222437 -0.015716928891651976 -0.011168544565265235 -0.10187405665365866 0.0880744398335512 0.072055579230078 -0.02292540364111418 0.07075306573743019 0.10653606482450452 0.05018953168908637 -0.051471190300818565 0.1876755420383614 0.007947416677096926 -0.020571854599391825 0.06753508532596753 0.050947748188403884 0.019884326084427015 0.12155563203355015 0.013958107028405282 0.006174482865907917 -0.04751755652999463 0.02607109382318647 0.0369076956190392 0.01900166244701913 -0.04092329959324774 -0.02904152609358082 0.01792041219796721 0.05247768647740278 0.023943917212557567 0.034367143648282854 0.0821946207795663 0.01063176077746403 0.0006967631139149224 0.12937266739951522 -0.005220826622674831 -0.07699577215756755 -0.04295548667150689 -0.009628357939785158 0.08760487621672988 -0.09383140402036176 -0.025554151167729206 -0.013470964217290092 -0.07991896481009772 -0.024680921796076373 -0.0053941949416754465 -0.0341026831196313 0.07904001666538549 0.005398802361454852 -0.018439015843085473 0.09849722554622657 -0.11298169871725032 -0.009135350195385404 0.08554663318172934 0.011912865220437927 -0.07057609996659275 -0.04549244538787224 0.11093378457612019 0.03900084442846985 -0.06720649545869903 -0.09015700198467347 -0.1429831514147067 -0.004333647602240763 -0.0401645692586258 0.1449419619593152 -0.015530677714207878 0.04653311202798888 -0.0038800577220478296 -0.04504048448194242 0.023723015228507737 -0.052913898110081 0.052588052133706785 0.04382233252587279 -0.049389552294531174 0.13337301040847047 0.004727814811678294 -0.024544338451696693 0.06280161874181112 -0.018709765882539385 0.022322317774921076 -0.13822637279028827 0.08570727788152452 0.06492773449855066 -0.06166365502192897 -0.033727686123834935 0.01831340503553774 0.04526147643554227 -0.1498533024224339 -0.03706136384331262 0.0567164232018539 -0.020300653812818377 0.04382037562963954 -0.021954206092165973 0.004144561003416608 -0.09022483937526905 -0.07662053411714838 0.025641521256920326 0.09522493274377018 0.009464731536180689 0.2061331454640531 0.016888573025567833 0.0431265889601943 -0.03747657419319611 0.042065382199604776 -0.04381264083311145 0.000990387612060947 -0.0830630566367775 -0.08623266190313326 0.034792084268443345 -0.05146810733981563 -0.0518666757897835 -0.10828316468468675 0.08219365379603863 -0.015418213744308322 0.05275083379093107 -0.07993914974260294 -0.08870912467266286 -0.003563168235560456 -0.005500526804191002 0.03292578321005414 -0.0072780957492433575 -0.007887577281799231 -0.036270196199975346 -0.02134371597014275 0.003614667830820972 0.018601240057005156 -0.005952371119998082 0.013368597540259874 0.01007698328842718 -0.011772426276623307 0.030814859933825343 0.07257801667267208 0.01168828031495947 0.004661929940530414 0.11546557890719106 0.043875216118275565 0.02544504600310002 -0.06519132340053824 0.05004376741485048 0.044453143413457796 -0.01749039197011964 -0.07100454475458956 -0.011691073186753803 0.02042745886332868 0.031241870250801235 -0.005355369423152785 -0.049510357876343385 0.050450485245563045 -0.027949287472759803 0.02454254332678884 0.03678888116754161 0.041056515084354636 -0.012022462286630438 -0.12495336130569178 -0.05137290147781905 -0.04559024537029061 0.008038287012977503 -0.026401600516087798 -0.05322880519356987 -0.15858536713878688 -0.022888734236175066 0.009489337540830055 0.01688143993331439 -0.08361628554068988 -0.0740532670253397 0.06762140816515597 0.12292430699534365 0.02206745385892178 -0.008521016375574906 0.0900641478151009 0.03970767213244972 0.0014646208265954043 -0.001571086303235277 0.08876649547785656 -0.05133548364064383 0.07883252387784201 0.13008561072250502 -0.07272886413899854 0.016939009130033215 0.01171744211468489 -0.02347752714977012 0.006414147172430066 -0.0026828850380294987 -0.02578667901542272 -0.09362015901902326 -0.05742348570890562 0.046317753910723646 0.061847883864757626 0.04196208669239863
anemia.conllu -0.009826275338468079 -0.014982790703328861 -0.10110318646491878 0.08398254610853569 -0.07587556054637765 -0.026863585592556867 0.08070938396682652 -0.11570235158186479 0.0065059313295521195 0.03385305137642822 0.0088719404111364 0.07373687540762566 -0.04052872466182305 0.027603399847552557 0.04592286106631553 -0.1002066945075545 -0.04646031163723915 -0.0021118884296951724 -0.004375740939067071 0.1401818228107401 0.02103396195469535 0.05097043926607015 -0.060144156242975526 -0.1035489679093804 -0.060788859970866624 -0.002598065417995336 -0.03134045582949937 -0.00046859281354081955 -0.008130043720363493 0.06828486933639558 -0.061835137630358486 0.1071727109682332 -0.10341993129580244 0.11325712717457943 0.008809046801743195 -0.047079734244818566 0.004050022112637266 0.0004095404740845465 -0.010772357780616228 -0.009367787992853894 0.0477455382640291 -0.02448451850137994 0.01411383653256277 0.029901163951867846 0.028360850813144215 0.009925272922740983 0.04797346949296173 -0.03041342366304319 0.05384570135714219 -0.010061268861152939 -0.02152542705300784 -0.07651914050833887 -0.03998221221532346 -0.08342687259084597 -0.056078612933772955 -0.03061817865166403 0.013938916789324159 -0.01811175810873753 -0.04821953963035912 0.04780106391386855 -0.04816768263683031 -0.0623894631355149 0.09617211940923574 -0.031554531571100025 -0.014460565526113127 -0.06140954315578118 -0.05901635593917682 0.053309123329331076 0.018876807762094647 -0.0025562593466235397 -0.025801357696703296 -0.03170739857721524 0.08861853561916173 -0.05206502612851295 -0.015310534383889256 0.047637989221093344 0.12267250959019066 0.0961977801579764 -0.020249564507379778 -0.026843792354952545 0.06610277989209627 -0.014505522595555369 -0.0677970363204167 -0.05346470420133157 -0.08962213434399784 -0.025686287176692347 0.011240189540992727 0.08140151223731491 -0.043421818808887444 -0.08190639634977546 0.04780951412132573 -0.014538425994950971 0.09768015581661206 -0.12180106683369794 0.004220015813114193 -0.0033522584911635264 0.0701326304607856 0.07130018755416626 -0.02667574270372441 0.06334789026990527 0.04333637679709919 -0.03823750447309025 0.02858558977769953 -0.08497148568981036 0.023552881796828067 -0.013061374365203337 -0.0643154210676601 0.06336428740381347 0.03246370852436791 0.012216105568620253 -0.03525747669602068 0.04142925598914291 -0.04509361993146645 -0.010908163587922019 0.018864912535541786 -0.035087691593093676 0.04821534666577711 0.042476564575445755 -0.010311386644266701 0.034022667056947446 0.10047878176990051 -0.04222809838638563 -0.06700345507551879 0.13314788743388292 7.940441986902051e-06 -0.017353618814136124 -0.026172313538787056 0.043798718803858244 -0.001959309170490901 0.0985754040168367 -0.02022753429138345 0.07069540525777022 -0.07439411781060334 0.033383536630290825 0.045678764800891024 -0.005904051544109518 -0.08349344090988325 0.004804721144993639 -0.039182591785355776 0.0773770116254069 0.015716331402738388 0.09186902648569585 0.037484987814977416 -0.02494455027311987 -0.02135349502221287 0.06484553983176934 -0.012515088193871005 0.015788638482064837 -0.02076231787355786 0.02649589901044251 0.05472703392866455 -0.10685929265638479 -0.01689505057844924 -0.024865180857547627 -0.05055049084530085 0.012372077264181791 0.005645945859050843 0.017923820313018285 0.089103291847364 -0.02577006537348096 -0.010641520052801308 0.08213591497595901 -0.0699630040968391 -0.009122405487085915 0.1062464498466616 0.03611715553121541 -0.052201862855800175 -0.08100632476190729 0.09390143630794047 0.08114460768247307 -0.04621386315645677 -0.11952738338649378 -0.10261316832558909 0.05417554104722803 -0.00017069630626154035 0.07023969248170069 -0.08172995962962697 0.004964720121817529 -0.04338839484941465 -0.027448531357749148 0.00289745656845387 -0.09050969845406273 0.02939006831987092 -0.004999799431985854 -0.0325293614489282 0.14480259634030204 0.023829504257800126 -0.032793359067917666 0.08014493082291273 -0.03977876853989079 -0.0768686254995445 -0.12721388351218718 0.0651652637571658 0.06105628916497609 -0.07189278204558318 -0.017749531713442596 0.034932695634311874 0.038240725096247666 -0.10727435763337465 -0.027030405672045395 0.014748233995432089 -0.02154992331076882 0.024532394191837663 0.014038474034509427 0.04675058667653869 -0.07916535810181304 -0.07845228972083637 0.0056891688786753795 0.04446043552403441 0.007667176753210668 0.18327198844486414 0.035791985448052704 0.08744997968637207 0.021051162363323786 0.04481669484636718 -0.04125533921354027 -0.01535016536514248 -0.1480790546082808 -0.04869929146357782 0.03902803305881037 -0.0857991523904535 -0.06529904922177236 -0.015758958893814477 0.10315619359876903 -0.030032033615646887 0.023047858350098465 -0.11546837140149702 -0.11011276216118114 0.012810332922848331 -0.018692953361889635 0.016328406290701026 -0.006576866063219518 -0.059236683209953706 -0.029863962742499407 -0.00953225942873748 0.04756373357888691 0.015575563270348182 -0.03796510378567818 0.014552301985376508 0.06568940659952402 0.055542851931908596 0.02722801939574476 0.04372749861746456 -0.04829901753579795 -0.08129160409219192 0.11365360617525125 -0.006264463560949772 -0.047543082730406944 -0.037551336888191164 0.02532241776259956 -0.012640968625465116 -0.003143137438112181 -0.06488819693466331 0.04465155571401091 -0.019491819299229197 -0.02141999564698648 0.007157364768510984 -0.12049220502727294 0.034928515277972715 -0.00260773167917731 0.014322760376791631 0.07988362565449343 -0.013553635951171499 0.006283976540066725 -0.11834871698845836 -0.02833065333125805 -0.0892112012712644 0.04658462204290926 -0.006034745099433248 0.000853416568421232 -0.10988721283670846 -0.0196075808098863 0.02246323206334018 -0.0030541956834861895 -0.06271339171165692 -0.05671226824004533 0.0330530684981266 0.05514602397237125 0.021562788141314845 0.009088261263378593 0.043810294714540135 0.01720345914645148 -0.031023964999231806 -0.03163561956439809 0.08374987696601084 -0.03911900351014059 0.09876469991866786 0.043817962795283875 -0.10877866694639912 0.052391351088515135 0.018886890883049953 0.010708471743697275 0.012323606918623997 -0.010391204137919895 -0.08312301846621414 -0.06464728069605703 -0.0072037536698688915 0.08694346409283032 0.05069767113163414 -0.024859287397400693
aquarius (constellation).conllu -0.08071761565190211 -0.002778352912451349 -0.027511721272845412 0.10761780827012324 -0.06433925060962921 0.03368196286262718 0.027679729107905393 -0.051281109808355166 -0.00350184905036157 0.06277039052588684 0.07612148428126238 0.04425775377676305 -0.006361845658468846 -0.02436372366695278 0.05981048575314598 -0.07144083356197828 0.011926587961379556 0.022937583751583626 -0.0030688418229251843 0.12933104931981454 -0.052335124672055464 0.055303380154269256 -0.0884977357665194 -0.10134205696193493 -0.09037437804335362 -0.06584529419303262 0.009742530528071619 -0.009182980186893126 -0.014752323127501401 0.027129120562193847 -0.04185036115381472 0.13791361461083718 -0.05641668721998236 0.08181440781508262 0.0066350274097915106 -0.04045309442308876 0.04260434857549603 -0.034936584671389374 -0.041669380789890915 -0.007138163903213802 0.04057011564239534 -0.04112400370892811 -0.02089064441849546 0.031036085770933287 0.04852458418719431 -0.009657199848796774 0.017187421672896448 0.05274348771688062 0.06316450973280686 -0.0011218621845721034 -0.016057220898187032 -0.047909731548272036 -0.039668088892922164 -0.0553255062643967 -0.050169681472445826 0.06761189105822173 0.031411780450629305 0.06047819581819007 -0.01095467783004442 0.052290655349681796 -0.0022396313478022004 -0.028926538861077312 0.04147154035507367 -0.04772299383534515 0.010892541943253573 -0.059725439744463496 -0.06236373759268219 0.027207748283266428 0.017266251964347442 0.021184251755905808 -0.015550004131848575 0.06522525822861955 0.04453600414434947 -0.08096258772992487 -0.01891704132692003 0.013556208519242698 0.057381602805966256 0.11691493474705639 0.004339238884118714 -0.039129976172818 0.062154865824479474 0.033440248766691126 -0.07856900005626176 0.010427458397364385 -0.05255519451289488 -0.024561749699555928 0.0005382362269431213 0.07401944690422867 0.022033824833358744 -0.047010987903221044 0.010944874362444517 0.0004425236402714551 0.1028256306186043 -0.07942991907476564 0.07996686101218248 -0.046485008165093995 0.042802892616392064 0.03898730693036558 -0.058657307375641086 -0.012723339529423543 -0.0064389703585685035 -0.08471584292091841 0.0586499198038885 -0.04989407348249546 -0.04554128438870508 -0.007770242302871546 -0.07282204767298792 0.046656272776025916 -0.004985089995571614 0.01439661362455557 0.0433368575373284 -0.01900060340325456 -0.034616679426942513 -0.008255781656355312 0.04667709304027471 -0.07339326095753695 0.123149119105192 0.0531540951907125 -0.003560661376273818 0.05543421233313787 0.10204525712953859 0.011909961010177727 -0.026646651672319995 0.12666451580914564 0.047893937448202605 -0.02550215679314808 0.013772300396703222 0.07816732228596153 0.013250447625129466 0.0756314145862249 -0.017667572933676316 0.06308654933475348 -0.03143388200918465 0.08921062915274042 0.07227390119559916 -0.023927953769306082 -0.02936284572170714 -0.01723215699429209 0.011428261052996547 0.11197674074674084 -0.016924836701279772 0.06885283855967413 0.1143451964414285 0.015422870673376414 -0.003172193506333725 0.088612267946156 -0.032019609957175066 -0.015294371043699443 -0.00979450479002711 0.0332475335631103 0.0855271938271516 -0.12038777678377163 -0.058881034256824095 -0.02865972702845084 -0.0664366256694388 -0.049637620503924056 0.0014750994489139623 -0.024203009749528315 0.07608067655507855 0.008544631186345096 -0.006372163254779214 0.10254453387141797 -0.09852461190776209 0.01611646874984616 0.08994087397748049 0.022323938574037975 -0.026187102113230068 -0.05228092395950739 0.07001487648714935 0.02825526452322294 -0.08265330790828182 -0.06500609907733158 -0.11260202642016504 -0.010338349106073891 0.012203253037556322 0.13737826382914822 -0.001987329921680587 0.009155152652147818 0.009652337430889705 -0.039593356363165716 -0.023170636412695116 -0.02942043139241772 0.04434757952514784 -0.027311532251983277 -0.045036982110842616 0.07835957501378056 0.019991969613216778 -0.031494742543963394 0.1481633490537563 -0.021415749824490217 0.04466477986046 -0.1790184904804475 0.08813094740846539 0.014764569196546704 -0.08669307464292766 -0.0396496216431193 0.008781418677014156 0.0999917165733347 -0.11830604215219687 -0.06464381727753993 0.024404543749916838 -0.05036839325018689 0.00176864184180404 0.06359421771290151 0.01150290319639167 -0.13205785409565587 -0.0440422854565621 -0.015258735506271624 0.0925475235945619 0.03106739838294112 0.19359103914187017 0.018912090260334708 0.015322107904071668 -0.007416992974588234 0.016194414098372068 -0.06356422155025458 -0.004076056285511769 -0.12178347173667081 -0.07127915311808261 -0.0007778456743501291 -0.06489655004896501 -0.03853928173940186 -0.08398424871093683 0.10012705369141447 -0.01736261438574117 0.036610430514448976 -0.08544620065831454 -0.10209509592716481 0.026928503717528248 -0.008820352321174245 0.053352126852127355 0.046521343369564046 -0.04652745103759113 0.0008692064341415272 0.04032791065416696 -0.007416359491323586 0.003964145780150235 -0.05372737878216355 -0.04554483812272843 0.01344441610820014 0.025910379168254737 -0.0093756921460046 0.0003344639564986399 -0.017127195666823518 -0.0841719311772722 0.04048960796885004 -0.012679274508014465 0.009691406068833983 -0.03523750868614852 -0.006172008125049598 0.03895645604560776 -0.02578279398097953 -0.09834586237291958 0.0283836308324717 0.008160563034104354 0.02765496336213867 -0.0008827234972520972 -0.10043021767591867 0.013958608077153135 0.015111125573573062 0.038560552263167305 0.08398493688836658 0.04412188499310059 -0.041923063284546105 -0.12568704276301396 -0.09862044306031265 -0.052157621635797353 0.055881511474825535 -0.01815781919910058 -0.025675438020181265 -0.11178639564583716 0.006282958428553306 0.016136800690345 -0.006147469132402426 -0.08489117586484325 -0.09246816105063149 0.050015826249557416 0.08092896654393712 0.001381037924294182 0.0050865641260957675 0.06286331572900644 -0.013321021153528192 0.0047805281339342144 -0.006536183127491258 0.039137772734105805 -0.03362515089307816 0.06968090653083518 0.06364657465395572 -0.058261188646952615 0.11008278729650475 0.0005340178646311102 -0.005621531232761255 0.00243567095748463 0.04074685163422455 0.010414939429550515 -0.06932310866271943 -0.04004263429251661 0.07067903338650683 0.0728331513366127 0.04520011797528969
arabic alphabet.conllu -0.055364969454481903 0.004906826201303669 -0.06458159001908431 0.07733507681109526 -0.028049520362222906 0.016550176210173316 -0.007106957966779212 -0.09760403414742388 0.0022777423825907322 0.0078113785852535434 0.023133716365279333 0.013583474629968678 -0.08075117529528379 0.007148502582137758 0.031114050742585712 -0.10442981566238045 -0.0033824525886848875 0.04823407076656902 0.054593371516220505 0.11934972870373564 -0.02117363192242833 0.047502315176673804 -0.03690543813384422 -0.060292624261460724 -0.053747254861441454 -0.056089626702874616 0.05087947528817423 0.005499353304769728 -0.031353474072064395 0.05094672503257604 -0.07404486222464836 0.09819676828435675 -0.09290090397706144 0.06138468153531065 0.004499653748984997 -0.05446262951802159 0.009732279470089216 0.01915324371784904 -0.0006892404123045495 -0.018966020204875915 0.06731170858762169 -0.044179586365439734 0.02607365210208345 0.008257679832575544 0.013586181769404593 -0.0016283819213760208 0.036513452901103194 -0.02825593605825611 0.014626621281937485 -0.03876752478514671 0.020464409743176808 -0.09295597818076298 0.009097376257095084 -0.016431601521522815 -0.09274936304822658 -0.016359902196037078 0.030502290397195403 0.03305883324933893 -0.012633422273913685 0.0896474167159747 0.0271681267677814 0.03305031032300278 0.06813530628391372 -0.015427430979008313 0.008746824121808917 -0.05847156328148652 -0.012406689312340674 0.030884824052077497 -0.05771188350858137 0.036862319098040296 -0.011592162935794226 0.017217142827509323 0.061235027565968714 -0.04774080276528454 -0.04643979668474595 0.05784480752869726 0.08746025244566652 0.09547813603794693 -0.005429361265917625 -0.0012737461521226312 0.029977707612494485 0.036155037571473835 -0.08118561585316851 0.0119034503865412 -0.025261366345043047 -0.007363743497848065 -0.005774237875711442 0.0868245871494243 -0.021130713547337733 -0.0027491564530374786 0.02219574096893681 -0.03207989024678245 0.15335980560472626 -0.1181866006681105 0.06246291863062333 -0.026136794061274872 0.02171089903727233 0.04128474377408972 -0.042371373898722475 -0.013730414876147661 0.04305151898298337 -0.12489239387548302 0.10167023010317316 -0.02686057861419488 0.0021578270113489905 -0.036124033641111594 -0.05456635444300471 0.03157120558545683 -0.007067370596763474 0.03078970833398089 0.026140742900574027 0.016608368497871423 -0.06940899684355115 -0.026136511003202294 0.014863198790715852 -0.06713611267690091 0.09440507869203449 0.08076704087837744 0.01819244143811537 0.06657284039162939 0.08256256671824484 0.0559414626871559 -0.05552495429113123 0.1611986515877776 0.0031407162483713382 -0.020196400428535096 0.028188728078042936 0.04117431149687221 0.028454502348995558 0.12175932250312393 0.020461348445009242 0.0018232563630466783 -0.023630985554814275 0.024463078871928803 0.053285050070989465 0.043822057754087256 -0.03578452522748826 -0.032479990877562454 0.008931611452188765 0.06115331663244977 0.015388014665148901 0.024070492229404192 0.08960491164653604 0.026895643862728986 0.03390085244510146 0.09932911295806628 -0.0365866329868298 -0.03639817269553903 -0.07545382336573249 0.009899395529450178 0.05770021828793309 -0.08983203426943207 -0.04534411428328814 -0.037793232682777844 -0.061637414391936554 -0.009016438040206024 0.004904015754734031 0.03039601674237533 0.06404633998864255 0.004857180228965456 -0.014547950044294641 0.14418392105776748 -0.08660158799166524 -0.03569072696690434 0.08891113761288377 -0.009949407328383952 -0.05308529263434501 -0.11017456033015598 0.10425411323551419 0.03739419462998934 -0.09275594911845852 -0.09207227660534012 -0.14869091371325907 -0.0010156633104415448 -0.04507289650485712 0.11115280262462822 0.004181381699550944 0.0654759812794164 -0.0048220155454238986 -0.04932341766597337 -0.0026780623873982976 -0.05052279460760575 0.03609069051270599 0.05065313383318252 -0.01753677235737279 0.15818650130348302 -0.0028998318828848337 -0.0821141638595404 0.07191089163703046 0.03355304248464242 0.0419960247913975 -0.13324478205387125 0.0656848132022941 0.027262106524245277 -0.07418132141437614 -0.006862964022789247 0.00768472600296739 0.02303687818000578 -0.14530192364224306 -0.05128278954116519 0.0556877529530549 -0.04041571122020164 0.02577588742290518 0.0017588824225937731 0.029205125101044695 -0.10083447851304594 -0.09315025638191732 0.024694981378716264 0.11167610309771644 0.024553679198505946 0.18042969773734294 0.07243940046213564 0.06119376185740376 -0.006816700978239405 0.030393833012139094 -0.03745248341577117 -0.01951417199488707 -0.0813499073401914 -0.0862306759408556 0.014132737774528385 -0.008973408179558752 -0.06435580937401032 -0.0963075434716827 0.06029564828829071 -0.02457503634095888 0.054378032988450134 -0.07645720725091823 -0.07838163687864241 -0.007893527917863678 -0.006189195209282917 0.047510773589643764 -0.0019070515117564344 -0.05173463112751577 -0.05256677334444403 -0.012829071582735057 0.0406003914618005 0.020089274521258364 -0.029924913291601924 0.01064784396111864 0.03807623455807699 -0.013608736207673227 0.020407868529413568 0.09197287344471818 -0.021779546795338462 -0.04074650126355843 0.11775516463032067 0.03187687622066042 0.049298394478185646 -0.053440807182845725 -0.008117346864915881 0.04681641774579176 -0.0033164121865402172 -0.07445985044386029 -0.02572688592505027 -0.018923815836273266 0.023711252444259184 0.030303807570810887 -0.06233044839380895 0.04329690024228251 -0.04570380527924925 0.0261713342011487 0.03662458527745546 0.0389076211662057 0.006185648049550913 -0.11562110996463344 -0.0757621226000331 -0.03937606818559159 -0.0008411563784214772 -0.0331350082134207 -0.03639363962633517 -0.15096955638512616 -0.025177272891240127 0.05214054987773459 -0.009302175520948558 -0.060105009488016226 -0.07211249042968475 0.0462887248114578 0.08158658957127965 0.006156176455800622 -0.02495934895557062 0.05978044594084758 0.0076481992766623125 0.012928035271241431 -0.029574943709432602 0.04340401127782684 -0.08587990865356439 0.048203805820318364 0.09516787254654173 -0.08207417136473145 0.022410534841641794 -0.052581870375944736 -0.011280234505205454 0.04039993125645865 -0.009506595432461346 -0.02607559743531672 -0.101882011255384 -0.05369424222723246 0.023425198399906682 0.06276558761756984 0.060204236896581755
arctic fox.conllu -0.0806220951065097 -0.01281595568818585 -0.06858942976180087 0.08566013060338544 -0.036538954371108795 0.024717909685780425 0.029137591451939514 -0.07223226778716076 0.013087930005024681 0.08809124163157044 0.03226486272883481 0.054520905125201476 0.006540126677084265 -0.04494981449549215 0.05206346449271843 -0.05466102122229504 -0.055237946516906694 0.010112006845319486 0.041750610848760264 0.08897432091832334 -0.03539665367740722 0.03860198098688099 -0.08123606684996638 -0.07716471322637569 -0.08831905106497745 -0.04092929947943789 0.017818899568986666 0.00855724471756385 0.013386178503415266 0.06260047054494403 -0.018376169295708168 0.1102097622442671 -0.10907248127595842 0.08221169988674244 0.03263255673791698 -0.04312415072055372 0.03950510595127113 -0.024590444094094336 0.025599918910876453 -0.060333788052296194 0.037448866693975714 -0.010836781930256187 -0.016971110753997844 0.05309248964266054 0.03489891029985832 0.024297940600017134 0.037310096257708286 -0.006400601844029384 0.08768812021181212 -0.021162397434948486 0.006912499049911767 -0.06048531457384563 0.00675069493638138 -0.042292580914491056 -0.042247990206681046 0.032743795320379895 0.026667434073455284 0.050895785583077224 -0.013620528689690539 0.12502168158944862 -0.057291166818527826 -0.05186103303907426 0.09926206437774801 -0.05260890021414896 -0.01239010638129938 -0.06284188570820463 -0.0770705797677304 0.04811397193830502 -0.05046400450101874 0.003980810795506705 -0.021016613065816602 -0.002832769975692123 0.044920410114818725 -0.08274135592765283 -0.03896341953599752 0.0522411226440296 0.15226415027918352 0.0996089828755748 -0.038060260293626275 -0.04696531475291324 0.048563445788889444 0.0032314862595359917 -0.017395670364642464 -0.011432402746755459 -0.049427556295405274 0.0006760875343165433 -0.015750327744928346 0.07915339271154646 0.047890332889279366 0.0028731522428952646 -0.0008272457208128299 -0.05167165550004357 0.11881731771311797 -0.08406045770638497 0.07891806539816781 0.005853233347379803 0.05637180593078054 0.06416152888425335 -0.04342574391908675 0.022794226137989565 0.013312358225285181 -0.06424147958429584 0.06915737169793305 -0.07660848106149445 -0.03891425451647781 -0.016714982938813013 -0.060328422699065874 0.07446469290695186 -0.0045406481282376085 0.010089545188619119 -0.003838159147294221 0.0029936482696697442 -0.07320832255041985 -0.06276851994603241 0.033143617989694986 -0.046937048927969675 0.06920827982473032 0.05630811648085322 -0.01789703583665394 0.03879101432376236 0.11414032442385151 0.02713791261170748 -0.061729652723883206 0.08910754262433719 0.022870254820707196 0.022859957789092097 0.017288804319573563 0.05663466986625515 0.018931508258684875 0.10670895889304764 -0.037337211467020834 0.06182720801687899 -0.04234119027040498 0.06350285835258158 0.03998437616957071 0.0045058438902438715 -0.03117593259517653 -0.0013340133722720092 -0.07905991427350642 0.12299831938527633 0.031027779281537597 0.09570887878197995 0.09094646111205339 0.03242498409242868 -0.012114062639646204 0.13617381203896353 -0.012428754276884888 -0.03836947130876823 0.0032955611509811462 0.0434300022902645 0.08288758491202057 -0.12757033396586404 -0.07288036329095526 -0.03362357742796494 -0.04101688255859752 -0.027043506830093902 -0.016547046937513347 -0.009620443460844778 0.08367846608280544 -0.02076699846017253 0.046537190165173145 0.1219245642085636 -0.09845240301959993 0.01684936687026884 0.09472891063183465 0.019048626324323654 -0.039411772836161825 -0.07255915816366919 0.10258022942006347 0.06560061471270953 -0.07057573718770715 -0.0918023530045089 -0.1190731424880946 0.013104966159840546 -0.0039823560567729755 0.11167778723350542 -0.04877153389992254 0.04062865081734975 -0.00489144558205183 -0.046285439889537046 0.0008051221908261456 -0.02224670726264282 0.04205941751411134 -0.00254609962110569 -0.02933383801726505 0.04281694767464651 -0.01988766840520087 -0.01482964114893978 0.08960270118661495 -0.022771152743669105 -0.04041006402518047 -0.1506509314923923 0.05590014464892261 0.07234028468307714 -0.04860384685254996 -0.00932656721013485 0.021932180199769082 0.05538220844493637 -0.09338447223066014 -0.020935162889497844 0.03431626214440415 0.008511336087729098 0.0008309035759707216 0.04673352491640638 0.02974633506510312 -0.15459915192082252 -0.0378763219522718 -0.019186663482243623 0.07646820790456953 0.019199837323211958 0.1727117263565628 -0.019075836415284746 0.07020293280658123 -0.015709233293115608 0.02422549927965158 -0.0682224250039317 -0.013991527756981004 -0.1484848125987474 -0.05694266433364496 -0.010691325826019489 -0.036040859670991125 -0.031703183466110285 -0.04715818729070912 0.09892602770073178 -0.02060376512175838 -0.016372010909171262 -0.0603989603459071 -0.08976991918309628 -0.009042143778641635 0.0439883223067897 0.021236511018918595 0.01744760594555962 -0.05843498056609714 0.02401287166415263 0.00022798519345371558 0.041217228311862586 -0.006603089067006724 -0.031283658751263495 0.01349538523808468 2.086618775354538e-05 -0.005880321765004159 0.03788971228314036 0.04458082733819499 -0.015097657772499426 -0.011508204935745643 0.08877832498928905 0.03493900843032683 -0.02167280118715286 -0.06874999022683634 0.047214857183163185 0.028072715505780874 -0.07577306602290157 -0.054847672339997704 0.043130967305788644 0.0005346923742959569 0.044100297475096535 -0.003195107761215433 -0.08440879620623964 0.027700351370500084 0.032209043155902936 0.04017378977831666 0.10547103921913348 0.013370912952526732 -0.06021215158889094 -0.12537031877796717 -0.036587872824282074 -0.011191340923580545 0.0351849490532365 -0.025410356127755707 -0.007322772220057371 -0.10155128046018239 0.00018288350770216558 0.05014088128808126 0.009249732690116098 -0.051682655233197525 -0.07697699657761344 0.04056159124119844 0.06943289973727777 0.008986640177742382 0.012890700704347504 0.068640176527163 0.01824066338747098 -0.011411434863212742 0.009091509795425631 0.08803983014369736 -0.02761833426888143 0.07275166997101024 0.06809358807707529 -0.11927553615444701 0.07120864217468009 0.015236945122450897 -0.04053960069909435 0.05911296319869259 0.01937345053247488 -0.03155842263251284 -0.06369428758904186 -0.026216514876207023 0.11832573088300236 0.05090624236476974 0.013163527429453203
artery.conllu 0.013345396139825981 0.0012548257157167506 -0.07130115897331467 0.11895454629151264 -0.07462286186601134 -0.007526814294872093 0.05816414303920063 -0.10363929415583066 -0.02861342826647783 0.03247789484051817 0.012116894372138023 0.064624831106375 -0.05655053898219651 0.0076549745117466044 0.03367402837359552 -0.08457919216067049 -0.022023534499696244 0.017095212196107965 0.04894059207312623 0.14103917221223636 0.0036360946701281655 0.0065095125560462284 -0.03341540738422544 -0.09960058018915044 -0.07703085345461448 -0.008897170592034638 -0.037478083091031004 -0.004959652676877999 -0.011739369576726324 0.049442863138168175 -0.06154926864823597 0.11488740426175455 -0.07164948508240467 0.06743795068433256 -0.017307200405057555 -0.040584799784347196 0.025680537492124286 -0.02249280962903475 0.007904031534220897 -0.021481464959107573 0.07815627626540315 -0.017078331106881065 0.0013665715465144748 0.014549082540156534 0.013405069984971079 0.04218810325670172 0.009556195862093287 -0.042952382281965136 0.06783415385948634 -0.029488583053659284 -0.0267499848362885 -0.05097181667507896 -0.050744029745150694 -0.07830710649066047 -0.01863877044742428 -0.013734073217812502 0.0245687653460687 0.0024290926080892685 -0.005085358064837194 0.0319258668456029 -0.05275148487762547 -0.04525890613860382 0.08370597715521402 -0.010058030024862843 -0.014267823816784857 -0.07592505565352975 -0.09613545319349222 0.03508788269148372 0.011761254624712164 -0.025990321526451518 -0.0444185353337128 -0.024070391170030583 0.06681720371194837 -0.04054270673815434 0.005467023584158382 0.041012828129393594 0.1155660210453283 0.10858766611184419 0.012810593514225544 -0.06558083053573349 0.023755720085761402 -0.004306176618829804 -0.08252072093181674 -0.058024922003116465 -0.0984542701131829 -0.012843062268300823 0.04221111608361517 0.044226250604725195 -0.037759094493268024 -0.08588523634079888 0.00917713483414761 -0.004721387773719444 0.11896544799809607 -0.09377641598129677 0.027402558939061343 -0.026516746791799422 0.0674173892256721 0.044769462530557316 -0.035814472895830736 0.04917144902533606 0.015792934352721173 -0.07324951861768597 0.07060523436927314 -0.04745598487440946 0.029466761687039468 0.0036756980071578054 -0.07599666765998209 0.06441678946356062 0.020194562664151802 -0.004676765987199489 -0.0022196058099857945 0.04409859534830535 -0.040438615808876296 -0.005906489999044697 0.024598690478616375 -0.03445935915253688 0.03292071699310691 0.06091736836929359 -0.025245754320952433 0.02842395677533209 0.10622802369595861 -0.007716660760987812 -0.07341334719934751 0.13983626682541317 0.010427331013849522 0.030949246629048698 -0.024683692934510587 0.048591239213525754 0.011493343463068083 0.08800911412684963 -0.01531297896894512 0.0454525457711018 -0.07366607200232733 0.017203937308088512 0.035563033459763894 0.019728761931706338 -0.08315322966445733 0.016140050992603017 -0.04933217679399785 0.10686937118161205 0.01015472445949815 0.062381198110059585 0.06937810426244359 -0.002670515786425895 -0.03131630713127595 0.04785961914991011 0.007579040225015771 0.026105899973088875 -0.041096107848134535 0.043509125361963254 0.05061559448162431 -0.08620744299614758 -0.042060588513280255 -0.03347215783250789 -0.04101932113781407 -0.020915529002772694 0.016322792296369674 0.014550111116854367 0.0691668860874306 -0.018501955583863187 -0.010606242322718524 0.07873611523436258 -0.07186562738285897 0.017469362281380237 0.11492691961621014 0.026421564604676085 -0.0692067231242359 -0.0814807132884027 0.08156554728533437 0.09424316397281772 -0.08799159170822735 -0.11400341323125213 -0.1001825596671458 0.06150699158886135 -0.03998940809365532 0.08770758244179014 -0.06487116529951559 -0.027193673574972987 -0.03721113289320091 -0.05476967198309678 0.050253712409497275 -0.06506108192388459 0.02578957131824559 0.020241976260096925 0.00020241700397313018 0.15728737241638605 -0.017644480010430365 -0.03966350421079468 0.10312755675471294 -0.048186117021148826 -0.05923354012721124 -0.1117381323223887 0.055281949325256326 0.055605024090363206 -0.05867173400761538 -0.043874363372522526 0.02223418352147018 0.06877509908799213 -0.11767930261746444 -0.05309539958977641 0.03832759792654223 -0.02633977770166747 0.03687524728756179 0.018320405773308557 0.02184508206827955 -0.09751375863222511 -0.06241878718902931 0.017430387402227125 0.06727368149595979 -0.03013390083642318 0.16923322844665775 0.038281649768722885 0.09431169353879731 0.020180803072540412 0.04327043972877605 -0.048241134795216814 -0.006216771004313763 -0.19099224669837098 -0.04928291585558651 0.012443569643827479 -0.06901383001088651 -0.03982044177010386 -0.029974729807400038 0.0933422643105268 -0.023882756750341103 0.009589186993640985 -0.10720642275917035 -0.12404083121414737 0.004224766039105796 -0.003178288225581344 0.00814661957171773 -0.02622212470834456 -0.05659925596571035 -0.01846244934798241 0.0003266508674175152 0.021213959134320007 0.016737531484642017 -0.012666917987287515 -0.008838468335712234 0.055083342767503235 0.05511579564128561 0.014271144880116288 0.013675909440970552 -0.053661462551526984 -0.06331503178345542 0.11034245398588872 0.005460064858318927 -0.047885695092215165 -0.04887290920691652 0.008829991640375406 -0.009039713466340662 -0.01573558725854704 -0.056561703557288845 0.06792218621644718 -0.029330082833209484 0.03623799488631469 -0.011461184558028917 -0.09442860514050219 0.030090156015314076 -0.013121591743011895 7.762867946279378e-05 0.09687183780529522 0.003716827848646537 0.0011687736330839758 -0.11026926045910923 -0.06694088643633411 -0.10057972403615616 0.04346000386529098 -0.0011124843027490155 0.004621669378804912 -0.11052360324866507 -0.045062585448556194 0.04030580589416452 0.01215916593828027 -0.08936407483890209 -0.06169117219290451 0.03550680918343501 0.09273911167150703 -0.0006021830354629116 0.021087288893358102 0.04438232557434586 -0.002073537512200447 -0.03175861279310738 -0.046533556963407295 0.07687355877561547 -0.042894680642243076 0.07562285517728916 0.02329781467859296 -0.10870165281172203 0.0772465813997372 0.012009970959471197 0.03848251604503586 0.013053548034463179 0.011686464507425479 -0.04686383656713884 -0.07573209510700903 -0.023800624320822247 0.11979629967836546 0.055255169865050954 -0.01762383895664222
axon.conllu 0.009515969152179983 -0.00929075733605878 -0.06630070546732066 0.09120551191100174 -0.09147869983446001 -0.032300271364548015 0.08690120251812064 -0.08807956135325534 -0.014125413286729538 0.021226660125091713 0.024395884107093598 0.050384222695665185 -0.024259145166647688 0.018589682315520245 0.06429976937239977 -0.056135252832236186 -0.0005759801295566963 -0.0049723234527647145 0.02270261501931905 0.12492065565494848 0.022710957005676973 -0.0019697726351598967 -0.05554675805814276 -0.09788456012716998 -0.07389408386935294 -0.02584591402404537 -0.048682765442686675 -0.008459363261664242 0.0030836288648905482 0.04574035146508954 -0.06264019343631441 0.0903929803004778 -0.047562725106332894 0.10288937015549587 -0.022446389834296265 -0.008481861475362262 0.02377261896603162 0.02242687678091509 0.009302051248992013 -0.050388714878242986 0.0529556894324752 -0.05082675714438095 -0.009475876935485392 0.007408383920298095 0.02996986830433702 0.04198744051988277 0.03130114563848291 -0.0336317882109642 0.06514329679132762 -0.018983171758097692 -0.03309412439411503 -0.09004277913612442 -0.029825460461974127 -0.05078969514005596 -0.031038596567591396 -0.021712588144545276 0.007684492710868567 0.0028384463539286218 -0.014839318307810821 0.03692069621307915 -0.05282812922648683 -0.0472395959977267 0.07891854708890084 -0.009348958619707262 -0.03223773214462492 -0.05537197661537862 -0.06582225563879288 0.03015752592630451 -0.025821912851731743 -0.03953347551361509 -0.04425653284429595 -0.019720611096288927 0.08820642601134533 -0.022436827123561383 -0.020578982567313442 0.04833129710890263 0.09739460928000672 0.10888057047548537 0.002639215620606836 -0.039820174756233034 0.04421092691011331 -0.021278615409672588 -0.08630964154346034 -0.020913246286966423 -0.10305778070794522 -0.040560327729687956 0.06863049363555285 0.04823062475906431 -0.03884435222777258 -0.07881176261556833 0.05150694253163485 0.013010472463124275 0.12312799725909739 -0.06445480308362726 0.07914332420769335 -0.042405930589577215 0.08233327038972531 0.009383392708115966 -0.05308076741146621 0.02879946590250312 0.01271285898555668 -0.05674544957682741 0.08706778137983066 -0.082485411765481 0.04606094872498705 0.028577716436074093 -0.10570211979298733 0.051100714490476075 0.025556112819311454 0.007309504812512969 -0.023522376850944698 -0.0031923243060076475 -0.014483460086322677 -0.03529102194272664 0.03393798524077314 -0.020130825207004745 0.03773664495790263 0.07225680109998774 0.010639031234805531 0.031076565954359297 0.0723731397114973 0.006736186782775855 -0.09887924601849944 0.154852273717628 -0.007441939475657432 0.018016712989413933 -0.03689892404831054 0.06028304967130724 0.035191009133623115 0.0919509383161891 -0.01158842646148853 0.0619571218155111 -0.07776876760916691 0.018328127816199382 0.04486874834762297 0.021340075279961495 -0.0643630747895111 0.0008748979416842521 -0.059160033848584696 0.11395076826457821 0.040596866479306305 0.06205504849508858 0.08954272437732666 -0.02367778442583596 -0.022356940951188866 0.08628013870670986 -0.01866169983416382 0.005780238193449813 -0.01496283422176121 0.06514919834560942 0.059212149871806674 -0.11412279508355071 -0.007006421871226153 -0.031875851358844666 -0.04294373413793249 -0.03749099946828825 0.03694507800102157 -0.01523305744647253 0.07893330390982904 -0.010049298865605107 -0.020421025680960624 0.07102008342982775 -0.11352269225308616 0.03097390407166403 0.1048855649741065 0.02190144378131038 -0.03798376435990845 -0.07320341489598854 0.04833915511120343 0.08309258217125517 -0.07216014505154271 -0.11112250520686828 -0.09741940706803094 0.029663893485010313 0.009780736586685788 0.10021672661698329 -0.05173649092673415 0.00817031581381417 -0.03496533226919563 -0.07894272012369517 0.00848025288955067 -0.09049934252133225 0.0165849386912953 0.02338903567388272 0.003061127058089249 0.1305486214464824 0.019636187203898512 -0.06413928966548987 0.1255945286485679 -0.011628591837635949 -0.036064020192195824 -0.10764366226490364 0.056618888894183476 0.03137032490160879 -0.055759520103729636 -0.041406229166325526 0.03609142658979105 0.07184554096958258 -0.08312316254206295 -0.04784198779390604 0.024448989090751428 -0.025406355838761267 0.017330481238580112 0.015242267072975027 0.03654234953774459 -0.1125795453972924 -0.027374931053571236 0.03395496986682271 0.027488438217430983 0.006646164612084515 0.14566645850741683 0.029836354059221703 0.10628487825890964 0.025432878365311152 0.019231757259626912 -0.07306374262946592 0.01294592439409136 -0.20853665165841653 -0.05382406401496328 -0.018166914315966707 -0.054906671356209656 -0.023188381907102838 -0.04016599657725664 0.13441076483021702 -0.027438112448566962 0.0060280161820792984 -0.07042643557244263 -0.12781506502236556 -0.037086550757821975 -0.019981121104809065 0.012742761626469857 -0.03728881169778158 -0.044525668392004183 -0.02502385476658611 -0.004984532678139323 0.01755820230373873 0.026585093385783715 -0.004764908312424467 -0.017727815144241776 0.06581575700191643 0.021267250564264605 0.038552543765641434 0.015287689959318715 -0.02134305992299612 -0.031191488883891446 0.11355538681708388 -0.01333289852173332 0.008060911792970298 -0.02461191949097304 0.01570495671073915 -0.05649328466706225 -0.03428643681192358 -0.08021829858497456 0.0341036947099836 0.012676994897027815 0.01254964231272945 -0.01421335254958839 -0.07431938704504389 0.02567738695345622 -0.04090527991887426 0.012537793636952423 0.06870778235962302 -0.0010969435391550114 0.004864015266956974 -0.12728136411594812 -0.06471977879311655 -0.05901014340291479 0.020513857797519273 0.026569536313852508 -0.017159275727576577 -0.1110239043941757 -0.030170341199439073 0.011915638220588201 0.002201662020123772 -0.09931276482970813 -0.0873763350693633 -0.022742686506558737 0.06674358078142809 0.0029517629691958565 0.05053673466982014 0.05824795964773237 0.027454237511055964 -0.04255664261507608 -0.06897948220990685 0.05601986584616455 -0.04062722785076257 0.08238489554732588 0.04395869088045805 -0.10003212031965676 0.07172531448744085 -0.005941712937008455 -0.006131438083048352 0.02439077280155832 -0.018240399132292064 0.0009414905520485241 -0.0786852907975328 -0.09175158683861288 0.11466146108344344 0.07454304043567218 -0.04475004211116231
benevento.conllu -0.05124097245729907 -0.02295492026083249 -0.02740706275302833 0.07706498490058694 -0.07775799494360085 0.039758661606669556 0.006102175260380078 -0.0678947001045735 -0.0017516411100423305 0.10917942329045646 0.03995071953455275 0.019993882600056176 -0.03282830473298758 -0.033100042726720375 0.01841180774399067 -0.10399495176838253 -0.0262364011009837 0.026976746198998418 0.019597796188550648 0.13243310088583776 -0.06200038992010387 0.08056617663203162 -0.1237503235594703 -0.10022953794748186 -0.06783221573195697 -0.029650018829457964 0.00962862840293001 -0.04391709100413906 -0.00018015392809074207 0.04212180348148016 -0.05538002200351439 0.09904007733245644 -0.1264815884613816 0.0847399957420119 0.026210225219521106 -0.0752598432670476 0.047021859835353286 -0.07470306392720455 0.0009165736340519878 -0.05689982184641183 0.08094160497405073 -0.018915886238024024 0.00311812502474658 -0.011008616758956265 0.04319200657072771 0.012573819517404853 0.01581309372671978 -0.010744922257351009 0.022820726227847064 -0.022633306973341705 0.018552151968157276 -0.03900126371775737 -0.018793986868429955 0.006062080240099537 -0.08792430495275917 0.017392904737687804 0.019696288264052467 0.05426081529652605 -0.054895066274718025 0.09913053659370771 -0.007710537785657865 -0.022708876738908323 0.08894349321656599 -0.02623199003849974 -0.015213416468953295 -0.08022723327158136 -0.04841199858598366 0.061989626817073 -0.0752872868232867 -0.0053582982313077655 -0.010966626183772216 0.03807767964793741 0.06631141153887396 -0.06075032672378949 -0.035758081281439855 0.05848583189742204 0.12000814722042254 0.122284241747864 -0.034136727181856716 -0.04135251331525825 0.027412239104469358 0.07045040114747997 -0.0050775887984225295 -0.000986897682620389 -0.05385092102747198 0.023539256173565132 -0.01797717548406141 0.0745906589355877 -0.002883837581083217 -0.04276751152502793 -0.017474099934679233 -0.0884471327382926 0.11696711330305377 -0.08845150750312177 0.060292077059267715 0.0058794116553885795 0.07453683786848128 0.038834657928907536 -0.044035592249275356 -0.03201307519399655 0.0043432314998678445 -0.06309983711655696 0.06205603363032196 -0.02029051981846398 -0.010300145494806155 -0.038464051045589955 -0.08091505600041787 0.026274872105388255 -3.5191730456253077e-05 0.004458156808138181 0.009310469136191393 0.0014029424971382179 -0.04040621867387032 -0.020820318655707097 0.027244726882433654 -0.05198277976692889 0.0715708980836866 0.0688376675038028 -0.008726849254467397 0.03907808092435655 0.10747031524101153 0.06405186362257136 -0.008099188509028101 0.11130128635233189 -0.005577194022689401 -0.001627542963724563 0.051763300934166284 0.058230745698186814 0.0559912908831593 0.07523479371598317 -0.04183193915816802 0.0329807107092126 -0.04144353680613386 -0.002813655554581546 0.009860532229601168 0.03261610399783484 -0.026520966319629795 -0.0318782173965082 -0.005240886558535111 0.0988071716873787 -0.004221815838766641 0.04927281719307253 0.052727440331085666 0.0549345632968444 0.03326797644878222 0.14667466229804405 -0.03605875388639145 -0.0367461151325189 -0.06291730114056378 0.04835261945601563 0.04351265300278043 -0.11478961839230839 -0.01341594241157423 0.029077840196490273 -0.09602592062401297 -0.031840962382840815 -0.00751119671541334 -0.025665998364432036 0.11446671282443902 -0.015763233438822456 -0.011712246514962341 0.09543485118691258 -0.06601159468384994 0.018969960905713668 0.13131579583420894 0.010652167502452911 -0.05427126967412646 -0.014230889711092865 0.14413494959966136 0.020945818207873952 -0.1091011329427449 -0.08353378829567769 -0.10922815367488681 -0.021091560716275472 -0.05190822583198407 0.09236302940309578 -0.012465949270942382 0.08011371958170628 -0.004625161164410242 -0.04177846287083711 0.03321091022786527 -0.0664490864139732 0.03285486845769486 0.01987848899977823 -0.013969149117473195 0.1366795293724899 -0.01768462720425824 -0.06386035281386632 0.11393264614242431 -0.03344604693098113 0.030788492467357265 -0.18907870679959343 0.04702567677848962 0.0820472769517026 -0.07143236158198749 -0.02031359090715958 -0.01036274932869506 0.029407706263469866 -0.08713027586771757 -0.01206254222608612 0.05415958427137024 -0.01542359716817842 0.026395966803295926 0.03299202785029332 0.010639311206437315 -0.10319021669561172 -0.05597704437643387 0.0201942634438005 0.10124622045808314 0.031016266790614682 0.20695410552525667 -0.03290689039415615 0.06347428638474574 -0.041308437297739524 0.048904804801057175 -0.0031725114337442404 -0.016110953515966146 -0.11920263432383368 -0.06461368799663414 0.0021588763254190434 0.017861144564926 -0.054096191524551376 -0.10924176593559724 0.06281066436625884 0.013619066216979137 0.05594174246545111 -0.0288570351824374 -0.07916376310488361 0.009327027129640704 -0.022303185392923572 0.09503037918194357 0.007728597458891319 -0.0595191164609414 0.04134413221329498 0.0022765424933616847 0.029446066564942173 0.03180196197186271 -0.0035192816435665876 -0.030344297554513705 -0.016544938875435615 -0.0107403945813653 -0.0451674132733702 0.01812405078757546 0.007230624442282628 -0.03766644712703915 0.01603916015862749 0.005596378901084318 0.04561417876585706 -0.02312037438226193 -0.018209994409994625 0.06471506116329814 0.016862429061833616 -0.024803604018566665 -0.029377085724590652 -0.014629000210377071 0.024913623903734045 -0.038037484419573886 -0.08547348762859258 0.060703341740554494 -0.0032392444903974913 -0.010548003339692922 0.046516413693871196 0.061664197679851686 -0.014507776375827007 -0.10789721829355807 -0.019634017317850104 0.013971009343235913 0.012444137102466436 -0.017030016810491266 0.018852299121317057 -0.10515889044925615 -0.016434539096791732 0.023326909853240936 0.003269202782899016 -0.05209070855764811 -0.08914228074937468 0.08845927878353543 0.12813359431798957 0.006911303348106145 0.006575734607538542 0.01502400118517608 0.03924993642813791 -0.007360181721367617 0.031713481412256515 0.051940803829003665 -0.02207693239583989 0.02958542530723888 0.046136513878596214 -0.01718010438987767 0.05495235741548062 0.016862993497480862 -0.025009060964290147 0.0015813845060546293 0.03849694490473828 -0.023778870627831582 -0.05533788318539162 -0.06733585258981746 0.09532920132487993 0.0053175703267043 0.052129502580602206
beryl.conllu -0.03006459191543366 -0.018378546531253242 -0.049524115426926314 0.07076469133441643 -0.06075650494304622 0.055732828345759586 0.0682491209169061 -0.1074233069618445 0.02478906038250057 0.08640912606367365 0.03272370489268195 0.04112098799085649 -0.02832814281322156 0.000857109465403432 0.08106800117850432 -0.10738315182951194 -0.0781219051988863 0.03438163770727863 0.0065791566508299395 0.12989041310351457 -0.07836064626707107 0.028076018915308303 -0.09894299001052641 -0.06523739612101177 -0.09466462847520853 -0.03422050422981589 0.029409366800377906 0.0014323482264012757 -0.005375534346631943 0.047301670108042676 -0.058732552277930394 0.10845974320410937 -0.06692439428347234 0.0750158286584243 0.02240087832423246 -0.01815998471187481 -0.00640288585011883 -0.047918234835933174 0.0463128453101608 -0.036256965263668825 0.03542233585734281 -0.04415149585736066 -0.02142595935072313 0.018038085311190617 0.03386638586667461 -0.01310079819182387 0.03879431969449618 -0.02214605864795165 0.052772622099087695 -0.029037661290836306 -0.0201207596992129 -0.061324935828594065 0.034110757542359385 -0.011401247966893955 -0.04715580319798387 0.05228180178747773 0.015549377724010072 0.0509993588657117 -0.008861074611401962 0.06879755282452625 0.008559273012784066 0.019509057559227362 0.08557207662125323 -0.049364317331376535 -0.01380546550703009 -0.0390476101257324 -0.07227818442038537 0.003595255513112673 -0.048401187106950454 -0.004202267738412129 -0.03638264320353201 0.002027888888197504 0.05794383036525506 -0.07374596454665824 -0.02505440798760315 0.04462124629735978 0.11551151503718969 0.08890762178366421 -0.021979362343874962 -0.03125430370694018 0.013213913758120466 0.045720257079060474 -0.05262888118997633 -0.024168967214174473 -0.06408120881900008 -0.01959452086876941 0.03468371254252726 0.05378975577800147 -0.015018872976610396 -0.014072904370912022 0.010371437531195687 -0.005942488034682396 0.08631424832939004 -0.10282565948984176 0.023372224105098316 0.009298523117546064 0.048475755824721536 0.08956593509665227 -0.06525274769303117 0.0035789738192006835 0.028970613293119594 -0.06888078802737516 0.060410161967064405 -0.0033063265252569205 -0.00428770072009516 -0.029209536523711783 -0.06902462201034182 0.05696837262183326 -0.00564459853627423 -0.009482822861256993 -0.017976023387314945 -0.01845847459907985 -0.031060645567545106 -0.0163045689352672 -0.011591231912112821 -0.03556207717356296 0.07932633623106614 0.03260216539106969 -0.007296767513737745 0.054106794604984444 0.13098708735835674 0.012670712080446261 -0.07332595830681332 0.10797027777159338 0.036081589062632216 -0.010625568253333757 0.0560506499222717 0.029536467536717674 0.054505597705276375 0.08136197977097631 -0.018469021871787335 0.0696221117508379 -0.04785068607920895 0.050323808108010105 0.03758547564050875 -0.03595390739720046 -0.005047767190939312 -0.018739456531669037 -0.039641665097840846 0.0604514317996861 0.015618335062319934 0.11359892543312605 0.07050849638152841 0.007594603001597031 0.014452634626351678 0.1279115717812416 -0.021174345287921018 -0.02433745218016007 -0.020820866501526578 0.009335531188802485 0.07778431523715358 -0.14063303866762444 -0.044950766964385686 -0.04762532419677092 -0.0732473992151965 -0.026242906341509477 0.02753227583804117 -0.02795528578068971 0.09406849375345823 0.009026436362218922 0.007965154106948187 0.09942849932971444 -0.10439959890167932 -0.008775811175246053 0.13435034757362607 0.017403328374712496 -0.033663006394689166 -0.046532839375204756 0.12056590279097619 0.06723470051510795 -0.06972975516346637 -0.09333630997051148 -0.1075313337603844 -0.03274092131803454 -0.01743255170730662 0.08508363500187886 -0.02242630618414234 0.04793266990821258 0.0013775339437992794 -0.04507524256844689 0.024054281231375946 -0.044781679991012555 0.05498730676124836 -0.000982781962357756 -0.000323357079927541 0.09242939637747183 0.023476693984833336 -0.0032035013542199673 0.09344774320651655 -0.02807512968769209 -0.0265666375638091 -0.14518555196441976 0.054489204219553604 0.05749086738581348 -0.07019631859032276 0.001830026092088278 0.03888520056836459 0.0670905424932943 -0.1183532953128215 -0.03654642124947184 0.05202587142520286 -0.031976736003931173 0.0002135078072174971 0.041423922092304145 0.04811276666403093 -0.11941448516805171 -0.05534823176499269 -0.012232236649843617 0.13713248627859181 0.03322793550244395 0.20055852249942824 0.01591440663044511 0.05599887754027568 -0.03763293719031086 -0.0019489555178309626 -0.07002936243543485 0.004584031666535828 -0.12049775803047746 -0.06106786563634931 0.0282573261950376 -0.032682747961802656 -0.010740177898511305 -0.06338037585909008 0.11297274897813066 -0.023480871649706435 -0.0006538844505990506 -0.09740488358881604 -0.06283100551931019 0.0028973408145839858 -0.02425555614977147 0.023130396050885176 0.011748283385459931 -0.052494130366787815 -0.016751711056483307 -0.006981462065681745 0.0069390632875165744 -0.007299984140667469 -0.041745658926628744 -0.0409445303186086 0.01740063557121682 -0.010279720016421147 0.010554778347552456 0.0014819982502411958 -0.02710821059198116 -0.024881034190534466 0.05357252229597963 -0.01162092227972112 0.028593753296988586 -0.07839200713082416 0.007209051626156589 0.031724405967692104 -0.039179184060236634 -0.04412892086993378 0.002384479481549687 0.034145543977355114 0.03211246244436905 -0.01978177397037774 -0.055207479001684163 0.06559075527566863 -0.008330203828166285 0.014142118085334473 0.10406045652495474 0.05358592207499758 -0.0374669292222994 -0.12621198418591195 -0.08524166230284022 -0.07343102362130244 0.09084463150164161 -0.048695068737196937 -0.04441142067287927 -0.11047902186780145 -0.0499347434200219 0.06571856536233649 -0.0018229438088523942 -0.06977509108809091 -0.07486401829418152 0.08644536505510635 0.09811058638009833 0.002547000917491895 0.04526119270302318 0.07901392447711339 0.009777054378101805 -0.018344208530780146 0.03032359901553868 0.0696984954893019 -0.017108763783237765 0.05968629812012933 0.08383735818236634 -0.11241600061136574 0.05866570627487172 0.04931913945959873 -0.017602492812693542 0.03433636701771284 0.05832492582562168 -0.03840369268284687 -0.08734902767409543 -0.03889367155066544 0.08470355320014417 0.06466520944502725 0.024097902462970024
beryllium.conllu -0.027969069701704534 0.006385892189400338 -0.05704146305574614 0.07358212895072547 -0.09086083780043669 0.00656114040584625 0.054061714781257875 -0.15238212741642365 0.005516894357494986 0.06654743841708341 -0.0015257827085242955 0.06546398047447409 -0.035252306559390385 0.003155662619050613 0.059965979266559576 -0.09329892073224684 -0.01900042022810261 0.005160834317640953 0.004085849752422864 0.14134288112667828 -0.013609094556406883 -0.009571144485836406 -0.06662127279011537 -0.09491174307480889 -0.0953484135124866 -0.01250992099131238 0.015692041670376012 0.025935740163380648 -0.023695517746237998 0.0871351637603421 -0.060208645734150724 0.12216377520959663 -0.07108613410559333 0.07298428827469694 -0.016779172214565808 -0.014682814545715538 0.014922194991006235 -0.02834355989249091 0.020577141303111633 -0.05223582112118651 0.04700371981497245 -0.02542579810118409 -0.006817245770875181 -0.012599045622240958 0.03247597641408475 -0.014703680556856636 0.028057761270427715 0.009298382059415265 0.05788515495897975 -0.016443590684002512 -0.025819759814347244 -0.058484542408808064 -0.0077295660533423655 -0.041536124368634915 -0.03772129988719173 0.01528922091119205 0.02722151007149503 0.03503794019003091 -0.03151283553446968 0.009400079401047012 -0.0520360228107406 -0.012254185681312844 0.05092836730007888 -0.03809633968008936 -0.01851609089553634 -0.08628854388996994 -0.05923769831794342 0.021500198752370716 -0.035383020120166093 -0.017336338448681148 -0.030505520383976113 0.014225747116042305 0.06929872984000413 -0.05969851572687967 -0.012826901740112757 0.0388181704900752 0.07432645430275091 0.07508272840003195 -0.008934573680786262 -0.029939162727528865 0.07377631276692344 0.04474500916325135 -0.0770514245502808 -0.04651634191767754 -0.05480643128523044 -0.03087178717032372 0.04435248999457318 0.036903003211570175 -0.01903713262395931 -0.04442175245932849 0.0167261479813417 0.01685099605856184 0.12017464405833962 -0.11124779869437589 0.028401494113730056 0.020871228304239108 0.04390986781740137 0.06205429041900607 -0.053633851524604204 -0.0038524784859979193 0.034071215635849215 -0.08822951233682041 0.07993816900007115 -0.04745581942993449 0.00914656771919682 -0.031521899825430154 -0.10206326365189028 0.03430285081638223 0.0010523416332399876 0.014431386414061517 -0.0523352945965702 0.022851897844048376 -0.055591675101561225 -0.01883855734084197 0.009497031296498636 -0.027645494490736697 0.04702176204113469 0.05011815461907177 0.006273695655664715 0.03032425904092348 0.11655785414846873 -0.017460649100575838 -0.09844466244333197 0.11433586186388972 0.011717656691505832 -0.0355090090962282 0.012144769494776641 0.05307175807149169 0.024652101190941036 0.08520555698090126 0.0025109767179503236 0.05034069439613405 -0.061949860564917594 0.03926870364381512 0.04226260105998297 -0.018937647630348803 -0.015815044442264267 0.026177847847473845 -0.021178086047242115 0.08202937313513493 0.04041934139283904 0.09623408375369007 0.07037289024599644 -0.008647336247014357 -0.02519285849843108 0.06919518555455408 -0.014003224012355152 0.010947206228962508 -0.016412985448994444 0.020455855507744314 0.05552587552935141 -0.10935147606039748 -0.021898992626256636 -0.05796284961023891 -0.04873187870688971 -0.027856266653422012 0.046839702414309715 -0.010737117915188724 0.05763146601591309 -0.006791965373949147 -0.00950553641399983 0.07709180900756639 -0.10097934165499477 -0.03102404244608019 0.09481145619895978 0.055346224288146235 -0.027768803577710152 -0.06263454283048007 0.09025891588290172 0.04843281274994729 -0.11004935402127246 -0.0982845458180327 -0.07525417294895889 0.012024333273111044 -0.028816129374594317 0.10056562010575107 -0.06262368551497287 -0.005998441703446755 -0.016600729905775574 -0.061875181489436305 0.020483426880532955 -0.029785743408023462 0.06874782640311639 -0.00977806133720256 -0.020132889063437374 0.10492133248803401 0.021055255206822436 -0.019655979134174766 0.08207030946593682 -0.0239556847173939 -0.06909168305618789 -0.1367326866321059 0.04183850057108129 0.010686424892240561 -0.07442250410797235 -0.03893065155615135 0.029216227993280962 0.08060537023706384 -0.09358057768167231 -0.03700742408389665 0.036077661994983724 -0.03607242310386131 0.021608745880870143 0.026784416220810726 0.007914282051210017 -0.11837562698819909 -0.07618209172853095 -0.0030951445890371773 0.09087330708849412 0.045739165494363465 0.21903339291367716 0.0050647821574378174 0.06449313980219726 0.042820130747603664 0.01869257290311263 -0.09424992784896381 0.004797585345639359 -0.1549687840103806 -0.0574687892821838 0.028502350165972228 -0.03913651365213453 0.005557149139934042 -0.04800504624642162 0.10909376654587011 -0.02966119226571669 0.02200428825354486 -0.10139932749186911 -0.1124481983362874 -0.026277433058118083 -0.015269592405759258 0.01810309484633054 -0.02398584328991507 -0.07421501966698332 -0.027249540372778307 0.00740236248688753 0.014211185343278315 0.03402633023051981 -0.07414526650814157 -0.03712316062847599 0.05904423291273974 0.033358431907631755 0.014384011195492184 0.03174753062143991 -0.02285564310354688 -0.06612977334322766 0.07697560793325811 0.01478454018483498 -0.02621477093651726 -0.08085247420124123 -0.0029474145662916106 -0.010035811502993059 -0.04893251482712513 -0.07901895788211079 0.028740966134483095 -0.0022857370772715923 0.03260754306863078 -0.006075696149058009 -0.06697489036103738 0.0052542587797946745 -0.005097866026971472 0.003945807081267933 0.07651628230462058 0.024646809086018573 -0.016467057787938052 -0.13300655417559834 -0.08010614497187463 -0.07681558935183642 0.02921754798654599 -0.02458886076547245 0.002209180780317352 -0.11290211586882297 -0.03264481118790473 0.053866929372308095 0.006760260049834776 -0.08524221974034503 -0.08519349656095362 0.054681274222426225 0.11134498703044722 -0.005144972059073965 0.019584938907651502 0.08124476850711856 0.034411741584469566 -0.01490075073723541 -0.055179725245506184 0.060312775532479435 -0.02762096882298549 0.08403213899132941 0.03528086059486441 -0.14113844674487738 0.09395322615835126 0.07042075058342015 0.0071020593345543686 0.0317569213103612 0.030212002930492362 -0.03454215094374497 -0.08635903157735497 -0.029543399217734502 0.1142805399024455 0.07658260856088009 0.02524515056684662
biome.conllu -0.08036194486639109 -0.003755020870837066 -0.017077953888613065 0.13060155143205465 -0.06375103509116448 0.03075739962080253 0.0868625581490862 -0.08796152509532897 0.02205590832604697 0.07139925250392398 0.02033060182290388 0.057086589689732785 0.006208958193056049 -0.02574006625405761 0.05288600163174567 -0.08455869933042993 -0.0366059240221445 0.0051100976436098235 0.04127048579497322 0.13002181137098634 -0.019555386824191594 0.031838396197186564 -0.052073792355601695 -0.028647189377192697 -0.09301990814860239 -0.059192468627065606 0.021306297115107516 -0.01925925863351161 0.032536308756477256 -0.002341785654375928 -0.020255559363877945 0.12552481077506825 -0.12031274937029672 0.10187312203354518 0.035114315130533084 -0.023804738672816534 0.06693575850125912 0.018147084685645992 -0.026420691550087153 -0.0621052262509822 0.07059564185048489 -0.006564142539012824 0.00454381248326742 0.0028876999983352193 0.06331986668502618 0.03418550419311693 0.042763867330475415 -0.0078899292456121 0.07956473710730098 -0.016211118402695554 -0.005428052523426382 -0.051257824908719 0.020016240564130504 -0.09604871080544371 -0.003444081033816451 0.07120271758302929 -0.021045393963070064 0.0820689272276197 0.022046254820623102 0.13268916643918774 -0.08111420338913443 -0.03328220194005005 0.0778481269332952 -0.06532902812461891 -0.054791444862359935 -0.07036235977774935 -0.10376738304531631 0.037541153953334475 -0.02173082092496063 0.010822304363550594 -0.046084819011293326 0.035518932654643356 0.06609115857075368 -0.0560353975483815 -0.03128455163680809 0.023395412161162067 0.12324873906454951 0.07876254042194003 -0.02610810214382409 -0.027606719303531247 -0.002393411191624749 0.04839942265280001 -0.017587465984488057 -0.035266519478451996 -0.042495846305078515 -0.031235298141795962 0.04440143933155799 0.09340907856215638 0.02912637038231967 0.0007479282870058276 0.029409410499207436 -0.020731326854371214 0.11448459637584063 -0.07033631065921586 0.04455991678724414 -0.028739836420287924 0.07434968677314885 0.07060549968234563 -0.0244992971399314 -0.03424252870250248 0.05384418491488222 -0.0846966794651406 0.057907977386170845 -0.058216106155498895 -0.0339036096933687 -0.01832913090044461 -0.07343679803828497 0.05908250412027649 -0.040998962553561426 -0.04912182172515222 0.0005572605717203787 -0.0007489564219094819 -0.02937821357378047 -0.01638430676039225 0.007902212283124018 -0.03457790270723822 0.09947962900433195 0.07632821765757486 0.02255926810319971 0.026829408211078924 0.12767948506137825 0.028385259954546254 -0.09070591420964469 0.06522447245338149 0.03025697515149469 0.01725980669798879 -0.0001735008505795458 0.07402245243234722 -0.007509344855708823 0.06436679612779149 -0.023175736525730684 0.05184681347950819 -0.010212068324587412 0.0065069154971913856 0.042036822724539166 -0.007327763746632401 -0.0385974697223133 0.017978512567054548 -0.0535833515714957 0.06667170009675734 0.046714288491951986 0.1153481197991134 0.0478269231785797 0.05991512726957264 -0.02751390169986502 0.10169461983416217 -0.018134022763962435 -0.0023579434626783175 0.02435558749032631 0.015547096363299913 0.10192101177228657 -0.09950631715189955 -0.07052959227489596 -0.07284060250241767 -0.03867779960776271 -0.015956219421677728 0.005751110156899087 -0.03104123710676537 0.07122308774859656 0.001969003888337099 0.0243761666656973 0.10388908260157309 -0.08413903230712085 0.0006724260008324036 0.10483946880482606 -0.024436592782753865 -0.07424329595049131 -0.10071846452387631 0.1013419743281416 0.052895740220675704 -0.038902769040453394 -0.06789413488415028 -0.10289905956302912 0.00761032524742007 -0.016193630701577498 0.09873132091949742 -0.04301390255214881 0.015732254522305245 -0.02278366739159526 -0.06610396602886565 -0.012914552775651471 -0.0009720003835951229 0.05005362269059869 -0.0052462337911619765 -0.0069346191410425756 0.08086755004822826 -0.020647769742836167 0.025752262915527166 0.06491935353420088 -0.004141074633163585 0.006568517446585456 -0.1441918105400008 0.0644568453421305 0.06490322377491031 -0.02198658178084978 0.010594771108029971 0.009043737635685462 0.01825366247549244 -0.11155539088634871 -0.03559855981025088 0.012642864551368151 -0.02012504678948958 0.0076763952791428745 0.04046037025471568 -0.015535982004346105 -0.17939992354423945 -0.020414333820612578 -0.012029580428862058 0.09709039050184928 0.04163786163450733 0.1790127289537523 0.012133677731046342 0.07004388982543631 0.0400727070804307 -0.012014117939809821 -0.0558050799278653 -0.02186341856421096 -0.15294472518483224 -0.0333626429933987 -0.042496126735358145 -0.029103966600566963 -0.0040131294000133695 -0.03996980114370187 0.08893431563620983 0.023944148175630477 0.012522267066708672 -0.053404777922058014 -0.08460854637169082 -0.01514489760275162 -0.00851110088639717 -0.032394317903452576 -0.0014350630438806215 -0.10206839026117685 -0.0008346259610568269 0.0105121861957755 0.011801592373533476 -0.0013194031386723523 -0.044823537850524904 -0.0040904534819487135 0.030738959769698912 -0.007267435932785234 0.007118364343005192 0.047067388681049344 -0.08242674684313878 0.009167790729197278 0.04405616187069744 0.021682379189679014 -0.02917022426655162 -0.0777108189632059 0.009628225289407044 0.04484381208511417 -0.0299268066903793 -0.023023988609731 0.038310868589796446 0.028468437539844366 0.015172181057373012 -0.05209812675640354 -0.09344973385651947 0.08453250150744714 0.030115170173608992 0.02118439398240959 0.07339970982018178 -0.009207149949397793 0.008861934827465617 -0.11820304887510685 -0.04680404594201551 -0.037798395279524215 0.012223804051804885 -0.02988965056831348 0.005983008487813333 -0.059976329317279205 -0.0013123035330812611 0.08110212233272698 -0.03653945713468884 -0.046462617239384475 -0.06679058160867506 -0.02645999009199705 0.06266798223499026 -0.0164562212364406 0.021735643003234748 0.06883085200777418 0.051881835234278494 -0.0653013258930674 0.005010380998299381 0.046239371088659574 -0.04854120345797297 0.04079156084838066 0.033989669171815465 -0.09923155690842873 0.05927063850561078 -0.01318782257616328 -0.008011324232219041 0.08336650420142941 0.04309468069811298 -0.033933341269500934 -0.09171692069096081 -0.030957868786043872 0.17804658826405922 0.03411302394596005 -0.0020564716898025773
